     -0.4526419849
     -0.1482703707
      0.4721179484
      0.3654542232
     -0.3320204220
      0.3934397994
      0.4255347002
     -0.2063177719
      0.1314628594
      0.0223638689
      0.3971358226
     -0.2333185923
      0.1033622691
      0.3971863119
     -0.3475021733
     -0.2834034699
     -0.4388582362
     -0.4333910958
      0.2955954301
     -0.0641710808
      0.0384877726
      0.4836494551
     -0.2283960070
      0.4540323330
     -0.1719423634
     -0.4206651359
      0.1635109958
     -0.2632910111
     -0.3243651631
     -0.4925548744
      0.0561728544
     -0.1195326430
     -0.5312012999
     -0.3324336450
      0.4313765136
     -0.1653517063
     -0.0426761168
      0.4114840562
     -0.1767817225
      0.0661828260
      0.2055819468
      0.0142895002
     -0.3682565233
     -0.3046138734
      0.0955701558
      0.0902677431
     -0.4151314614
     -0.2601245020
      0.1956066768
     -0.2530848635
     -0.0605652294
      0.0098201120
     -0.2537111613
      0.2991125380
      0.0727095464
     -0.3691255067
     -0.4578238294
     -0.3411726370
      0.3064144272
      0.4023895738
      0.0684935154
     -0.1556088469
      0.1902643247
      0.2345633420
     -0.4241576768
     -0.3519176783
      0.1110962610
     -0.0408037414
      0.4412542348
      0.2251514602
     -0.2899856165
      0.2786624871
      0.2078915195
      0.2134238133
      0.4030605535
     -0.0713777132
     -0.3119622296
     -0.0128261118
      0.4333611149
     -0.2401716850
      0.2422130047
     -0.3848085651
      0.4521535658
      0.2313288924
      0.4494795903
     -0.2472515643
      0.1279747434
     -0.4002403463
     -0.1949121171
      0.4736660872
      0.2418071465
      0.2754863097
      0.2125989042
     -0.0765342586
      0.1858366637
     -0.5778908657
      0.2630425588
      0.3136583673
      0.2947295652
      0.2048011632
     -0.3739243561
     -0.1997579154
      0.2867880305
     -0.3267027983
     -0.1969635577
     -0.1241593052
      0.3827490778
     -0.3299066844
      0.4215949909
      0.2287780196
      0.2704411430
      0.1703959402
      0.0634984216
      0.2001234652
     -0.2714348132
     -0.1864353780
      0.4323231898
     -0.2306272907
      0.4469315145
      0.1439391308
      0.1567313446
      0.4124264900
     -0.4598593702
     -0.3871823152
      0.3672537010
      0.0572709173
     -0.3808116527
      0.1638610804
      0.3840435134
     -0.2023035377
     -0.0565900344
     -0.2333833641
     -0.0140237412
      0.4095515227
     -0.0853326031
     -0.5853304475
     -0.1824393413
      0.3835495910
     -0.3276723976
     -0.4784668506
     -0.2791766071
     -0.1658226226
      0.3501447602
      0.0233113965
      0.3108723332
      0.3316202349
     -0.1571452460
      0.4483950719
      0.0089876945
      0.1645854419
     -0.2022751440
      0.0656083356
     -0.1652401112
      0.2779924866
     -0.0986168355
      0.4206371292
      0.2473878295
     -0.1668752806
      0.0577447414
     -0.3459849907
      0.1098302321
     -0.0463094315
      0.1412793741
      0.4324334914
     -0.0881689345
      0.2451334319
      0.2967282520
      0.3284156191
      0.0142533305
      0.4513097582
     -0.4898047364
      0.3817095873
     -0.2813193163
      0.4514838197
      0.0735323626
      0.0874288792
     -0.4557847602
     -0.0342557071
     -0.3366623820
      0.0882385094
     -0.2539971101
     -0.0479316356
      0.1573742466
     -0.2494166351
     -0.2999373161
     -0.3664533649
     -0.2004651264
     -0.2311469506
      0.3013255416
      0.2556163712
      0.1281686635
     -0.4629912986
     -0.2698472111
     -0.3992510801
      0.4734181786
     -0.2888193443
     -0.0583761427
      0.1894551468
     -0.2068971009
     -0.3070250274
     -0.3082736992
      0.0528826294
     -0.2412438845
     -0.4245348113
     -0.1587553867
      0.2448987198
      0.1598030345
      0.2622406624
     -0.1946724304
      0.3345196190
      0.4043155967
      0.2157062605
     -0.5250921702
      0.1420098275
      0.0435651018
     -0.0400202634
     -0.3729094360
     -0.4914872845
     -0.0496442968
      0.2677976194
      0.1102718149
     -0.4564268552
      0.0727539021
     -0.4151721920
     -0.4159635355
      0.4230102917
     -0.3104882842
      0.1287815842
     -0.1986828136
      0.0118348162
      0.3083573636
      0.3498141920
     -0.3205250246
      0.3862047557
     -0.1833977281
      0.1677391526
      0.0962499592
      0.4415468586
      0.4727380804
      0.0291644123
      0.2181128616
     -0.3488366512
      0.0501626086
     -0.1777195278
     -0.1515424410
     -0.4168729451
     -0.3828618360
      0.3739113110
      0.4001389944
     -0.1874558975
     -0.1642205344
      0.3642982740
     -0.4267686714
      0.3315825186
      0.0276371890
     -0.0363936966
     -0.3489893113
     -0.2391278286
      0.2750427724
      0.4420063024
     -0.0441875114
      0.2273782187
      0.0835176132
     -0.1206002804
      0.1820249363
      0.0761066296
      0.3379539122
     -0.4243411195
     -0.4808133723
      0.0774153131
     -0.3031510469
     -0.2731585092
     -0.2248554302
      0.0302905380
      0.1089062457
      0.0593701101
      0.0147809391
      0.4496135722
      0.4498132530
     -0.1544630758
     -0.2195895488
      0.2587455428
      0.3339580806
      0.4723873373
      0.3027602807
      0.2741363348
     -0.3917960351
      0.1824010239
      0.3742857464
     -0.2023104679
     -0.1596556203
      0.3309938116
     -0.5289622009
      0.2541262156
      0.2488373250
     -0.4635943217
      0.0019014365
     -0.3728895662
      0.4872276624
      0.1106678945
      0.4516675347
     -0.4652524271
      0.4121323096
     -0.2703597117
      0.4512533395
     -0.1131284530
     -0.1702724445
      0.0910333450
     -0.2448011936
     -0.2686425745
      0.5255179159
     -0.4144706912
     -0.2824216440
     -0.3915723442
     -0.5170915572
     -0.3461527259
     -0.0313955833
      0.1808042863
     -0.2162591103
      0.4203609518
     -0.5405775302
     -0.1430494352
      0.3706908311
     -0.1236888220
     -0.2624362774
     -0.4215027535
     -0.1741112599
      0.1891961358
      0.3145970226
      0.0390247379
     -0.0549309632
      0.4356639520
     -0.1425715055
     -0.1405347599
      0.3937288152
     -0.2101604057
      0.4514131792
     -0.0275048780
      0.4377268758
      0.1833024359
      0.4067823169
      0.3707590466
      0.1006792198
      0.0835348083
      0.2432031404
      0.2327538362
     -0.3267402464
     -0.4399255360
      0.4460933514
      0.3977789435
     -0.2947244149
     -0.4322630879
     -0.3013006019
     -0.4196048532
     -0.2052212499
     -0.3487201386
     -0.4191334231
      0.3018611922
      0.0777554006
     -0.3420112694
     -0.2594610211
      0.1320576977
     -0.2852041867
     -0.3489558199
     -0.2407259052
      0.0013668644
     -0.0863327316
      0.1037208585
      0.4081091119
     -0.2457845681
     -0.0018959053
     -0.4348771580
     -0.1312841896
      0.1950220644
     -0.4733330774
     -0.4575351094
      0.4119093332
     -0.4500134280
     -0.1790553762
      0.3620934374
     -0.0657407776
      0.4684108178
      0.1913215153
     -0.0482883839
      0.3609902999
      0.0292060041
     -0.1976938869
      0.4068399198
      0.3884236361
      0.3628089662
     -0.3587840441
      0.2472445050
     -0.0900323323
     -0.1718487757
      0.0427059009
      0.2318319720
      0.0255960745
     -0.3620911856
      0.2890149170
     -0.2618283559
      0.4115383791
     -0.4123292686
      0.1502127673
     -0.1077476042
      0.3978632424
     -0.1954208849
      0.4183581236
      0.2198756438
      0.1692808765
     -0.2216390736
     -0.0729678652
      0.3005157437
     -0.1862858750
     -0.1417396033
     -0.2979017767
      0.1680782099
     -0.2119207713
     -0.2762902241
      0.2546253414
      0.4192646733
      0.4392678185
     -0.1001819641
     -0.0077710433
     -0.1599951542
      0.1855791264
     -0.2790788651
     -0.3725828045
     -0.3713856958
     -0.0738588620
      0.4513979535
      0.2163210245
      0.1843408477
      0.2975413499
     -0.4441801345
     -0.5599095875
     -0.0397299289
     -0.3477132901
      0.0107990779
     -0.1282149811
      0.2055675453
     -0.3816635494
     -0.1046218566
     -0.4284793827
     -0.1397570450
     -0.0255291889
      0.3110967536
      0.4394589996
     -0.4983772409
     -0.0649286003
      0.3328232355
     -0.1146462580
     -0.3651756320
     -0.2331485107
     -0.1862574486
      0.1914833000
      0.2648944562
     -0.4219487328
      0.0660065283
     -0.3802133688
     -0.3703025230
     -0.1909059979
     -0.1665392119
     -0.1052027694
      0.3580356106
      0.2619094706
      0.3785565718
     -0.0502114623
     -0.2044749447
      0.0358703886
      0.3812248178
      0.3037740226
      0.0947287843
     -0.4833849749
     -0.3629879861
     -0.0136630176
      0.1651497686
      0.3439674870
      0.3800251328
      0.2010469538
     -0.1822581681
      0.3343361121
      0.3734335411
      0.4681906336
     -0.2168242203
     -0.0679075387
      0.2600234477
     -0.1478247366
     -0.3436976777
     -0.0855946363
      0.2866921427
      0.4850009452
      0.0084266885
     -0.1861946305
      0.3601032586
     -0.1668098262
     -0.4834237914
     -0.1546190406
     -0.1298065403
      0.0716654461
     -0.2675902558
      0.0248850068
     -0.2857301080
     -0.4318604648
      0.3514795900
     -0.4271557523
     -0.4246557170
      0.4153549388
      0.3595308385
     -0.2111700805
      0.4534855991
      0.4810538765
     -0.3679889620
     -0.4034897879
     -0.1911585382
     -0.2362028346
      0.1181808703
      0.1800052699
     -0.1067428713
     -0.2058874692
     -0.4211494500
      0.2480356167
     -0.2222382195
      0.2393245867
     -0.4098093359
     -0.4479263931
     -0.2779478177
     -0.3392677472
      0.0143238742
      0.2882836639
      0.1882688551
      0.2810348774
     -0.1402146958
     -0.2876589986
      0.1557586108
      0.5151769220
     -0.0367235377
      0.0640474653
     -0.0911369614
      0.2425223944
      0.3611817928
     -0.3743438234
      0.4533047549
      0.1230518093
     -0.1243868926
      0.1147582070
      0.3990657041
      0.0808631903
      0.1086292798
      0.3988007459
      0.0762477282
     -0.3822171788
      0.2262545584
      0.0053689606
     -0.1856246441
      0.0988706975
     -0.1577289635
     -0.1443484871
      0.1882539891
     -0.0032126527
     -0.2957996779
     -1.4786940050
     -1.3249570918
     -0.2495998513
     -0.5417533130
     -0.7353220307
     -1.0827197940
     -1.1583759974
     -0.4819329117
     -0.7403850333
     -1.1704133259
     -1.3317330016
     -1.2171686652
      1.4753593226
     -0.1158778645
     -0.5067249795
      0.3441987189
      0.5441343063
      0.9643445899
      0.2986096571
      1.1597941653
     -0.2354824456
     -0.3753232621
      0.2548538784
     -0.5390487117
      0.6014434339
     -0.2742527292
     -0.5797967336
      0.2646579518
      0.1291686471
      0.0126433950
      0.5480800038
     -0.4338948324
      0.2265297896
      0.3180522774
     -0.3379185864
     -0.3595836180
      0.5259577545
     -0.4101731811
      0.4534168715
      0.1712688158
      0.4990089524
      0.0012991753
     -0.2908427377
     -0.0188625735
     -0.2344487564
      0.4113073808
     -0.5201409999
     -0.4576127547
     -0.4740866874
      0.5848153149
     -0.0211770040
     -0.5465655358
     -0.3663299968
      0.2395319721
     -0.4227990484
     -0.0789689545
      0.3941361510
     -0.0371066180
     -0.1520202413
      0.3994180913
      0.3673519031
      0.6058936161
     -0.1819925926
      0.4945740619
     -0.5791526578
      0.2272110111
      0.5366778933
      0.0293579168
      0.5129844173
      0.5835190349
      0.5765806831
      0.1171293504
      0.2500357140
      0.3810694103
     -0.0369623031
     -0.1875583993
     -0.4526182719
      0.5624404856
     -0.5025898059
     -0.0319446800
     -0.1875988565
     -0.0391143842
     -0.3371362825
     -0.3830021325
     -0.1948414264
     -0.0456844190
     -0.1074258863
      0.1136052104
     -0.4575530331
      0.4918020675
      0.1998113846
     -0.3922671190
     -0.3237970957
     -0.2578267585
      0.1792696963
     -0.4930707840
     -0.2565894969
      0.2335031500
      0.2706478662
      0.0747535314
     -0.2442533102
      0.2997598347
     -0.1747349664
     -0.2866286352
      0.0674367810
      0.3367790046
     -0.5235230800
     -0.4268810955
      0.1596476266
      0.1663911094
      0.5066296788
     -0.3526374799
     -0.5622863743
      0.2466266818
     -0.4887359989
     -0.3267887989
      0.3353184595
     -0.4093886230
     -0.0787394242
      0.4482955408
      0.0670362493
     -0.6742200115
      0.4651265942
      0.1044863325
     -0.3679547733
     -0.3501439417
      0.1780692461
      0.1595505364
      0.2104535724
     -0.2631991531
     -0.5343144470
     -0.1752520092
     -0.5429335788
      0.3247398692
     -0.1684183990
      0.1351975981
     -0.0079092295
     -0.1405618966
     -0.3149247227
     -0.1850311118
      0.6042142770
      0.2986776821
     -0.2708850370
     -0.0353479592
     -0.4206721974
      0.3034266916
     -0.1485994887
      0.1173673860
      0.1504034127
      0.5305235590
     -0.1135385525
      0.6171645961
      0.1350667814
      0.5310114453
     -0.3275436988
      0.1020441351
     -0.3370439505
      0.0540521347
     -0.0680768258
      0.1234605763
     -0.0958847075
      0.4398643258
      0.5102711036
     -0.6374906331
     -0.0948645596
     -0.3279086344
      0.2224502745
     -0.5116026257
      0.4553268911
     -0.1890347516
      0.4255267642
     -0.2489302980
      0.3518702089
     -0.5891103322
      0.5649983229
     -0.6844474317
     -0.0015620866
      0.6338508956
     -0.2677619290
     -0.3158728091
     -0.2471207039
     -0.4421344394
      0.3219482739
      0.2941700138
     -0.6237944041
      0.1109010580
     -0.1750083211
     -0.4059212342
      0.4193411304
      0.0659853847
     -0.0426618686
      0.4984277896
     -0.1997316282
      0.4726481775
     -0.0153689059
      0.0984735114
      0.3337699148
     -0.2512094829
     -0.4586654982
      0.3784262697
     -0.3268833547
     -0.0488216127
     -0.0097730984
     -0.3487646321
     -0.4130982908
     -0.3556238901
     -0.0660279824
      0.4704490566
     -0.3295116630
      0.0434921186
      0.2411851652
     -0.3522076509
      0.3595921027
     -0.0592169604
      0.2023416546
     -0.3932015682
     -0.6645676894
      0.3134247406
      0.4730436893
      0.4302705853
     -0.5386019328
      0.2197004579
      0.4413207422
     -0.5301273860
      0.1103918193
     -0.4028848920
      0.4468403440
      0.1618024134
      0.4707720293
      0.4190265739
      0.0483760821
      0.2667719403
     -0.3277977759
     -0.3954127066
      0.4223772225
     -0.5082217453
     -0.2982810934
     -0.4377423668
     -0.4274426691
      0.3618252496
      0.0655636949
      0.4785491105
     -0.4573044202
     -0.5104033395
     -0.1540398224
     -0.3737714002
      0.4648273181
     -0.5226508778
      0.0026251822
     -0.0334330370
     -0.5997337449
      0.2971667204
     -0.3723603566
      0.3572270497
     -0.6790266533
      0.3328476054
      0.5519674973
      0.5664812751
      0.2778621122
      0.4267183390
     -0.3717180038
      0.0153317679
      0.6550413961
      0.1287812586
      0.0640130856
     -0.5277527687
      0.3589298878
      0.3647746799
      0.2562628265
     -0.2296031118
      0.3870677705
      0.4372591252
     -0.4220702529
     -0.3841533191
      0.0297444727
     -0.1035947045
     -0.2906958509
      0.0733618134
      0.4838455337
      0.4744359494
     -0.1671868164
      0.2503295786
      0.1886790865
     -0.1531775140
     -0.1924793868
     -0.2181405079
     -0.5492528926
     -0.4502127007
      0.1875751090
     -0.4668888583
     -0.1068585781
     -0.2945367047
     -0.0939259846
      0.0447748778
     -0.4742219768
      0.4053383301
      0.1350104143
     -0.2004056160
     -0.3876752103
     -0.2749344912
      0.1574585376
      0.2678024982
     -0.4077889865
     -0.1747894596
      0.1542963617
      0.4346623170
     -0.4736708128
      0.1078796410
     -0.4980413232
     -0.5401646113
      0.0945198013
     -0.5483739355
      0.5655527191
     -0.3534816488
      0.3897865393
     -0.6184895612
      0.5632049055
     -0.0057529759
      0.1045569260
      0.5157871882
     -0.3249521195
     -0.6726128364
      0.0812908484
     -0.1668388814
     -0.3156372044
     -0.3262573667
     -0.0938680484
     -0.0842964618
      0.3188969299
     -0.1974065162
     -0.0313729430
      0.1410846337
      0.1787899213
      0.3376459700
      0.3122595221
      0.0979215596
      0.5230710746
     -0.2851844516
     -0.4446706587
      0.4614401768
      0.5339649862
     -0.2124198380
     -0.5140302697
     -0.2168405004
     -0.5927385478
     -0.5379723206
      0.0666040283
     -0.3668967653
     -0.6521713757
     -0.4005541256
     -0.6552378153
     -0.2355145557
      0.3162194749
      0.1737226461
      0.2502987918
      0.4014826014
      0.0859042520
      0.2868367905
     -0.4115885127
      0.4930245402
     -0.1634539568
     -0.1333264181
     -0.2650158714
      0.5030927240
     -0.5734845420
     -0.4348970308
     -0.1315253058
      0.6243194850
      0.3122365365
      0.1166270087
      0.3374542692
     -0.3620449857
      0.2124087878
      0.4108117809
     -0.1377328221
      0.2481720284
     -0.1946315077
      0.1482223831
      0.4966742843
      0.5671998881
     -0.5481210637
      0.4214373448
     -0.0153880272
     -0.5367354997
      0.1117892714
      0.3213570825
      0.1050929262
     -0.5375910340
     -0.2336214931
      0.2958495903
     -0.2924878543
     -0.2511471216
     -0.5118133878
     -0.5447785974
     -0.6139012383
     -0.1445503738
     -0.0697779471
     -0.5130021140
      0.4055991075
      0.1832652458
     -0.6003212935
     -0.0719111422
      0.5359545952
     -0.1574573289
     -0.2750716276
      0.5165859243
     -0.4623981420
      0.1213980707
     -0.3113470667
     -0.5105619795
     -0.1157920155
     -0.1050137951
      0.4215025655
      0.2897274540
      0.1004940985
     -0.5316888044
      0.1598494925
      0.5863349322
     -0.2011809097
      0.2811026431
     -0.5386740641
     -1.0208066522
      0.1778234725
     -1.5507501887
      0.3330158896
      1.0765846976
      1.5559104297
      0.2202551868
     -0.9720665835
      0.8773468239
     -0.7306844821
     -0.3237170189
     -0.4878516703
     -0.5471837549
      1.0340018377
      0.0805945944
      0.9997795355
     -0.9340744760
     -1.4114030822
      0.4192584847
      0.0083178503
      0.0030483323
     -0.0023497988
      0.0009208861
      0.0036670190
      0.0009827225
     -0.0025549682
     -0.0062875445
     -0.0008832007
     -0.0000761495
      0.0013133271
     -0.0041126064
     -0.0054495266
      0.0035264598
      0.0028466673
      0.0019448212
      0.0020654313
     -0.0022717495
     -0.0063424730
     -0.0027387988
     19.6612045191
