     -0.8136830070
     -0.2600172194
      0.9533259562
      0.7184792490
     -0.7175023360
      0.8671805446
      0.8897680436
     -0.4069829094
      0.2891080702
      0.0275382942
      0.7270495372
     -0.4588908468
      0.1515622070
      0.8593557303
     -0.6248979234
     -0.4813055410
     -0.9345761871
     -0.8548062444
      0.5728522347
     -0.1416701127
      0.0706036852
      0.8959289214
     -0.4629638912
      0.9445315085
     -0.3852383275
     -0.9048470247
      0.3498079210
     -0.5414460034
     -0.6503522251
     -1.0087783566
      0.0927955230
     -0.2182907354
     -0.9298164293
     -0.7375918624
      0.7468217006
     -0.2479768013
     -0.1086618165
      0.8247932209
     -0.3405842158
      0.1152464391
      0.3866962308
      0.0216497965
     -0.7664376272
     -0.6084692628
      0.1824838088
      0.1726501824
     -0.8742194497
     -0.5003484505
      0.3666640704
     -0.5216532938
     -0.1075059699
      0.0059122128
     -0.4479556264
      0.6623684791
      0.1097937722
     -0.5671757871
     -0.9893206034
     -0.7206901137
      0.6251672772
      0.8005289030
      0.1093631070
     -0.2882670136
      0.3654999829
      0.4659352177
     -0.9059574669
     -0.7283019257
      0.2228407683
     -0.0643397440
      0.8787497718
      0.4334387298
     -0.4746439340
      0.5364503029
      0.3311612101
      0.4845583648
      0.6754439448
     -0.1434924289
     -0.6776108829
     -0.0409940611
      0.8639119975
     -0.4909586307
      0.4284374963
     -0.7273552783
      0.9055019180
      0.4590128982
      0.9496288091
     -0.4687237864
      0.2752598681
     -0.7994043510
     -0.3751370988
      0.9396922635
      0.4379120100
      0.5334609789
      0.3492763410
     -0.1636585143
      0.3424181719
     -0.9052058556
      0.5619328552
      0.6539202569
      0.5790027841
      0.3950005010
     -0.5889901185
     -0.3820489152
      0.5481172360
     -0.6303634148
     -0.4492044654
     -0.2879065649
      0.8080754319
     -0.6555152703
      0.8439193584
      0.4757970679
      0.4749684136
      0.3533551133
      0.1155510837
      0.4039093422
     -0.4902593395
     -0.2682233674
      0.9348473357
     -0.4473366999
      0.9152718448
      0.2712018174
      0.2838009320
      0.7770600686
     -0.9156597076
     -0.7619621386
      0.8276371853
      0.0751634716
     -0.7599575414
      0.3064554875
      0.7320739050
     -0.4277019702
     -0.1646122740
     -0.4640127156
      0.0517848720
      0.8790426443
     -0.1781605625
     -0.9627978046
     -0.4033586932
      0.7381557835
     -0.6546278194
     -0.9390654304
     -0.4532894930
     -0.3175716316
      0.7276599064
      0.0191354130
      0.6487582443
      0.8019085722
     -0.3409109657
      0.8564888530
      0.0527136723
      0.3068764629
     -0.3610224376
      0.1433233187
     -0.2670031267
      0.6412470839
     -0.1456898011
      0.6697881677
      0.5990992963
     -0.3425198305
      0.1022554201
     -0.7382517490
      0.0876635267
     -0.1023501480
      0.3607093451
      0.8723073253
     -0.2383141268
      0.5434644552
      0.6337952101
      0.6106413591
      0.0464395229
      0.9609136873
     -0.8633450977
      0.7484995942
     -0.4662705199
      0.9526654343
      0.1082276977
      0.1730204332
     -0.9964717341
     -0.0511359506
     -0.6556487335
      0.1453913674
     -0.4602212504
     -0.0646564350
      0.3700793539
     -0.4508799545
     -0.6738540432
     -0.7397431201
     -0.3681045061
     -0.4445324351
      0.6251165952
      0.4381097149
      0.1446402144
     -0.9160922173
     -0.4545517783
     -0.8374335276
      0.7411939350
     -0.4510500077
     -0.0940238962
      0.3807807753
     -0.4037781533
     -0.5943876232
     -0.5288433645
      0.1236638409
     -0.4761137347
     -0.8587346284
     -0.3635116908
      0.4651445355
      0.3309933123
      0.5211006650
     -0.3829962933
      0.6269501137
      0.7321906086
      0.4416731158
     -0.8614171165
      0.3533981283
      0.0338648674
     -0.0004657190
     -0.7634812876
     -0.9844059696
     -0.0645535542
      0.4658131089
      0.1210455891
     -0.8725315920
      0.1414061350
     -0.8106992590
     -0.9695673695
      0.9298595215
     -0.6119265510
      0.2596227420
     -0.3900754601
      0.0223441258
      0.5663703645
      0.7127183815
     -0.5746780705
      0.8501045294
     -0.3443912915
      0.1685987820
      0.2034058271
      0.8805680102
      0.9531997243
      0.0087014333
      0.4129254143
     -0.6376682862
      0.1192900723
     -0.3363579520
     -0.2836565470
     -0.9426567419
     -0.7553940916
      0.7017909918
      0.7848402692
     -0.4090882680
     -0.4381330550
      0.6798227896
     -0.6517847135
      0.7036655310
     -0.0247606359
     -0.0734981936
     -0.7237509353
     -0.4077439328
      0.5192970913
      0.8905157512
     -0.0392545737
      0.4024975954
      0.1601647740
     -0.1614446768
      0.3466212442
      0.0765114958
      0.7100918771
     -0.8196535134
     -0.9618556621
      0.0815894164
     -0.5479570409
     -0.5101534354
     -0.3879327728
      0.0784924761
      0.2196808279
      0.0980073904
      0.0736732720
      0.9021907678
      0.8978625569
     -0.3543003010
     -0.4628989467
      0.4589371916
      0.7151450220
      0.9707935387
      0.5658392029
      0.5684022587
     -0.8403307053
      0.3415479527
      0.7291833087
     -0.4050687180
     -0.2644577511
      0.6194399433
     -0.9085090486
      0.5553143759
      0.4112434482
     -0.6795354358
      0.0019520282
     -0.7791820434
      1.0109554239
      0.2008951629
      0.8018715926
     -0.8757652020
      0.7945982878
     -0.5379318745
      1.0023971487
     -0.2248255077
     -0.3504581140
      0.1927312465
     -0.5187204505
     -0.5605576143
      1.0148455637
     -0.8125455201
     -0.4930583563
     -0.8243807100
     -0.9223270960
     -0.5715280590
     -0.0795930604
      0.3336057312
     -0.4300451220
      0.8893094489
     -1.0129366881
     -0.2393207599
      0.7368624483
     -0.2979617307
     -0.5642579072
     -0.8954792419
     -0.3711851684
      0.4090164077
      0.6240936554
      0.0807703244
     -0.1197755409
      0.8303481026
     -0.2793874444
     -0.3062943236
      0.7077503182
     -0.3158104323
      0.9616791706
     -0.0235575162
      0.8654690130
      0.3576988246
      0.8261226826
      0.6998078960
      0.1825113186
      0.1966983350
      0.5129903663
      0.4506694719
     -0.7169951597
     -0.8590714150
      0.8508628284
      0.7941901524
     -0.4920806003
     -0.8987759688
     -0.4880673133
     -0.8944634955
     -0.3706750462
     -0.3970116071
     -0.8861494371
      0.5259823851
      0.1937318795
     -0.6955657490
     -0.4437904093
      0.2562607024
     -0.5850388245
     -0.6856626062
     -0.4604884793
      0.0221264250
     -0.1668751717
      0.2172052216
      0.7859381587
     -0.5082243108
     -0.0001681263
     -0.8487297902
     -0.2017902166
      0.4329485473
     -0.8425438233
     -0.7486607924
      0.8877038684
     -0.9207887364
     -0.3457515416
      0.7762554881
     -0.0924897502
      0.8880377750
      0.4102515506
     -0.1178087891
      0.7527996502
      0.0934378829
     -0.4238410861
      0.8054963367
      0.7938338866
      0.7038692872
     -0.6582288337
      0.5264058767
     -0.1387280813
     -0.3497991265
      0.0598186254
      0.4074136417
      0.0928887670
     -0.7263246473
      0.6053900151
     -0.5803790125
      0.6371130338
     -0.7849907228
      0.2873795696
     -0.2045654727
      0.7875379109
     -0.6794357306
      0.9553528616
      0.6847420388
     -0.0798958550
     -0.3149418610
     -0.4439223179
      0.2854657808
     -0.3538668437
     -0.1372326949
     -0.4611662796
      0.2819736672
     -0.3811403108
     -0.4731668314
      0.4971244620
      1.1043007273
      0.8335904393
     -0.2675521739
     -0.0394458924
     -0.3195943725
      0.3912761474
     -0.6147099491
     -0.7325472730
     -0.8344327180
     -0.1189500476
      0.9076846701
      0.3800448945
      0.4113458911
      0.6480882296
     -0.9836326102
     -0.9801574814
      0.0871766841
     -0.6859796444
      0.1870519701
     -0.2026691585
      0.4054112817
     -0.6569803967
     -0.2147179999
     -0.7067292634
     -0.3527524004
     -0.0468622901
      0.5562444142
      0.8967638269
     -1.0598723395
     -0.1023827216
      0.7074821767
     -0.1342268242
     -0.6523836164
     -0.2677674762
     -0.3604355371
      0.3145309559
      0.4077018273
     -0.9498173462
      0.2506386396
     -0.7894921771
     -0.7568412931
     -0.3813187550
     -0.3467010190
     -0.2665793488
      0.7287261915
      0.5845764579
      0.6332766614
     -0.0725648582
     -0.4552325682
      0.0217298426
      0.7799946357
      0.5770384073
      0.0918383337
     -0.8128329348
     -0.7475845735
     -0.0192379334
      0.3483059999
      0.7137523379
      0.7381341266
      0.3926924521
     -0.3306396122
      0.6964986771
      0.6341857831
      0.9889828300
     -0.4050145598
     -0.1501374588
      0.5394810053
     -0.1760926042
     -0.6850819374
     -0.1769437299
      0.5682469862
      0.8111541511
      0.0479445998
     -0.2314027534
      0.7860580326
     -0.2316607056
     -0.7916749613
     -0.3435964129
     -0.2917517203
      0.1478998755
     -0.5419602858
      0.0267937384
     -0.5662975305
     -0.8678497128
      0.7192949349
     -0.9175474914
     -0.9191857738
      0.9172506115
      0.6962819896
     -0.4463532398
      0.8129389074
      0.7812569190
     -0.6506035706
     -0.6605706646
     -0.4044686269
     -0.4210301631
      0.1809518526
      0.3128141033
     -0.2125107509
     -0.3818831459
     -0.8364734420
      0.5349396182
     -0.4344908266
      0.4071077774
     -0.8181852016
     -0.9442699612
     -0.3717907390
     -0.7932351710
      0.1474874683
      0.6442415124
      0.3671028930
      0.4624779370
     -0.1233563773
     -0.5315925088
      0.3077387474
      0.8882267574
     -0.1928939330
      0.1636586562
     -0.1290234750
      0.4929918683
      0.7381247061
     -0.7227455868
      0.8282862939
      0.1280500513
     -0.2932711220
      0.2611715365
      0.8750186143
      0.2209217904
      0.1108830157
      0.7914000905
      0.1495684132
     -0.6263351148
      0.4428804275
     -0.0594365244
     -0.3826417718
      0.1387807884
     -0.1946416998
     -0.3891942236
      0.4731013045
      0.0481545501
     -0.6215144511
     -0.9722469460
     -0.7720920015
     -0.1869323856
     -0.3148306084
     -0.4887119416
     -0.7492099721
     -0.6827209637
     -0.0502919092
     -0.5040276400
     -0.5903636298
     -0.8931192393
     -0.7376704233
      0.9200138553
     -0.0898357238
     -0.3298101876
      0.2414184207
      0.2868299579
      0.6064524546
      0.2097042537
      0.7508745389
     -0.3298354180
     -0.5158297625
      0.3525374475
     -0.7920318106
      0.9320190904
     -0.4765281711
     -0.9512974050
      0.4159005696
      0.2155592032
      0.0053918968
      0.7781042254
     -0.6784015499
      0.3612588635
      0.5471014831
     -0.4872750915
     -0.5246268290
      0.6861660512
     -0.6094302861
      0.8566118897
      0.2084810950
      1.0237471161
     -0.1218816429
     -0.3360831587
      0.0387617644
     -0.3758725649
      0.7097142022
     -0.6504873872
     -0.8041800401
     -0.7058556794
      0.9352782945
     -0.1399288668
     -0.7369391724
     -0.4652818713
      0.4028541775
     -0.6030279729
     -0.0343634798
      0.5287975695
     -0.0028539236
     -0.2645621361
      0.6782845592
      0.5764085532
      0.9175703937
     -0.1883571424
      0.6807509706
     -0.8782999329
      0.3340981150
      0.8640407302
     -0.1111480596
      0.7858006646
      0.8901496722
      0.7754177251
      0.2803503841
      0.4389806975
      0.6274477607
     -0.0435774834
     -0.2547578426
     -0.6693422429
      1.0152543678
     -0.9991896238
     -0.0426563579
     -0.2796344486
     -0.1259040995
     -0.6691259005
     -0.5420465834
     -0.2862196800
     -0.1553728332
     -0.0402801623
      0.2697193685
     -0.6848529278
      0.7915893172
      0.3272779328
     -0.7092835758
     -0.3222144692
     -0.4663433226
      0.2724510557
     -0.6630749432
     -0.4389317878
      0.1471734044
      0.5569410735
      0.1520303962
     -0.5768556715
      0.3560993651
     -0.5506887556
     -0.3587513067
      0.1712497647
      0.2123727117
     -0.7104582284
     -0.7142305044
      0.2928125989
      0.0819400354
      0.5480365051
     -0.1554336176
     -0.4585949685
      0.0485600891
     -0.4675525810
     -0.5848356192
