      0.4672866436
     -0.6324040491
     -0.1623882982
      0.7260701708
      0.0775608787
     -0.9307577040
      0.7141242430
      0.1183650476
     -0.5525127694
     -0.6639005608
      0.2622627820
      0.2132975626
      0.2594562071
     -0.4404780965
     -0.7705770266
     -0.2398768882
     -0.9001754150
      0.5440147239
     -0.2547526660
      0.1805839392
     -0.0332181801
     -0.1854803016
     -0.6483905392
     -0.3058641862
      0.9735951191
      0.3678137828
     -0.4339606832
     -0.1089236633
     -0.6454122772
      0.5817612800
     -0.2220911005
      0.1737767621
      0.2207473078
      0.8245659129
     -0.1976810497
      0.9110661902
      0.2597584222
      0.8650810871
     -0.4664533761
      0.1210635792
     -0.4725698590
      0.0577757811
     -0.1785322328
      0.1963895812
     -0.1303178883
      0.6230976039
      0.7329509909
     -0.9450738402
     -0.1543651513
     -0.6000681712
      0.3413230657
     -0.7619092699
      0.6388406393
     -0.3030296929
      0.6179304362
     -0.4084640385
      0.5453490404
     -1.0428569933
      0.8174339779
     -0.9389435993
      0.0091140291
      0.9592630210
     -0.5046764165
     -0.5511051407
     -0.4212915660
     -0.6225286060
      0.4918362355
      0.4172220352
     -0.9480047126
      0.1861408965
     -0.3108697646
     -0.6336898068
      0.5952843299
      0.1050315085
     -0.0444125315
      0.7606128587
     -0.3407433183
      0.8126134289
     -0.0327817252
      0.1439831034
      0.4199629080
     -0.3648240423
     -0.9186232008
      0.6300798563
     -0.5458131542
     -0.0794521085
     -0.0403206702
     -0.5402149603
     -0.6332652018
     -0.6250013604
     -0.1113745063
      0.6998134692
     -0.4546486142
      0.0583693862
      0.3620413820
     -0.5498110415
      0.6067485073
     -0.1021478298
      0.2955003524
     -0.5647024657
     -0.8883782690
      0.4930820296
      0.9114538649
      0.7318376106
     -0.8785442310
      0.3175448388
      0.6260590873
     -0.7649558185
      0.1513913868
     -0.7295288726
      0.7334454398
      0.2695731454
      0.6740413229
      0.6578931184
      0.0806326863
      0.4170223950
     -0.5608757911
     -0.6642236900
      0.5938581933
     -0.6966456705
     -0.4120092658
     -0.7112879778
     -0.7704111385
      0.6125850255
      0.1290068504
      0.6261976812
     -0.6656804442
     -0.7355939626
     -0.2306069873
     -0.6866793293
      0.7566527190
     -0.7789876854
      0.0246626994
     -0.0414466523
     -0.9009168961
      0.4585026411
     -0.6286605050
      0.6223955280
     -0.9942367523
      0.4748845674
      0.7105189293
      0.8897813562
      0.5107101274
      0.7069125753
     -0.6135802171
      0.0215926237
      0.9308802428
      0.1820470037
      0.0942892402
     -0.9398402064
      0.5717137541
      0.5379797575
      0.4186878200
     -0.3752799443
      0.5864294871
      0.6650334112
     -0.6816161634
     -0.5998198676
      0.0550332065
     -0.1587467733
     -0.3487847674
      0.1277759003
      0.9831017056
      0.7494086050
     -0.2814344345
      0.3624331971
      0.2575609576
     -0.2018994504
     -0.3181943659
     -0.4003072993
     -0.8954011571
     -0.6731648948
      0.2559095979
     -0.7701917674
     -0.1424726382
     -0.3987489092
     -0.1737190741
      0.0942763802
     -0.7139763313
      0.5935913147
      0.1790181507
     -0.2908583065
     -0.7685337938
     -0.5020864331
      0.2234206711
      0.4411046619
     -0.5456904648
     -0.2174404728
      0.2496645345
      0.7780281261
     -0.7051040830
      0.1634975593
     -0.6893190771
     -0.9793129025
      0.1430753966
     -0.8011972737
      0.9207901318
     -0.5659439358
      0.5324964353
     -0.8730602155
      0.7717488204
      0.0122501636
      0.1875418753
      0.8437360795
     -0.5038853043
     -0.8487879971
      0.1008426361
     -0.2034354565
     -0.5356836244
     -0.5776243183
     -0.1495906354
     -0.1006366721
      0.4446438402
     -0.3657510835
     -0.0941204685
      0.2998688848
      0.3483602210
      0.6095287863
      0.4652228998
      0.1256572453
      0.7703915486
     -0.4387718812
     -0.8075587041
      0.6542888533
      0.8832955260
     -0.2935914498
     -0.7455954686
     -0.2735616864
     -0.9239281179
     -0.9315388685
      0.1473339957
     -0.5580111143
     -0.9631816955
     -0.6630407106
     -0.9390872246
     -0.2771795489
      0.5241139185
      0.3678533016
      0.2964117575
      0.5693489040
      0.1243453801
      0.4243080755
     -0.7686080970
      0.8078853960
     -0.2570873070
     -0.1822633961
     -0.3659254355
      0.7328736045
     -0.8886915039
     -0.7883680842
     -0.1877581816
      0.9402916596
      0.4800257603
      0.1531599815
      0.5250034096
     -0.4960476969
      0.3260079827
      0.7115066906
     -0.2360704174
      0.3136258856
     -0.2259237957
      0.2571354216
      0.9255253277
      0.9170623859
     -0.8737496179
      0.6610290894
     -0.0794285974
     -0.7741891565
      0.1197931640
      0.6208415133
      0.2157287595
     -0.8395887660
     -0.3604747817
      0.4420795769
     -0.4888711947
     -0.3694311666
     -0.7995183679
     -0.9625678772
     -0.8912250997
     -0.2160807541
     -0.0907621240
     -0.8434770151
      0.7383903736
      0.2771356043
     -0.9551323369
     -0.0459491633
      0.7563354270
     -0.2637280078
     -0.4205149074
      0.8821704257
     -0.7924901717
      0.2242177447
     -0.5104117470
     -0.8167475851
     -0.2057473441
     -0.1949406934
      0.6017897669
      0.3936221467
      0.1443214936
     -0.7097810555
      0.2258654884
      0.8965168249
     -0.3838969323
      0.4153940019
     -0.3498922043
     -0.5793914334
      0.1492354307
     -0.9408100902
      0.2106807065
      0.6512132377
      1.0060692798
      0.1109375217
     -0.5752790848
      0.4439197087
     -0.4371660126
     -0.1662020287
     -0.3099536818
     -0.3501460269
      0.6071177773
      0.0010431343
      0.6084503805
     -0.5296849214
     -0.8979507970
      0.2606304203
      0.3935230566
      0.8491355771
     -0.2532206827
      0.6987918250
     -0.6601171587
      0.2315247600
     -0.2697091791
      0.4215432725
     -0.7524887802
     -0.1631309226
      0.6847418019
     -0.6454955258
     -0.3555394329
     -0.0154795237
     -0.8368716759
      0.2431910226
     -0.0049573228
      0.4699575580
     -0.0395527419
     -0.6013386258
      0.1988922342
     -0.0138489859
     -0.3318124686
     -0.1318113602
     -0.0515684453
      0.9128778651
     -0.3643914904
     -0.1131853756
     -0.1313900517
     -0.0878207244
      0.9192427038
      0.2154839685
      0.2948585010
     -0.8404430117
     -0.2067044891
     -0.4444218594
      0.1391982618
     -0.3948648667
      0.1707233247
      0.5680031903
     -0.4010168275
      0.3102339456
     -0.0904989747
      0.5681238404
      0.5133129540
     -0.2140852419
      0.9428836749
      0.6824850948
      0.6382645073
      0.7676786545
     -0.1646953633
      0.5472901396
     -0.9959039758
      0.6142431821
      0.0865757485
      0.5516369915
     -0.4267754635
      0.4421389883
     -0.3550292127
      0.8351001305
      0.9237428625
      0.0698539202
     -0.3539787845
     -0.2371878392
      0.1564764107
      0.9582631333
     -0.6001229031
     -0.8377525941
      0.6964768715
     -0.4283690330
      0.7884151509
     -0.0841899325
      0.1377625118
     -0.5975139181
      0.6317774039
     -0.1618611309
      0.7494501982
     -0.8648917241
      0.6482311850
      0.0420084109
      0.1233338587
      0.2107516629
     -0.3253441524
      0.1683587071
     -0.9738430433
     -0.1053649663
      0.8036476785
     -0.2050330653
      0.2177452280
      0.3886186404
     -0.9645050049
     -0.3767306363
     -0.2049670243
     -0.0280943094
     -0.0825869187
      0.0648615288
      0.0770849907
     -0.0750176603
      0.0054726725
      0.6737320730
      0.1077035099
     -0.6075550462
     -0.7063223879
     -0.6952938173
     -0.3747441665
      0.6842609600
      0.2073422956
      0.5020703394
     -0.1863126139
      0.6764567974
     -0.3922482244
      0.2393678878
      0.2394015267
     -0.3804991330
     -0.2586853732
      0.2070173741
     -0.1388730876
     -0.6425522091
      0.0647862610
     -0.2550791383
      0.6412661447
     -0.9630991430
     -0.5970446480
      0.3062570678
     -0.5917570698
     -0.2617620987
     -0.7807837809
     -0.1879327611
     -0.2680603679
      0.9835039880
     -0.7475494432
     -0.2119384095
     -1.0490520957
      0.7214817974
     -0.9073896186
      0.6500557599
      0.3584101872
     -0.2697469246
      0.4165664035
     -0.2774643443
      0.7639272768
     -0.9170062370
     -0.2509018225
     -0.1359947241
      0.3619495031
     -0.7236063046
      0.2211116768
      0.0746850310
      0.5355750991
      0.5069082001
      0.1451726132
      0.5486940482
      0.8801013081
      0.0974885511
      0.8542074952
      0.2441671725
      0.2936248112
      0.1877820341
     -0.9715470632
     -0.4265147032
      0.3603563199
     -0.8910104835
      0.4023866852
     -0.9085719415
     -0.8321660537
     -0.0959895329
      0.4405464588
      0.4751367007
      0.5636810472
     -0.5972154892
     -0.2775720164
      0.6461755622
     -0.0305972542
      0.9505883784
     -0.2492740448
     -0.3749124989
     -0.0361574335
     -0.8068709327
      0.3569995963
     -0.9283369212
     -0.3107108044
     -0.8699512085
      0.4538347531
     -0.2989331406
      0.1809379556
     -0.5193689340
     -0.6472854401
     -0.7017336038
     -0.8044811810
     -1.0264333282
     -0.7289293424
     -0.8715514754
     -0.4187474949
      0.9322042823
      0.9894605223
     -0.8825448026
      0.8455066470
      0.6395031048
     -0.7185578065
     -0.6002182706
     -0.4769544169
     -0.1206701523
      0.1826720198
     -0.4679510401
      0.8836004096
     -0.0607124296
     -0.7351871301
     -0.0307648495
      0.2068758793
     -0.6223706240
     -0.3912564555
     -0.7609252835
     -0.3468658299
      0.3346968613
     -0.9281797194
     -0.7453937716
      0.2110235180
      0.4806954493
     -0.0679541336
     -0.4002188722
     -0.7049042760
      0.2657199282
     -0.1208170337
     -0.8887665506
     -0.6236636557
      0.3639576074
     -0.2786672017
     -0.6128147742
     -0.1651205351
     -0.8155622828
      0.0406113285
     -0.3682970345
     -0.1116181077
      0.6822926468
      0.3820032035
      0.1749034438
      0.7087351502
     -0.8314603091
      0.9472794313
     -0.0288294403
     -0.8537270170
     -0.1528676042
      0.4926141382
     -0.1818048374
     -0.9834790501
      0.3604414817
     -0.8066101238
      0.1840323012
      0.9385098633
      0.1734082557
      0.2105951694
      0.3206134649
      0.7881257397
      0.9152618280
      0.6180403364
      0.3116692473
     -0.7717661323
     -0.5890368174
     -0.5714210177
      0.8703814841
      0.2510325182
     -0.5665578128
     -0.5429455999
     -0.4178666696
      0.6523578105
      0.8561083976
     -0.6428860514
      0.6033259572
      0.2393017061
      0.0648343756
     -0.1807393575
      0.5006945003
      0.1129584680
     -0.9039584302
     -0.5554776741
      0.4843651031
      0.5628998257
     -0.7369216140
      0.0577244808
     -0.6698948439
     -0.1343177539
      0.9252410294
     -0.3919311304
      0.9857638566
     -0.8317871535
     -0.2944221201
      0.2290960104
     -0.7539494521
      0.6170060835
      0.2264299694
     -0.8720659275
     -0.7689468393
      0.8210056561
     -0.1190507691
      0.2013276811
     -0.8718727437
      0.9525844319
     -0.5412817597
     -0.4526365312
      0.3918323610
     -0.0011730994
     -0.4138290139
     -1.0310386254
      1.0590903696
      0.3122413596
     -0.3422069107
      0.9586243336
      0.0681698588
     -0.9599797083
      0.5349162068
      0.9924464758
      0.5610409946
     -0.5534213283
     -0.0663675941
     -0.9568163623
     -0.0703537960
     -0.1206384996
     -0.2931323224
     -0.6837438660
      0.5099601530
     -0.2484503140
     -0.0279626645
     -0.3399688283
     -0.1105614948
     -0.9577412634
     -0.8808469445
      0.8897538840
     -0.5058111074
     -0.0549138080
     -0.4081863554
      0.1436935007
     -0.9515103371
     -0.8040018736
     -0.2325688117
      0.2074443284
     -0.1508149898
      0.8261590458
      0.5165562792
      0.1289179247
      0.1760977516
      0.3799169615
      0.9576051019
     -0.0111155484
     -0.4264700368
      0.6055507076
     -0.0355801841
      0.4201884205
     -0.2352910609
     -0.8336339243
      0.5918894870
     -0.5515960713
      0.3977785191
     -0.0721390652
     -0.0467522081
      0.5658203072
     -0.8641332987
      0.2763282111
     -0.1708932720
     -0.6136485849
     -0.3890736123
      0.2675793207
     -0.0223744334
      0.7183607764
      0.7430510160
     -0.2436131803
      0.1777548785
     -0.7819559438
      0.3276281168
      0.4561114418
      0.7906026167
      0.0938671552
      0.8778201959
     -0.9720377027
     -0.9510405582
     -0.1614284220
      0.9074247248
     -0.2504940831
     -0.5468613769
      0.1869403844
      0.8073038465
      0.2887081847
     -0.7303525575
      0.3739005173
      0.4983217975
     -0.8000650132
     -0.4077771223
      0.6676472259
     -0.5610442396
      0.0193932469
     -0.8286221381
     -0.2873945397
      0.9262026790
     -0.8750579650
      0.4792587129
      0.6680746541
      0.8121769848
     -0.6222791529
