     -0.0049593106
     -0.1733333039
     -0.0840601197
     -0.0273260617
      0.4460945406
     -0.1397542911
     -0.0544578253
     -0.0592509198
     -0.0375595906
      0.4483914331
      0.1111018696
      0.1302596030
     -0.4002694720
     -0.1103941985
     -0.2187499048
      0.0626745198
     -0.1953779387
      0.0797591010
      0.2825233378
     -0.2143678798
      0.1582920779
     -0.0565236511
      0.2926625462
      0.2323662100
     -0.1040782415
      0.4091523936
      0.3510018783
      0.3278039955
      0.3704618139
     -0.0927234716
      0.2745751304
     -0.4224186552
      0.2770932654
      0.0405304077
      0.2667221092
     -0.1984236530
      0.2281373628
     -0.1737254326
      0.4251633335
      0.4916712975
      0.0462990902
     -0.2086458004
     -0.1047583935
      0.0507509436
      0.4777871566
     -0.2665387882
     -0.3983222320
      0.3368162310
     -0.1954211989
      0.3983296387
     -0.0500973780
      0.0464555077
     -0.2698546679
      0.3192139509
     -0.0826827612
      0.3670984097
     -0.4399094623
      0.3279460265
      0.0393009419
      0.0517195297
      0.0819083937
     -0.1686043260
      0.0841688748
     -0.4392309995
     -0.0467419801
      0.3636355400
     -0.1063364900
      0.1273634995
      0.1951322221
     -0.4595298550
     -0.1663628132
     -0.0601277772
      0.0186087350
     -0.0554216736
      0.0155350488
      0.0460043836
     -0.0216552183
     -0.0182962593
      0.3482256482
      0.0621629203
     -0.2790712201
     -0.4099503096
     -0.3588381059
     -0.1694108863
      0.3508257491
      0.0738371480
      0.2375876455
     -0.1112128356
      0.3546421491
     -0.1906896784
      0.1400440435
      0.1278765671
     -0.2101515547
     -0.1493053979
      0.0772087127
     -0.0298335024
     -0.3250035354
      0.0264347349
     -0.1262814019
      0.3367752425
     -0.4129477583
     -0.3739979586
      0.1414298175
     -0.3051731815
     -0.1309064246
     -0.3258058814
     -0.1084231630
     -0.0773677917
      0.4306376834
     -0.2875625811
     -0.1295989641
     -0.4263183560
      0.3521095138
     -0.3912421125
      0.2812616642
      0.1124695966
     -0.1218639235
      0.1705118310
     -0.1795243971
      0.4283727143
     -0.4422478854
     -0.1105922050
     -0.0795133317
      0.1253239238
     -0.3835863232
      0.1085502522
      0.0312061768
      0.2632089428
      0.2220893003
      0.0637595472
      0.3230634049
      0.3600710781
      0.0425887383
      0.4479146219
      0.1113354727
      0.2079115546
      0.0998738894
     -0.4937684698
     -0.2179957326
      0.1921248757
     -0.4128112152
      0.2333316404
     -0.4413095260
     -0.3299297307
     -0.0511346884
      0.1956205935
      0.2317419052
      0.2878578526
     -0.2996845481
     -0.1395249704
      0.3191722456
     -0.0326411559
      0.4542553846
     -0.1031083412
     -0.1903363856
     -0.0062580325
     -0.4330372525
      0.1823283159
     -0.4944573809
     -0.1589895534
     -0.4158728189
      0.2743249840
     -0.1389177973
      0.0802079335
     -0.2712161610
     -0.2848545891
     -0.3617870569
     -0.3973494236
     -0.4798153820
     -0.3421559466
     -0.4497125535
     -0.1742302545
      0.4395391124
      0.4893772234
     -0.4196430241
      0.3800907278
      0.3520007769
     -0.3729907120
     -0.3246437987
     -0.2744652856
     -0.0690046545
      0.1374511705
     -0.2369648424
      0.3533170882
     -0.0525507282
     -0.3013941847
     -0.0267857146
      0.1015461401
     -0.3375691701
     -0.2006922507
     -0.3272107523
     -0.1806672337
      0.1820680383
     -0.4400717165
     -0.3238726883
      0.1248935823
      0.2571138862
     -0.0234971999
     -0.1986479875
     -0.3741303843
      0.1239257395
     -0.0763111400
     -0.4312958288
     -0.2669611123
      0.1858783270
     -0.1020739936
     -0.2917010535
     -0.0822600007
     -0.3977606136
      0.0266644805
     -0.1771897228
     -0.0495943500
      0.3196213996
      0.1759157247
      0.0664768672
      0.3799804691
     -0.4440283338
      0.4811269630
     -0.0040938084
     -0.4485264732
     -0.0456540931
      0.2846389490
     -0.0873909312
     -0.4235741584
      0.1511016992
     -0.3842735825
      0.0690141874
      0.4825952767
      0.1180994584
      0.1104388656
      0.1609752339
      0.3428176772
      0.4320691116
      0.2539409768
      0.1570830396
     -0.4400893692
     -0.2934958330
     -0.3075911163
      0.4313043846
      0.1462990998
     -0.2287161112
     -0.3017714976
     -0.2003754588
      0.2758370593
      0.4203684842
     -0.2685159022
      0.2896550274
      0.1184995461
      0.0606060587
     -0.0860074016
      0.2866601532
      0.0541373551
     -0.4221384711
     -0.2671236906
      0.2289030724
      0.2886461561
     -0.4010189263
      0.0599039946
     -0.3273727849
     -0.0885851681
      0.4238322792
     -0.2697872014
      0.4789021365
     -0.3735807385
     -0.1481056071
      0.1101385134
     -0.3593877109
      0.3596531032
      0.0937062483
     -0.3866941439
     -0.3412126542
      0.3147951274
     -0.0939732024
      0.1356063779
     -0.4011911490
      0.4681575797
     -0.2428185336
     -0.2283537299
      0.2690798908
      0.0108617284
     -0.2835362992
     -0.5550362831
      0.4732846430
      0.1258957028
     -0.2945581485
      0.4219697754
      0.0501334299
     -0.4711033061
      0.2537669362
      0.4867227228
      0.2885407451
     -0.2420870362
     -0.0323791581
     -0.4693389446
     -0.0414415829
     -0.0319074753
     -0.1682601455
     -0.3484793823
      0.2712799870
     -0.1247146877
     -0.0813347325
     -0.1611877912
     -0.0609415390
     -0.4366540553
     -0.4407913072
      0.3791266456
     -0.2458730945
     -0.0280364753
     -0.2805290738
      0.0626055856
     -0.4781476349
     -0.3690516955
     -0.1105027264
      0.1068965930
     -0.0306257869
      0.4692254077
      0.2790728286
      0.0496559053
      0.0784503914
      0.2028401170
      0.4298154112
      0.0037544428
     -0.2075580798
      0.3029550660
     -0.0225609444
      0.1884551413
     -0.1220804106
     -0.4104891254
      0.2970192214
     -0.2928158724
      0.2487411669
     -0.0561184456
      0.0362483145
      0.3158451102
     -0.4154459989
      0.1392914769
     -0.1340902196
     -0.3093758481
     -0.1664332414
      0.1517169945
     -0.0048760764
      0.4420925600
      0.4149215461
     -0.1324743005
      0.1668957472
     -0.3387279964
      0.1287130696
      0.2275092181
      0.4346896303
      0.0680606333
      0.4192377127
     -0.4147723454
     -0.4498300346
     -0.0825776034
      0.4410431782
     -0.2029145966
     -0.2610642538
      0.0806046402
      0.3816815236
      0.1367003168
     -0.3633911625
      0.0217803859
      0.2465456072
     -0.3214955877
     -0.1670075944
      0.2426505362
     -0.2205881873
     -0.0052473172
     -0.4884587844
     -0.1851614855
      0.4619812762
     -0.3451213102
      0.2561901806
      0.2924095760
      0.3595925267
     -0.3834565384
     -0.3545097813
      0.4229466828
      0.0808331040
      0.0222097882
     -0.3907502173
      0.4282326775
     -0.2195582914
      0.1180784826
     -0.2514182458
      0.3813243672
      0.3765817756
     -0.0263526119
     -0.1804936760
      0.3504324310
      0.1517079278
      0.3115462623
      0.3517876966
     -0.0815491345
      0.0883753696
      0.1334393520
      0.1414723705
     -0.4789232281
     -0.3513338388
     -0.3107234350
      0.4494080951
      0.2834282634
      0.0104018799
      0.2731472536
     -0.1132945161
      0.1925921009
      0.0775717336
      0.3520603543
     -0.0918836291
     -0.4540495758
      0.2982754176
      0.3250707519
     -0.3585191588
      0.0286227466
     -0.3412800040
      0.2981259066
     -0.3943174987
      0.1118010648
      0.0050254814
      0.2049917639
     -0.3902384609
     -0.1525726167
     -0.0653843183
     -0.0438133928
      0.1109650762
      0.1337850272
      0.4513449555
     -0.1635102952
      0.0563860103
     -0.1003767797
      0.3574931563
     -0.3124356189
      0.0516314882
     -0.2391442247
     -0.3050448562
     -0.2550153171
     -0.0562375938
      0.1800251106
      0.4633708240
      0.2363803106
      0.1737394329
      0.1000944429
      0.3748762942
     -0.4338468819
      0.4542397428
     -0.4214478270
      0.3479227812
     -0.0634635450
     -0.2912326124
      0.2754437183
      0.1465428257
     -0.3803576002
      0.1705246883
     -0.3478070828
     -0.4721887063
     -0.3701940860
     -0.2315619997
     -0.3596485614
     -0.1549455361
     -0.3777201171
      0.0250308060
      0.4289392117
      0.2421583578
     -0.2915160492
      0.0807084234
      0.1578595948
     -0.1202461268
      0.4821299609
      0.1143574001
      0.0978869962
     -0.2446590060
     -0.2235250028
      0.3036736931
     -0.1693881032
     -0.0455909381
     -0.3761470716
      0.3227056481
      0.4464529129
     -0.4175596439
     -0.4649397087
     -0.2218858465
     -0.2218386076
      0.0736796077
     -0.2145663710
     -0.2687375014
     -0.0312595409
     -0.1457880859
      0.4276747026
     -0.1524278483
     -0.3036578885
      0.3652807668
     -0.2527082120
      0.3448663083
      0.4169431378
      0.3066376969
     -0.3408086837
     -0.2898455179
      0.0724027913
      0.0538090453
      0.3396348559
      0.1273767418
      0.1502184516
      0.1561243362
     -0.3317052428
      0.1046734620
      0.2585884846
      0.4284388008
     -0.2572561054
      0.3385452964
     -0.0614167901
      0.1009505889
      0.3860979620
      0.0908652147
      0.3159035449
      0.4215343255
      0.2539672403
     -0.0820792616
      0.0492907386
     -0.4893646310
      0.1167019983
      0.3893666084
     -0.0206713983
      0.2456266457
     -0.0960192864
      0.0030426577
     -0.3814391482
      0.3713999131
      0.0761189453
     -0.1273550842
      0.0599668401
     -0.0461459855
     -0.2910960900
     -0.2793181590
      0.3947533390
      0.4031231205
     -0.0227372444
     -0.1272843660
     -0.4638291464
      0.1434102587
      0.4877165236
      0.1004930999
      0.3926089479
      0.1071268549
     -0.2080118409
     -0.2907752345
     -0.0334445876
      0.4178373856
      0.3404595186
      0.1386247235
      0.3946202147
      0.0674978690
     -0.3338897005
     -0.1394961515
     -0.3137679113
     -0.2187007727
     -0.0845162445
     -0.3392032232
      0.1275666307
      0.2075811989
      0.4561208569
      0.0087896439
      0.4073938875
      0.4614257366
     -0.2738173694
     -0.4925835260
     -0.1233634754
     -0.3477784783
      0.1364324665
     -0.4226582456
     -0.2841265306
      0.1984045094
      0.1627698173
     -0.0734650521
     -0.0480255088
     -0.2906687016
     -0.0138152880
     -0.0162720752
      0.0336771315
      0.1388488595
      0.2129290685
     -0.3422971062
      0.1232252460
     -0.4325579771
     -0.4275457648
      0.3971521376
     -0.3532620929
      0.2523599924
     -0.0752704300
      0.1694048936
      0.4479639522
     -0.1880310626
      0.3545358299
     -0.1011612677
      0.2897445673
      0.1472364307
     -0.2671405498
     -0.4512233410
      0.2897177393
     -0.1402978561
     -0.0324159856
      0.1283430908
      0.3670308267
      0.3487130871
     -0.1856183207
     -0.3296601237
      0.3512676618
      0.4384868509
      0.4353358334
     -0.0479867470
     -0.0441273648
      0.3782271863
      0.1320083279
     -0.3001108563
      0.0436646332
      0.2551190478
     -0.4486747301
      0.0487421237
      0.2703579414
      0.0517052838
     -0.0723347809
      1.2067919870
      0.8745908761
      0.2183915622
      0.5771255595
     -0.6971917193
      1.4942468721
     -0.9962808127
     -0.9059549992
     -0.0311525166
     -0.3252383671
      1.3917595531
     -0.2159883189
     -0.4018696874
     -0.9968629608
      0.4003365671
      0.6073092139
     -0.2027145030
     -0.3919487378
     -0.5681023054
     -0.2649980679
      0.1282900529
      0.4215558131
      0.3161620473
      0.4470332811
      0.2483703710
     -0.4119770032
      0.3499299260
      0.4831131362
      0.4067698012
     -0.2368650012
      0.4565227448
      0.0594256073
      0.5306350143
     -0.5736287339
     -0.6046368180
      0.4025823225
      0.2278076671
     -0.1880259549
      0.2753932696
      0.3630958584
     -0.3576016393
     -0.4710316787
     -0.0904647516
     -0.0671238968
      0.3070574041
      0.0077828176
     -0.4670315865
     -0.1285650610
     -0.5005354771
     -0.2321937908
      0.4214291264
      0.2942595918
      0.4774492604
      0.2184121223
      0.5790408328
     -0.2175634423
     -0.0441153558
     -0.2140036752
      0.6311582699
      0.0093329026
     -0.0284942546
     -0.5467352574
     -0.3221319188
      0.1851862449
      0.2295431634
      0.5512681537
      0.3719181395
     -0.4599013886
      0.5680533904
      0.4655507707
     -0.0578278839
     -0.4597420569
      0.1781019365
      0.2077300718
     -0.2437540541
      0.1253433024
     -0.3384359367
     -0.2366155663
     -0.1442172890
      0.5783769545
      0.3909047291
     -0.5694119125
     -0.5000389787
      0.4878682620
     -0.5300551415
     -0.5851486692
      0.2365949863
     -0.4511189586
     -0.5387503423
      0.1023816755
      0.1329604125
      0.5519961129
      0.4748633949
      0.3851561410
      0.4450545463
     -0.4499913051
     -0.4879619814
      0.2441595099
      0.0701081414
     -0.4665116916
      0.3631124352
     -0.4116061478
      0.1007251052
      0.5810559714
     -0.0094191603
      0.3365830234
      0.3617557479
      0.3395050614
     -0.4804345631
      0.3463872043
     -0.0687505726
     -0.0645557822
     -0.0066635527
     -0.0817202743
     -0.4288029222
      0.4117193409
      0.1446305595
      0.5845315637
      0.0262776231
     -0.6069854529
     -0.2472867712
     -0.3118840878
      0.3531727215
     -0.0789144111
      0.2154759647
      0.3770154603
     -0.5106943262
     -0.2580085712
      0.2792026149
      0.1908120833
      0.3333909316
     -0.3335543494
     -0.4151942526
      0.4877312373
     -0.2788324302
     -0.1929166820
     -0.3563322652
      0.6050333131
      0.4347303384
     -0.1894743429
     -0.0932440998
     -0.2557934838
     -0.1089464768
      0.2710263798
     -0.1442325411
     -0.2475385179
      0.2687569635
      0.3380119533
     -0.1837529123
     -0.0210984470
     -0.0859503012
     -0.4347399075
      0.4987006305
     -0.0048878257
     -0.0267071145
     -0.2878009856
     -0.2579581339
      0.1014753261
      0.5280096023
     -0.1019412867
      0.5868400775
     -0.5719548483
     -0.5122735674
      0.2507553156
      0.3940468082
      0.5664161909
     -0.0476248735
     -0.5347423819
      0.0787821413
      0.0532828252
     -0.1035987702
     -0.2860271992
      0.4582252245
      0.2062728147
     -0.2268613704
     -0.0503287639
      0.1232566341
      0.2064158034
     -0.0457290808
      0.4880588902
     -0.1072715510
      0.0919061432
     -0.2878897706
     -0.6236132159
      0.3965142337
      0.3177618608
     -0.2105729710
     -0.0947262003
     -0.3150931978
      0.1845247744
     -0.1984281376
     -0.2234230541
     -0.1741642015
     -0.3783991047
      0.5851879020
      0.5990757031
      0.6011762006
     -0.1392430959
      0.1275375675
      0.5722409451
      0.4339762488
      0.4329570761
     -0.1146241505
     -0.1484820343
     -0.5715457424
     -0.0098494745
      0.5848251814
      0.1572966190
     -0.0405056685
     -0.0879471940
      0.2795520455
     -0.1173458476
      0.3373300130
      0.1612584748
      0.2400434664
      0.3198018976
      0.6104345984
      0.4161674859
      0.3698057015
     -0.5407107216
      0.5883718259
     -0.0732331778
     -0.0542714874
     -0.1860655268
     -0.5565739216
      0.6042170484
     -0.4192094442
     -0.5831168713
     -0.1374889508
      0.4680704399
     -0.6484923204
     -0.2056936350
     -0.2572167743
     -0.3985762120
     -0.1610582084
     -0.2422083870
     -0.4754478509
      0.5930526597
      0.0610323762
      0.0941193229
      0.0867770695
     -0.2350646661
     -0.4588096205
     -0.2534779635
      0.4660344986
     -0.3767761382
      0.3666056520
     -0.5417645946
      0.4554516062
      0.4147933207
      0.0913633676
      0.4603057594
      0.0616414356
      0.0530375678
      0.2052558759
     -0.5227190128
      0.0044144221
     -0.2907515659
      0.4660854711
      0.4259427402
     -0.2035497489
      0.3106771693
     -0.2473293899
      0.3455928358
     -0.1160298536
      0.0121904988
      0.4804190544
      0.2120839355
      0.5735881184
     -0.3610921308
     -0.5006007748
      0.4605759581
      0.0679884986
      0.1684332118
      0.3908238051
     -0.0588120570
      0.3634337212
     -0.6377128431
      0.4955737277
     -0.0835468132
      0.4245679182
      0.0361654844
     -0.4006893815
     -0.0571077769
      0.0456339112
     -0.0253641605
      0.5616028241
     -0.2486781040
     -0.4475782925
      0.5384275057
      0.3949128638
      0.2829067407
     -0.1738525724
     -0.2361859625
     -0.1881064739
      0.5362975756
      0.1517571167
     -0.1784076366
      0.3332382495
      0.0518353902
      0.4133944866
      0.4295968117
     -0.5172133303
      0.0718389516
     -0.4702798295
     -0.1292557876
      0.0637051824
      0.3479009605
      0.0629151459
     -0.4957168009
      0.6843747160
     -0.4705915577
     -0.0659848763
     -0.5312893030
     -0.3066243493
      0.4327440346
     -0.2692287677
      0.4344473509
     -0.0478769318
     -0.4941003065
      0.1480816443
     -0.5018701802
     -0.4819943891
     -0.2333399974
      0.5127288331
     -0.0400332266
      0.1149076909
     -0.4984243824
      0.0641564302
      0.2201958774
     -0.1286819817
     -0.4634165025
      0.3072067259
      0.3072475398
     -0.6644588122
     -0.1952447821
     -0.4757987268
     -0.3100578811
     -0.3341631614
     -0.0227562177
      0.5217078310
      0.2132894269
      0.4564660875
      0.3739849556
     -0.5003861756
      0.3865863079
     -0.1198600313
      0.1116865441
      0.4252854018
     -0.4467614374
      0.0909169134
      0.2329915201
      0.3784409272
      0.6002082122
      0.1741837821
     -0.4780747223
      0.5607047779
      0.2766799670
      0.4524105240
      0.1013831875
     -0.0095470240
     -0.2913773614
     -0.4687819706
     -0.5878460295
     -0.4125035889
      0.4866005602
      0.1439588751
      0.0881003508
     -0.0669651352
     -0.5751584503
     -0.6219740947
     -0.3637408175
      0.4446875379
     -0.5414340905
     -0.2696160221
      0.4657162891
     -0.3425638673
     -0.0166557052
     -0.5899019545
      0.0003041284
      0.4662847253
     -0.0752368189
     -0.4946198442
      0.4500208217
      0.0371952572
      0.1485059561
      0.3061780855
     -0.4495300269
      0.1942662785
      0.5065976558
     -0.4505012604
      0.5474067645
      0.5932063652
     -0.5704782166
     -0.1250006887
      0.2980335253
      0.2527299582
      0.4865452862
      0.2998093006
      0.1927631763
      0.5857543083
      0.1891189100
     -0.2665117841
      0.5548045753
      0.0054449056
     -0.3942733197
     -0.5047992636
     -0.1778738717
     -0.4231482488
      0.4617948721
      0.2603403366
     -0.3456367805
      0.4541630188
      0.1368029314
     -0.2489135287
     -0.2849584516
      0.3142543445
     -0.1463713292
      0.4324050680
      0.4423367191
      0.7073981470
      0.7808605329
     -1.1153811694
      0.1637703663
     -0.6823948896
      1.3542776263
      0.0860833061
     -0.1689909153
      0.3803964153
      1.5840252607
     -0.5596747458
      1.2325879786
      1.1631530759
     -1.2517653377
      0.4246226821
      0.6230274225
     -0.5866657084
      1.0995599442
     -0.2544890927
      1.4774747101
      0.0056125316
      0.0039955845
     -0.0021753756
      0.0000778679
      0.0047972803
      0.0002360411
      0.0020798791
     -0.0033457007
      0.0003947192
      0.0047624140
      0.0040466532
      0.0052765204
     -0.0056623949
      0.0015819284
     -0.0000443527
      0.0009285817
      0.0058055006
     -0.0013960464
      0.0027513171
      0.0060755072
     19.6620671432
