     -0.0359850193
      0.4392420793
      0.0556657238
     -0.3774635552
     -0.2054526597
      0.2358078997
     -0.1200238026
      0.1876131232
     -0.3585638728
      0.0181095524
     -0.0604144494
      0.0538889127
     -0.3418329517
     -0.1049517313
      0.1885986369
      0.0276321935
      0.1281633996
     -0.3588568843
     -0.2911111774
     -0.0916249923
     -0.2481805940
      0.2319494659
      0.0966270536
     -0.2056530631
     -0.3440606731
     -0.4234863115
      0.1213707561
      0.3690563152
     -0.1084269939
     -0.2103405937
      0.2880841078
     -0.3186573918
      0.0832979219
      0.0324761213
      0.5284272426
     -0.2320215102
      0.2727012739
      0.1651113422
     -0.1511366457
      0.2974863898
     -0.0744083548
     -0.0084993292
      0.3807664360
      0.3757324003
     -0.0333462369
      0.1444666917
      0.4772779674
      0.4261671643
      0.1398947460
      0.1255802459
     -0.4032225652
     -0.3170662435
     -0.1235571456
      0.0838621557
     -0.2227254096
     -0.3566603053
     -0.0722118812
      0.1126768152
      0.1858875888
      0.0225303266
     -0.0140534458
     -0.2985432029
     -0.2692028628
     -0.2614092403
      0.2163996850
     -0.2161189779
      0.3153122306
     -0.2141999687
      0.0478595278
      0.2251998183
     -0.3110404568
     -0.2737491300
      0.3732597045
     -0.4718818287
      0.1391055300
      0.4527889425
     -0.3815373174
     -0.4022554849
     -0.3534749650
      0.2021495027
     -0.0963516289
     -0.1883823307
      0.3386843616
     -0.4267137714
      0.1576324272
     -0.4079638586
      0.1738937113
     -0.1081507781
     -0.4412317251
     -0.3010331694
     -0.0212754192
     -0.2611082336
      0.0057290173
     -0.3700932160
     -0.3754371336
     -0.0576919179
     -0.2541876174
     -0.0664868602
     -0.3928883782
     -0.1485972282
     -0.2390395287
      0.3663100793
     -0.0682011565
      0.3470430182
      0.4473174555
      0.3714686183
     -0.0419087299
      0.1537147654
     -0.1997830991
      0.1241564388
     -0.4488462878
     -0.3702488742
      0.1887474587
      0.4995838467
     -0.5271205335
      0.4008538794
     -0.1418805476
      0.3762424786
     -0.2930179398
     -0.4452746220
     -0.1377299248
     -0.3954453222
     -0.4577655649
     -0.0655069368
      0.2568754598
      0.1003947617
      0.1172600155
      0.4695251998
     -0.1984404325
      0.3184578825
      0.4567722505
     -0.4365804420
     -0.0887889284
      0.1163930545
      0.1842051736
     -0.1512023540
     -0.2749200794
      0.3864110849
      0.2043792131
      0.3675339827
     -0.2883468143
     -0.2544664238
     -0.2701090457
     -0.0152770374
     -0.4562544309
     -0.1104504615
     -0.1128578439
      0.0149237272
     -0.2539108411
      0.2217420827
     -0.3912694357
     -0.1820713115
     -0.3127196544
     -0.3622308916
      0.2015771459
      0.1392176593
      0.2872217912
     -0.3729106786
      0.3763065663
      0.4290443613
      0.3897270633
     -0.0207594048
     -0.2674347634
     -0.1001286902
     -0.0297582100
     -0.3734096433
      0.1658971490
     -0.3559046582
      0.2929131000
      0.4272093539
     -0.1205536829
     -0.2627757005
     -0.4135452327
      0.3569576171
      0.4673672468
     -0.4203788983
      0.4079154162
     -0.3620811992
     -0.3882870992
     -0.0818742586
     -0.2085122998
      0.2858567607
     -0.4650316392
     -0.0000636731
      0.3134629993
     -0.0103426626
     -0.0840674209
      0.1149044550
     -0.1776389005
      0.3639310434
     -0.3310244448
     -0.2944665347
      0.2341477568
     -0.3172776096
     -0.0094238668
      0.2800385261
      0.0044337908
      0.2360173617
      0.2056946827
      0.3805339267
     -0.0870889154
     -0.0644463130
      0.1043570626
      0.2717157871
      0.2215108398
     -0.1318097424
      0.1846257759
     -0.4476104232
     -0.3049060790
      0.2175628150
      0.2019515230
     -0.3648418322
     -0.3053062115
     -0.4760365791
      0.4471089759
      0.1056910428
     -0.4807595802
      0.4360344595
     -0.2178605385
     -0.0610891859
      0.3725235637
     -0.1101534204
     -0.2107883427
      0.0666481147
     -0.0029126171
     -0.0363703071
     -0.4826281339
      0.0120589640
      0.2468304010
      0.0346335412
     -0.1836780859
      0.2739688429
      0.1712412325
      0.4275047448
      0.2671577600
     -0.2434389827
     -0.2673251300
     -0.0954057596
     -0.3835705521
      0.2683971711
      0.2846252639
      0.0830035420
      0.1019528987
      0.4611593302
     -0.0537571533
      0.4466833590
     -0.1045623029
      0.1804564120
     -0.4620102885
     -0.4457803903
     -0.2057610682
     -0.1567620254
     -0.3731423504
     -0.2545157323
      0.0995652532
     -0.1839880670
     -0.0887256186
     -0.1924165124
      0.2642104891
      0.1594973231
      0.4190847935
      0.4034610676
      0.2916298968
     -0.2169691747
     -0.3994844986
      0.3766654363
      0.2222835122
     -0.3974075766
      0.4053209969
      0.0280479382
      0.0261614282
     -0.4106809171
     -0.1035382084
     -0.5003014723
      0.2500041198
     -0.0063448422
      0.2917153328
      0.2230136369
     -0.0631607912
      0.1368041269
     -0.4335650649
      0.1001651045
      0.1094162767
      0.2737454017
     -0.3105647285
      0.0386396415
      0.2963704275
      0.2200993424
      0.3339199671
      0.4688713835
      0.2728750825
     -0.0181665657
     -0.4106779957
     -0.2831869714
     -0.2655119784
      0.3455758773
      0.3043166763
      0.3526893550
      0.0793615936
      0.2792230318
      0.3800901137
      0.0894727416
      0.3205751448
     -0.4449542874
     -0.2156899334
     -0.0980077682
     -0.4092837196
     -0.1210322002
      0.2174685142
     -0.1743350060
     -0.0449775837
      0.2291737904
      0.2222790853
      0.0351586278
      0.1326492942
     -0.3908803836
     -0.0639996159
     -0.0852627414
      0.3322288374
     -0.4250700516
      0.0698835466
      0.3675346935
      0.2241043167
     -0.1379096358
      0.3311490708
      0.2716199804
      0.2638992334
      0.3191657661
      0.2890671640
      0.0739491394
     -0.0855147946
     -0.0822368059
     -0.1402529804
     -0.2962446564
      0.1511172044
     -0.4111317748
      0.1513334609
      0.2859336008
      0.4646208947
     -0.2112625243
     -0.0883180418
     -0.1689780124
      0.0054826608
     -0.2445226708
     -0.1596487857
     -0.0778490773
     -0.4425345544
      0.3487392727
     -0.1092858364
      0.0927667339
      0.3341032799
      0.0476883554
      0.4397688969
     -0.0702343585
     -0.0940634482
      0.1012842967
     -0.4010332138
     -0.3426060957
      0.3019044691
     -0.2887341426
     -0.3066252453
     -0.3726597552
      0.3864678776
     -0.3394637122
      0.2567746232
      0.1485336417
     -0.0768230151
     -0.1871699280
     -0.1841904289
      0.1488361808
      0.4525819889
      0.1392030966
      0.1223678513
      0.1597943832
      0.0987125742
     -0.3309701622
      0.0668437257
     -0.3791066566
      0.0120809784
      0.0843381400
     -0.3650398345
     -0.0797243817
      0.4821485425
     -0.3078031665
      0.2963256751
     -0.3796288247
      0.1951523943
     -0.3977534445
      0.0660629169
     -0.4299222998
      0.4406005591
     -0.3420372137
     -0.3284597879
     -0.4088237502
     -0.0795039795
      0.4303878641
      0.2267533370
      0.3191615432
     -0.3451992532
     -0.4287998655
      0.3059395284
      0.0371537454
      0.3364306373
     -0.3320022075
      0.3411705809
     -0.0889490829
     -0.3935921708
      0.0494051572
     -0.2116220085
     -0.3197255804
     -0.1320442217
      0.2111988311
     -0.0289582837
      0.0788350103
     -0.2540942536
     -0.3447173309
      0.4467557143
     -0.0517085330
     -0.0065961555
      0.0284121265
      0.4400070389
     -0.4447807506
      0.3654475947
     -0.0100538897
     -0.1220657169
      0.1220165386
      0.4462603546
     -0.0442027397
      0.1918764731
     -0.0161368171
     -0.1747025075
      0.4415149494
     -0.4563075746
     -0.0650640603
     -0.2707543473
      0.1706559015
      0.4236159420
     -0.2597045432
     -0.2896883637
     -0.0980524707
      0.0188820020
     -0.3789122245
      0.0031175856
     -0.2958766256
      0.4332384748
      0.4531713687
      0.0559541989
      0.4676327420
     -0.2230495583
      0.4172712117
     -0.0924298269
     -0.1578688679
      0.3651060794
      0.2344476224
     -0.2158356382
      0.2281497350
      0.2619843790
      0.1107374155
     -0.2527161637
      0.2152733690
      0.2349989865
      0.1002912886
     -0.0604397572
      0.4550047630
      0.2876653688
     -0.3966694331
      0.2323067519
      0.1605950892
     -0.0526599170
     -0.0775911179
      0.2792053905
      0.1986387853
      0.1710246138
     -0.0944918370
     -0.4852921338
     -0.3809422813
      0.1452465976
     -0.1029284870
     -0.4040174105
      0.3779277225
      0.4033538196
      0.4374925711
     -0.2744529741
     -0.3796157258
      0.3759459256
     -0.3807984403
      0.2112865562
     -0.1589698192
     -0.2159428088
      0.3365790316
      0.2662942324
      0.1573673908
     -0.1323104440
      0.1374509926
      0.0721791055
      0.2254740873
      0.0710840299
     -0.2219856821
      0.0479801312
      0.3158582344
      0.0384514853
     -0.1684913767
      0.2006328726
      0.2596783772
     -0.0574775971
      0.2918016481
      0.3317035845
     -0.2926897583
      0.4235289618
      0.1416126908
     -0.1094323101
      0.3194204753
     -0.1667206909
     -0.1196237139
      0.2094569888
     -0.0292646323
      0.3960788020
      0.1484085882
     -0.3322133903
      0.3994213870
     -0.1218400545
      0.1974908105
      0.3414411601
      0.0374133217
      0.2143487935
      0.2877360290
      0.3918555562
     -0.1730865484
      0.5404009523
     -0.2228768449
      0.1945121844
     -0.3039160913
     -0.0644155687
     -0.0284638106
     -0.2338280549
     -0.4635614632
     -0.2375780218
      0.3241763675
      0.2673881072
     -0.0386738404
      0.1726808063
      0.3956220842
     -0.1782402470
      0.1261932361
     -0.2462114021
      0.3799390621
     -0.4068838103
      0.2861052282
     -0.0579423902
      0.4096751280
      0.2799750426
     -0.2355511666
     -0.1905052523
      0.1662537666
      0.4206258363
     -0.0457639041
      0.5131110054
     -0.0872754354
     -0.3925160142
     -0.4221873872
      0.4408025462
      0.2420507212
     -0.2964843633
     -0.0738856712
     -0.1923862126
     -0.1814776076
     -0.2521244915
      0.0642908873
     -0.4851964993
      0.4143851493
     -0.2736425125
      0.4679485151
      0.1843356027
      0.0157049341
      0.0032627534
      0.0710357671
     -0.2056943153
      0.1975175357
     -0.1545737124
     -0.2540015946
     -0.2769846813
      0.3554871332
      0.1505575949
      0.3264715160
      0.4556767697
      0.3389456431
     -0.2959596333
     -0.4391755172
     -0.0941392392
     -0.3377802676
     -0.3917107537
     -0.2379115329
     -0.4737734948
     -0.2272141905
     -0.3179637769
      0.1309742620
     -0.0960899189
      0.2316437743
      0.0435604224
     -0.3692527853
     -0.3834376924
      0.3119106514
     -0.3815959575
     -0.0046166668
     -0.0798703563
     -0.0351272428
      0.0480127024
      0.1946855462
      0.2731726958
     -0.2437364873
     -0.2617444669
     -0.2407023185
      0.4312822804
     -0.3022185412
     -0.0365618050
     -0.1211544134
      0.1012944796
      0.4335039333
      0.1505120926
     -0.0824281161
      1.2882481798
      0.7142584377
     -1.0369930816
      0.0785729852
     -0.0623824701
      1.4594557682
      0.2277639421
     -0.6718006483
     -0.3597475922
      1.0667185479
      1.1685570258
      1.1532726772
      1.5018053766
      0.5988915127
     -0.8075450634
     -0.6533364773
      1.1434795636
     -0.2124040311
      0.3501220224
      1.0034804344
      0.1108302658
      0.0552048717
     -0.1195037454
     -0.5064155971
     -0.4406542177
      0.1301943671
     -0.0042211118
      0.2724636085
      0.2083166450
      0.5371181424
     -0.6304132753
     -0.2774277912
      0.3023910496
      0.1530157521
     -0.1258050478
     -0.3004476684
      0.1303516585
      0.5413188777
     -0.1777578429
      0.2340578657
      0.2335889968
      0.5470050455
     -0.3787033300
     -0.5702699236
     -0.1197385832
      0.0156870446
     -0.2940540501
     -0.5221938563
      0.1433700000
      0.0209943931
      0.4023123230
     -0.0696256082
     -0.2217190783
     -0.4708674422
      0.3908354930
      0.4705482798
      0.5384745047
      0.1543620840
      0.4575037559
     -0.2559673176
     -0.2071338820
      0.1957195868
      0.4119059915
     -0.1514918795
      0.0370469494
     -0.4943371486
      0.0388642091
     -0.2648962682
     -0.3311257524
      0.4681047023
     -0.3747474545
      0.4296983126
     -0.4853260782
      0.5774119063
      0.4266943092
     -0.5719549789
      0.4320281669
     -0.0472946042
      0.5239516041
      0.5326673257
      0.4537801952
     -0.4449963547
     -0.0405017272
      0.4070613520
      0.1852630098
     -0.0910143975
      0.4585157381
      0.2936932586
      0.5375714810
     -0.5323426334
     -0.0480138523
     -0.1533741962
      0.5226278414
     -0.4544121307
      0.1649812454
      0.1036867654
     -0.2605617594
     -0.1523099374
     -0.2813173486
     -0.4284553084
      0.3379733557
      0.0959719138
     -0.3017086937
     -0.1332105804
     -0.1079569960
      0.5765233476
     -0.5035298118
     -0.4010604563
      0.4179752804
      0.0697280808
     -0.2729416161
     -0.4305985374
     -0.2492940977
      0.1720937843
     -0.2582521189
     -0.6757585691
      0.0304112651
      0.3778792520
     -0.2478539941
     -0.2996273948
      0.3067298471
      0.4031976103
      0.5785994181
     -0.4579118700
     -0.5132602919
     -0.5743238651
     -0.4465622024
     -0.1664250078
      0.4585738074
      0.4325629854
     -0.5845429066
     -0.1524921621
      0.0203506704
     -0.4706339528
      0.5566116536
      0.3832042375
      0.3408452701
     -0.4913384094
     -0.1494838065
      0.1971000157
      0.1207882784
      0.2725652257
     -0.4983482874
     -0.4669451194
      0.4942876741
     -0.1261482285
     -0.2747499169
     -0.0244297989
      0.4136480912
     -0.0190493921
      0.3628201107
     -0.5907213867
     -0.1801116976
      0.4046709231
      0.4360999420
      0.0300370554
      0.1617163339
      0.1302384594
      0.1511890298
      0.1638450796
      0.5252754704
      0.5159413991
      0.5882192734
      0.2910897700
      0.1417176814
     -0.3880177907
     -0.3531138384
      0.3877103081
      0.3585220368
     -0.3011753777
      0.5861078799
     -0.1967055928
      0.5685833491
      0.3442231285
     -0.5807874130
      0.3077653077
      0.4769813591
     -0.4361203549
      0.5394268416
      0.2165892013
      0.4706968888
      0.1837124484
     -0.1285136121
     -0.4606614770
      0.4433141412
      0.4252966971
     -0.3759667634
     -0.3919113328
      0.3625710803
      0.4454972586
      0.1164074384
      0.0462062322
      0.4957057379
      0.3562803313
     -0.2899542534
     -0.2365108038
     -0.2971639349
      0.0912435713
     -0.1865859761
     -0.4004663976
      0.1940570429
      0.2486588847
      0.1341823362
     -0.1162998734
      0.5406516754
     -0.5309989961
     -0.4860796845
      0.5638878450
      0.0240058139
     -0.5852955083
      0.3213622503
      0.1400493024
     -0.1235524724
     -0.1492152683
      0.4834647883
      0.3256852300
      0.3056355843
      0.2976822830
      0.4740620688
     -0.5760925978
     -0.5127616695
      0.1325838297
      0.1013664876
      0.4206165343
     -0.2670335628
     -0.6104298727
      0.3287310942
      0.4296406632
      0.5243325843
      0.2997557954
      0.2351063615
     -0.3462940743
     -0.5214020073
      0.3657646503
      0.0819411786
     -0.1439643756
     -0.4004572669
     -0.5250080248
     -0.4061816595
      0.3171826585
      0.3926642360
      0.3951462261
      0.2018688954
      0.2713972313
     -0.2644515949
      0.0282951471
      0.3541239024
     -0.1549774270
      0.4255105784
     -0.3472571847
     -0.0860660731
      0.6375994167
      0.4518607544
     -0.3562570213
     -0.1205868138
      0.1822711956
      0.3755005663
     -0.6599070422
      0.2442951818
     -0.4450105123
      0.2555241263
     -0.4906674918
     -0.3814350164
      0.4263736133
     -0.3694751684
     -0.2494804697
     -0.4498681855
      0.4317964569
     -0.5051588995
      0.0039993402
     -0.1184761051
      0.2500263769
     -0.1999873981
      0.1422547903
      0.6226253529
      0.2843994852
      0.0888189229
      0.1475913033
      0.1326083462
      0.3189863153
     -0.5284998693
     -0.0259078283
      0.0081991081
      0.3824062352
     -0.5142010455
     -0.1536192248
     -0.3675332739
     -0.2314200562
      0.2217707084
     -0.1326853487
      0.2244543268
     -0.5251532711
      0.5114642810
     -0.2793336542
     -0.5291550083
      0.1592357764
      0.5701932911
      0.6824822836
     -0.3092461116
      0.3363853513
      0.2851594040
     -0.4685662921
      0.5954273482
     -0.1593543337
      0.1694950499
      0.0651855729
     -0.3566113192
     -0.1316003086
      0.2173157476
     -0.2069126299
      0.2599734597
     -0.2721957862
      0.3014303668
     -0.4218799972
     -0.1322112717
     -0.0894550408
     -0.4628286642
     -0.3223745779
      0.4749118374
      0.3149278114
      0.4327507631
     -0.4035169011
      0.4005892744
     -0.3647854020
      0.2331107879
      0.2034337107
      0.3211204363
      0.2722216211
      0.2039093071
     -0.4982006406
     -0.1654606565
     -0.1885582617
     -0.2766801806
      0.3410462732
      0.2211510218
      0.1656565154
      0.5202360669
     -0.1483056927
      0.4682613251
      0.3701399687
      0.3232034661
     -0.1348412061
     -0.6097520701
      0.2881317002
     -0.0143599978
      0.4610713748
      0.1006554487
     -0.5743502492
      0.1715716080
     -0.4384086121
      0.6192177881
     -0.5788577065
      0.1912794379
      0.5381750758
     -0.2505468996
      0.0535038975
      0.0983747673
     -0.0082674086
      0.3567338511
      0.3967133288
     -0.0819297175
      0.5461584496
     -0.2581450372
      0.2510471683
      0.4294426667
      0.0539185694
      0.1725226117
      0.5143040778
      0.2660247841
      0.2395493576
      0.5281327413
      0.2341125844
     -0.2347649263
     -0.1672411938
      0.1584260847
     -0.6374044688
      0.3045155719
      0.3511380829
      0.4102659356
     -0.4045272882
      0.4230850690
      0.5590939394
     -0.3320647311
      0.4520011613
      0.5695598422
     -0.5461558688
     -0.4162441489
     -0.3704146676
      0.4789807791
      0.3374472223
      0.2231913096
      0.0136873991
      0.0264847323
     -0.0094805381
      0.4502063777
      0.1404849499
      0.5521320422
     -0.2286968832
     -0.1221116362
     -0.5282343553
      0.4926735732
      0.2737492349
     -0.0052556242
     -0.1432490337
     -0.4984767246
      0.2581359332
      0.5601359851
      0.2111892367
     -0.4347618047
     -0.3942201948
      0.0132348005
      0.6046165377
      0.5231162172
      0.4586447938
     -0.0030474470
      0.7129965772
     -0.0909066603
      0.3277987597
     -0.5460031518
     -0.0874002258
     -0.7270876329
     -0.6202863034
     -1.3077970548
     -1.0828412558
      0.4705703283
     -0.3284044560
     -0.5896399047
      0.6813454464
      1.3949100194
     -0.0849341450
      1.4976850339
     -0.3967749078
      0.7517935412
      0.6485860562
      1.0324261486
      0.5280279044
      0.9105471782
      0.7215926440
      0.6145309789
     -0.5756891215
      0.0303477501
     -0.0177524369
     -0.0061034579
      0.0124126332
      0.0179711859
      0.0188088517
     -0.0005016199
     -0.0192885322
      0.0204988920
      0.0200334051
      0.0000268985
      0.0001709174
      0.0087634659
      0.0210771045
      0.0226715157
     -0.0016508698
      0.0219580593
     -0.0032067200
      0.0068070732
     -0.0043944141
     19.6486118037
