     -0.4753823353
     -0.2682110968
     -0.2586485105
     -0.0802304136
      0.1073175152
      0.2160837030
      0.3761625324
      0.1352404163
      0.4572769926
      0.0871499573
     -0.0275340701
      0.2472947240
      0.2484903448
      0.4126491353
     -0.3229994362
      0.2193034873
     -0.1836422336
     -0.5022308966
     -0.0840231044
     -0.1285613520
     -0.4514654827
     -0.2253521522
      0.1608207522
     -0.4331779819
     -0.0283277085
      0.0178047693
      0.0749036563
      0.1031472178
      0.2627212725
     -0.1880673095
      0.1624678427
      0.1188297653
      0.2556843318
     -0.4248489733
     -0.3283092753
     -0.4197247146
      0.3884372706
     -0.3893245856
     -0.1715220127
     -0.2916432470
     -0.0767675536
      0.0315259540
     -0.0829989105
     -0.0565494093
      0.4369794739
      0.0265232818
     -0.0733372961
     -0.1520947844
     -0.0808677837
      0.2988514308
      0.2025409325
     -0.4609999564
     -0.4394707922
      0.0517231077
     -0.2685695346
     -0.4242733613
      0.0166437762
     -0.2726527188
      0.4056209006
      0.3436940023
      0.1820601510
      0.3484602608
     -0.2960518142
     -0.0744968569
     -0.4257758528
      0.1299803752
     -0.1397518541
     -0.1434926756
      0.5014733962
      0.1502039646
      0.2688286370
     -0.1108649424
     -0.0899940841
      0.3311460349
     -0.1620837016
      0.4392113523
     -0.3408936173
     -0.0715934629
     -0.3242183648
     -0.0123884313
      0.4540850048
     -0.4845051386
      0.3863501008
     -0.4189751202
     -0.3688514110
      0.1069668666
      0.3718909719
     -0.1251310590
     -0.1977519865
     -0.3899165376
     -0.0170694650
     -0.0386234905
     -0.1545797107
      0.4204937872
     -0.3901451631
     -0.2873216212
     -0.1555287910
      0.5355689134
      0.0305361090
     -0.2017417461
      0.1505690835
      0.3393985258
     -0.0045307121
      0.4525341664
     -0.3520441041
      0.3074753080
     -0.3684977454
     -0.3908158228
     -0.1136441406
     -0.2534936795
      0.3447981599
      0.4096020153
     -0.4730284145
      0.3408703244
      0.1299110326
      0.0122982337
      0.3782809221
     -0.5023510797
     -0.2627512189
      0.0176559361
      0.0559876753
      0.1117229323
     -0.4141567710
      0.1783769904
      0.3571747676
      0.3676171423
     -0.3195411454
     -0.0901221992
      0.2078655944
      0.4631508489
      0.0698306746
      0.1170683556
     -0.1530007701
     -0.2461010628
     -0.4164670952
      0.1250032226
      0.3679841127
      0.2692031458
      0.0819654111
     -0.3238617773
      0.1883618430
     -0.1188493422
     -0.1877605323
     -0.1163467407
      0.3378891725
     -0.0457236407
     -0.2863960159
     -0.1445006944
     -0.2442200152
     -0.3061225144
      0.4111030956
      0.0996792930
     -0.2528769243
      0.1080952016
     -0.3670225610
     -0.2489278094
      0.1764386590
      0.2064869108
      0.4422168937
     -0.1496933658
     -0.1759101785
      0.4629526347
     -0.2233366153
      0.2154275665
     -0.1211860533
      0.3851359596
     -0.0950001592
      0.1973267814
      0.0724907880
      0.0468238852
      0.4941536235
      0.4748895823
     -0.3160125186
      0.3444317865
     -0.0000744656
     -0.2553919841
      0.3130418606
     -0.1897232407
     -0.1237505894
     -0.3569366674
      0.4973855450
     -0.4969919442
      0.3102348010
     -0.1707180914
      0.0260437734
      0.4045385793
      0.1032818803
     -0.1470367705
      0.0536552303
      0.3853671629
     -0.4186325325
      0.0406706752
      0.1572655540
     -0.2601549873
     -0.3094078621
      0.2788517043
     -0.0165785955
     -0.5000523563
      0.3549694787
     -0.1322677416
      0.0436087529
      0.3365966474
     -0.2033164410
     -0.3539518994
     -0.0192416348
     -0.0192243607
     -0.3244281790
     -0.2877630275
     -0.3050677058
     -0.0696784875
     -0.2283696470
      0.3252609130
      0.0866301983
      0.4419186481
      0.1653282597
      0.2332814043
     -0.2493835919
     -0.2249229741
      0.2114685564
      0.2491094246
      0.2492069533
      0.0383957363
     -0.3489966588
     -0.4491618155
     -0.1530419733
     -0.0277623060
      0.0069357950
      0.4926729569
     -0.4035772357
      0.0958356171
      0.5023173146
      0.4401095529
      0.1675117456
      0.2918036051
      0.3671069443
      0.1374868670
     -0.1354938003
     -0.0021865330
      0.1665230080
     -0.4743717127
      0.3681765132
      0.2234973644
     -0.3728847756
      0.0190088878
      0.4621104941
      0.3477739431
     -0.3571458706
      0.2358394861
     -0.2517298980
      0.1881169210
     -0.1600084496
      0.3458727786
     -0.1724264981
     -0.3901286611
     -0.2593172100
     -0.4200326495
     -0.0910016043
      0.0889467175
      0.0738189993
     -0.3843161126
      0.2948425557
      0.3752573743
     -0.0073140508
     -0.1882984857
      0.4201418606
      0.4692098292
      0.1342289407
      0.4144539477
      0.4473709572
     -0.2935118412
     -0.2747206318
     -0.2107545063
      0.3942781906
     -0.2482273281
      0.3782888070
     -0.2170442178
      0.2814171085
     -0.3771449300
      0.0344145630
     -0.4294899852
     -0.4576068704
      0.2308310267
      0.1251739446
      0.4651784066
      0.0872937778
      0.4941971360
      0.4396954293
     -0.2420207455
     -0.2465979655
     -0.3629609340
      0.0496517216
      0.1623664363
     -0.4659217141
      0.0115007704
     -0.0044075142
     -0.4511669401
     -0.2784029921
     -0.0116448689
     -0.2051876735
      0.3080864363
     -0.3469758787
     -0.1955497559
     -0.2296072007
      0.0860393281
      0.4165870009
      0.2857081651
     -0.3890633471
     -0.2620024923
      0.0584992117
     -0.3669538949
     -0.3338475881
      0.0709147251
      0.1889664468
     -0.0164953620
      0.2064535962
      0.0082734616
     -0.2289548194
      0.0205448191
      0.2973780865
     -0.4236757701
     -0.3461898509
      0.2962292702
     -0.3312212504
     -0.4088050742
     -0.4031098133
      0.0187316064
     -0.4633439032
     -0.4509003707
     -0.2076203604
     -0.3747377799
     -0.3691012676
      0.0496877137
      0.4630623388
      0.4193935067
     -0.1211618218
      0.4076647006
      0.2579364894
     -0.1183932318
      0.0770449955
     -0.0644892448
     -0.3652503020
     -0.3105890739
     -0.3743463141
      0.3329928319
     -0.4381509501
      0.3208750259
      0.1890849500
     -0.4011953788
      0.1238418183
     -0.0494078934
      0.2531920608
     -0.0783709026
      0.3037331552
     -0.0643088933
     -0.1522970642
     -0.3990506057
     -0.1504548345
     -0.0465108056
     -0.4661532205
      0.1286587153
     -0.0708818862
      0.1039592683
      0.3941534003
      0.0029741509
      0.1880637343
      0.0909150239
     -0.3321775896
      0.1475062493
      0.1633679202
     -0.0860888589
      0.3590844663
      0.1161741585
      0.0631431268
      0.1991132013
      0.3925739969
     -0.0694063665
     -0.3146007376
      0.1274139989
      0.2396609349
     -0.3748300708
     -0.0605518846
     -0.2483424910
     -0.0825033222
      0.1828331930
      0.2119806494
      0.0311455813
      0.2781873855
      0.3530686394
      0.2317819871
      0.4498826767
     -0.1363875024
      0.4851974627
      0.4614582757
     -0.2002069245
      0.4174011460
     -0.2943606077
     -0.0441762407
      0.1052526967
     -0.0963407996
     -0.4709250601
     -0.0231239673
     -0.0194368847
      0.4375115698
      0.1669975634
     -0.1050361324
     -0.5074530481
     -0.3408104843
     -0.1765615878
      0.4943618475
      0.4508458448
     -0.0907749378
      0.1839578591
      0.3032662062
      0.0742010770
     -0.4323196739
      0.0808811549
     -0.3631606504
     -0.4947957722
     -0.4686902369
      0.1289131970
      0.3998971783
      0.4145700338
     -0.4172927517
      0.2910185447
     -0.2403394919
     -0.4647529459
      0.2960909019
     -0.2146649358
      0.2405584830
     -0.1145568308
     -0.5755288181
     -0.1509919050
      0.2064049820
     -0.4848377839
     -0.0231447893
     -0.0194512493
     -0.2778456204
     -0.0192934978
      0.4987132581
     -0.2729516638
      0.0973136085
      0.1578224709
     -0.0958958540
      0.2972023269
     -0.0592359021
      0.2263179387
      0.4665751604
      0.3686183030
     -0.4207372995
     -0.2618477972
      0.3410689589
     -0.4737263045
      0.2339308479
     -0.1618045959
     -0.1688175054
      0.3505540537
     -0.5240899098
     -0.2171378055
      0.3672937190
      0.1981559246
      0.0176105733
     -0.0520894082
     -0.3145563576
     -0.3663376132
     -0.3959055243
     -0.0422120863
     -0.2974532320
      0.1543751630
     -0.0828725621
      0.1726704322
      0.1949695061
     -0.4452242153
     -0.4148470770
      0.4468216000
      0.3541755024
     -0.2681144183
      0.3520834916
     -0.3459623986
     -0.1724641226
     -0.0195103800
      0.2042147757
      0.3701442618
      0.3920565272
     -0.2770791735
      0.4208911539
     -0.5039105656
     -0.0816599477
      0.4639868955
     -0.4538583234
     -0.4564864579
     -0.0570904921
      0.2517840070
      0.1562044979
     -0.3031756632
      0.0991031046
     -0.3937632449
     -0.4881302817
     -0.3982498223
     -0.4931811932
      0.0759837294
      0.4760658636
      0.3462319419
      0.3106115574
      0.1127546572
     -0.1075482270
      0.3901279092
     -0.2772663619
      0.2080236568
     -0.2598307294
     -0.1903487250
      0.3827944390
     -0.3037214041
      0.1584652004
      0.1786539924
     -0.1005410454
      0.0753937993
     -0.4872988324
      0.1947161711
      0.2987452617
     -0.4707803527
     -0.2605005449
      0.2539240355
      0.4211176473
     -0.4437965090
      0.0729215683
     -0.2936711307
      0.1463348435
     -0.3588376020
     -0.1615618613
      0.4337619451
      0.0558484436
     -0.3029756814
      0.3603561999
      0.2339032182
      0.4486334585
     -0.2644503757
     -0.0210312699
     -0.2455229574
     -0.2832850154
      0.2045184316
      0.1742859911
      0.3211331788
      0.2506378690
     -0.4565122368
     -0.2894218078
      0.1083064174
      0.3482931145
     -0.5257566887
     -0.4835043767
      0.3061601767
     -0.2264420015
     -0.4710081468
     -0.3699266009
     -0.1421070259
      0.4393646975
     -0.4460564296
      0.3697165629
     -0.3012309860
     -0.4082009187
      0.4516231414
      1.3764732407
      0.4818006613
      1.3891883196
     -1.4424322207
     -1.0603626062
      1.3503009900
     -0.5328712073
      0.9913853769
      0.2824007051
     -0.7432470567
      1.0205067191
     -0.3229350160
      0.6337679639
     -1.3057432707
     -0.7610807217
     -1.0746218368
     -0.1804272503
     -1.5138431433
     -1.2283705663
      1.1556167086
     -0.5580739018
      0.0921014478
     -0.2970197975
      0.5044383050
      0.8427536665
     -0.6458938898
     -0.3652986344
      0.2655323339
     -0.0792014101
      0.5138230436
      0.4687369164
      0.3411485712
     -0.1664756511
     -0.2672406370
     -0.0946314308
     -0.1240664216
     -0.4440182391
      0.4223029810
     -0.4411548356
     -0.5757839990
      0.4518739134
     -0.0441948708
     -0.4473595874
      0.2730179256
     -0.4035117927
     -0.2413887817
     -0.4767797983
      0.4295089658
      0.4689066448
      0.4864250745
      0.3858931640
     -0.1136092608
      0.3173003867
     -0.0711769394
     -0.0208286289
     -0.6039350191
      0.0687941450
     -0.2919161455
      0.5058452916
     -0.1566128924
      0.5289220224
      0.5247529452
      0.5274878536
      0.4069279293
      0.0565445192
      0.2998504143
     -0.4124863812
      0.4518180589
     -0.4658257614
      0.1754819009
      0.2707054922
     -0.4602218197
     -0.3524391531
     -0.0896776003
     -0.0209218240
     -0.1425565578
     -0.1734515126
     -0.5117374399
      0.2454887217
     -0.2066610701
     -0.1795957512
      0.3986463292
      0.3537682170
     -0.2635008252
      0.2724205486
      0.2381750195
      0.4919027851
     -0.5069971597
     -0.5281435104
      0.5808457417
      0.4436233234
     -0.4676623947
     -0.4881453624
      0.4752480141
      0.0277241652
     -0.6361961010
      0.3646617955
      0.1870756238
     -0.3632217621
      0.2434503126
      0.3454390777
     -0.5592208606
      0.1642752438
      0.1092371755
      0.0486931910
      0.1967448018
     -0.1339101669
      0.3323914882
      0.0554157965
     -0.0051529854
      0.6214893301
     -0.5037181272
      0.2481342097
     -0.4021574158
      0.6301396627
     -0.3782434449
     -0.5480119512
     -0.0861637613
      0.2601226665
      0.3554475417
      0.5602081112
     -0.4642281029
      0.5081061539
     -0.4314126966
      0.3614116926
     -0.2504527296
      0.2991205806
     -0.5035524324
      0.4575950301
      0.3404110044
      0.1468447916
     -0.2982286772
     -0.6719038936
     -0.3216199627
     -0.5265396882
     -0.6259142409
      0.3451299762
      0.2663198776
     -0.4956874435
      0.3506681455
     -0.1395750196
     -0.5541555230
      0.3803823266
      0.4872815185
      0.1500160279
     -0.2765873720
     -0.3611317556
     -0.4202066238
      0.4018767148
      0.5081846265
     -0.1851320968
     -0.0657588764
     -0.3277727385
      0.4572467776
     -0.6417753677
     -0.0594320504
      0.4610987503
      0.5677403852
      0.4104132949
      0.5835356278
     -0.0208937567
     -0.5612085953
     -0.1728714083
      0.0483559878
      0.4715102578
      0.0073148671
     -0.2988502244
      0.1240674628
     -0.1490124768
      0.1726686095
     -0.2905766824
     -0.4757901660
     -0.4980662607
      0.2345007276
     -0.3892937955
     -0.0193321787
      0.0704269355
      0.2985684829
      0.3989645919
      0.1620113389
      0.0120053923
     -0.2702108160
     -0.5588036368
      0.4795860514
     -0.0116921033
     -0.2194854285
     -0.3807915348
     -0.2215270634
      0.0640901272
      0.5137762167
     -0.0521996498
      0.4491363731
     -0.6987384463
     -0.5039738678
     -0.3802654489
      0.1822319329
     -0.3364106072
     -0.3803490131
      0.1669855809
     -0.4536977425
      0.3541619887
     -0.1693289740
      0.2798506550
     -0.4411581601
      0.4121447617
      0.5546248847
     -0.4641308470
     -0.4075944826
      0.4401264175
     -0.3763838802
      0.1682221058
      0.1644013924
     -0.2981353092
     -0.2693096335
      0.0447225311
     -0.3564788142
     -0.3516797430
     -0.3008305437
      0.1099475096
     -0.5236757708
      0.4733532013
     -0.0114182027
      0.3268804337
      0.5550703108
     -0.6529546512
      0.4268777923
      0.6405186693
     -0.3172338714
     -0.0665992660
     -0.4057119662
     -0.3677398135
      0.1466581469
     -0.1374340854
     -0.2574988894
      0.5124499246
     -0.3720168847
      0.0384993622
      0.5807499328
      0.0160557312
      0.3246964713
      0.3102882771
     -0.2322722625
     -0.2428091259
      0.4254739721
      0.0208714846
      0.1221453815
     -0.0084965213
     -0.2308957127
      0.5019748974
      0.0440744090
      0.1748914331
     -0.3704131286
     -0.0870453185
      0.4545959505
      0.2230309798
      0.0523712739
     -0.4420284478
     -0.3138960609
      0.4766000519
      0.3393800386
     -0.0248288527
      0.1596581937
      0.1510711316
      0.0008203460
     -0.1876930256
      0.1677597670
      0.2616096462
     -0.4087238685
     -0.3918011894
     -0.0001454943
      0.5568179213
     -0.4525438236
      0.0191739377
     -0.2442977781
      0.1950904759
      0.6442923970
     -0.3555366794
     -0.3924608479
      0.0970071509
     -0.3408708584
     -0.3079057175
      0.1135751161
     -0.0094535046
      0.4977898458
      0.2452354336
     -0.7414529624
      0.2078871017
     -0.3416690333
     -0.5172256203
     -0.0691891917
      0.0148531401
      0.4273948923
      0.0975508190
      0.2617749432
      0.3051495818
      0.3094665954
     -0.4775387107
      0.4255269516
      0.2113699002
      0.3171609077
      0.4719251131
      0.3021867903
      0.5005981156
     -0.3375819111
      0.0166174291
      0.5302657430
     -0.4795432780
     -0.3372878531
      0.4141181104
     -0.5076606702
      0.3223521549
      0.4027965260
      0.5329225213
     -0.5290363813
     -0.0735017957
     -0.0142369335
     -0.0807562463
      0.4750048880
     -0.4025381868
      0.0781477102
      0.4265731715
     -0.0749825146
     -0.4628181169
     -0.3274766908
      0.1495936563
     -0.4983670362
      0.3002777214
     -0.4921315780
      0.4078581995
      0.0316773021
      0.2476126662
     -0.2812788704
      0.2189014534
     -0.2194554722
     -0.5449702568
      0.6074523006
     -0.3508883010
     -0.0141827833
      0.2442245789
      0.0359796931
      0.0566143754
     -0.5736296024
     -0.0832445434
     -0.3758415864
      0.4347027206
     -0.2745582572
      0.2676855706
      0.4334120712
      0.3923495505
      0.0970884365
     -0.6727441177
     -0.1032378712
     -0.1901857141
     -0.3985419282
     -0.2121822957
      0.0450805900
     -0.2735702497
      0.4414931851
      0.5846298090
     -0.2600025850
     -0.2187923309
      0.5380883689
      0.5337084958
      0.2694351336
     -0.3296177333
     -0.1092741316
     -0.1568076158
     -0.3238829803
     -0.3477183940
     -0.2454027562
     -0.2192963106
      0.4181319725
     -0.5350789352
     -0.3977734129
      0.0789129480
     -0.0804321845
      0.4749283342
     -0.3023224424
      0.5305595939
      0.4770867535
      0.4206764157
     -0.3293896987
      0.1962214617
      0.2172608692
      0.4197595224
     -0.0049344781
     -0.1237016843
      0.2375432534
     -0.1141534711
     -0.4467149626
      0.5557151885
      0.3574115480
     -0.0831583568
     -0.4383494499
      0.2029046561
     -0.2083460976
     -0.5716610897
      0.0082373368
     -0.4345004918
      0.3424063770
      0.4406000041
     -0.1835988678
     -0.3402833030
      0.0598022298
      0.3557644994
     -0.3144297703
     -0.4823169893
      0.0892871323
     -0.1602510496
      0.5020678522
     -0.0738463704
      0.4140095904
      0.1139418747
     -0.5047041805
      0.6356429621
     -0.3058992344
      0.3158769757
     -0.2504131457
      0.0895845203
     -0.4802549046
      1.5728253972
      0.4906267138
      1.2710269070
      0.6510123977
      0.7571693802
     -0.3570686405
     -1.4317178993
     -0.6817925928
     -0.8148005726
      0.4921346997
      1.1690278157
      0.2128697793
     -0.3646830499
      1.6177977196
     -0.6805542032
      1.5859621797
      1.5908699837
     -0.7017438130
     -0.3132488640
     -0.3714555846
      0.0543495525
     -0.0012498623
     -0.0033273465
      0.0338959123
     -0.0039249550
      0.0067392890
      0.0174266033
     -0.0209172022
     -0.0041415337
      0.0228283077
      0.0016332782
      0.0002796129
      0.0080850564
     -0.0234062027
     -0.0089180882
     -0.0227750318
     -0.0188445893
      0.0330247339
      0.0178867721
      0.0233709958
     19.7004170200
