     -0.9061854738
     -0.1310023951
      0.3702275349
      0.5895631968
      0.9361061597
     -0.7536112513
      0.8626719492
     -0.7023065983
      0.4299573491
     -0.2927078297
      0.4683535604
     -0.9326619920
      0.8700626079
      0.5225448041
      0.2026203374
     -0.5487439841
     -0.8129428416
     -0.5873642619
     -0.7570985689
     -0.8357867813
      0.6147792584
      0.5102555719
     -0.8067436863
      0.5870832451
     -0.2116664681
     -0.8994956254
      0.6606777840
      0.7803961303
      0.1546413707
     -0.3349051422
     -0.5215640774
     -0.7990376802
      0.7136526576
      0.7803537579
     -0.2594131081
     -0.1035705481
     -0.3748828346
      0.8255753593
     -0.9581771785
     -0.0633970877
      0.8015604217
      1.0016685096
      0.6751191146
      0.9683628771
     -0.0430448545
     -0.9080708364
     -0.2485324348
      0.0976627053
      0.5931455604
      0.0522048513
     -0.4278128719
      0.2944257366
     -0.2880679469
      0.2700861587
     -0.4217986700
     -0.8987536064
     -0.5770114158
      0.4107280916
     -0.6147648652
     -0.0355503986
      0.1232796098
      0.5150594078
      0.6055217792
      0.2700000644
      0.0525550235
     -0.4359394356
     -0.8731285310
      0.7955950139
     -0.0031707218
     -0.2583580068
     -0.5630592618
     -0.4068188201
      0.1201295750
      0.7750624571
     -0.0805523870
      0.8838405191
     -0.8503497731
     -0.8828686760
     -0.5299197147
      0.2955694449
     -0.5629564042
     -0.5870899923
      0.2707922615
     -0.7705155064
      0.5862978852
     -0.2539000858
      0.5020859970
     -0.7569138462
      0.4488580590
      0.6587661467
     -0.7338966627
     -0.8014923777
      0.7735118502
     -0.5862677874
      0.2903085677
      0.3335446171
     -0.3910792083
     -0.4807164772
      0.0708828690
     -0.5150933849
     -0.5882709384
     -0.4953697065
      0.1842195126
     -0.9283066275
      0.7957917525
     -0.0238062735
      0.5457908052
      0.9582288920
     -0.7073482747
      0.5784627151
      0.9689335415
     -0.5664183622
     -0.1278221187
     -0.6351109588
     -0.5495363190
      0.3085097583
     -0.1217390899
     -0.5130464170
      0.7276841193
     -0.5156554958
     -0.0064478407
      0.9302127909
     -0.0370842237
      0.5586629077
      0.5487544999
     -0.3767717905
     -0.4525927193
      0.7471665044
      0.0303152184
      0.1192803349
      0.0084686208
     -0.4480295114
      0.9583943610
     -0.0032980125
      0.3026929172
     -0.7210239285
     -0.0952421625
      0.8652361222
      0.3938185600
      0.1647483823
     -0.7490516549
     -0.5367215797
      0.7824484400
      0.5703291320
     -0.0403455943
      0.2922771079
      0.2774083093
     -0.0274189160
     -0.2725541173
      0.2102261778
      0.3631401269
     -0.8269857000
     -0.7752671864
     -0.0077232201
      0.8259498930
     -0.8765449666
     -0.0283546025
     -0.3864664969
      0.2804159310
      0.8568136247
     -0.5912034523
     -0.6500555962
      0.1838448533
     -0.5956673924
     -0.4871080289
      0.1590277418
     -0.0063546650
      0.8509449122
      0.3531058826
     -0.7838022901
      0.3118335873
     -0.6379586471
     -0.9639649705
     -0.1187498495
      0.0083230497
      0.8664095097
      0.1656897528
      0.4401305705
      0.3920382020
      0.4438845610
     -0.7649339693
      0.7270163934
      0.2947061109
      0.4736014477
      0.7111960807
      0.5055760657
      0.7884863402
     -0.5507761341
      0.0162302434
      0.6251885324
     -0.7319026797
     -0.6354883803
      0.8079775030
     -0.7247418517
      0.4492287828
      0.7599038073
      0.6914619953
     -0.9008435305
     -0.0446827145
      0.0615645592
     -0.1552560571
      0.8395809890
     -0.6692484745
      0.1165711445
      0.6846685948
     -0.0914788180
     -0.6879991661
     -0.6078493793
      0.1326332041
     -0.5775306168
      0.5130734614
     -0.9247044224
      0.6941612643
     -0.0251563568
      0.2908434529
     -0.5270657067
      0.2596132114
     -0.3932755761
     -0.8151523075
      0.8384841372
     -0.6151313632
     -0.0236983101
      0.4185025379
      0.1411986385
      0.0708219342
     -0.9098425436
     -0.0655142203
     -0.4193326517
      0.5602029096
     -0.2553497913
      0.3505452064
      0.8933631800
      0.6609181105
      0.1134383598
     -0.9850514001
     -0.1729236199
     -0.1562545362
     -0.8345607722
     -0.2934983277
     -0.0040755634
     -0.5229122579
      0.7405296906
      0.8810087134
     -0.4246690598
     -0.3180986522
      0.9122866439
      0.8199675135
      0.4892466318
     -0.3783026882
     -0.1447673986
     -0.2175541824
     -0.6355529681
     -0.6528002755
     -0.4514005662
     -0.2926677744
      0.8124242191
     -0.6594404310
     -0.6773125193
      0.1617865469
     -0.0478408989
      0.8016718161
     -0.4831382886
      0.8546044363
      0.7948439428
      0.6824207565
     -0.5271281205
      0.3534771219
      0.3059833292
      0.4601990381
      0.0007461661
     -0.1501335114
      0.4971582424
     -0.1823307318
     -0.6746761098
      0.8589933361
      0.7038387507
     -0.0305625826
     -0.8352860549
      0.2898849764
     -0.2965866316
     -0.9585690123
      0.0748282280
     -0.7404387091
      0.5641610768
      0.7231755406
     -0.2877327538
     -0.5500467140
      0.0619255192
      0.4207387240
     -0.3688876870
     -0.6915986566
      0.1842257111
     -0.2544708933
      0.7855692471
     -0.1047356133
      0.8250898318
      0.1451439349
     -0.9331102998
      0.9249985660
     -0.4091721764
      0.5309081988
     -0.4059126116
      0.1015640236
     -0.8264596544
      0.9813526977
      0.2993715816
      0.7674530979
      0.3790747326
      0.4668924892
     -0.2311140700
     -0.8847181759
     -0.3812204868
     -0.4993353961
      0.2977642338
      0.6989909330
      0.1814860713
     -0.1737821302
      1.0020897025
     -0.4241266726
      0.9840690000
      0.9801397503
     -0.3496640112
     -0.2311002584
     -0.2323527003
      0.5433262308
     -0.3144556797
     -0.4236143526
      0.2453112079
     -0.4195899308
     -0.2293184683
     -0.6430279742
      0.7421269188
     -0.0564380163
      0.6096388448
     -0.9512100832
      0.0333509433
      0.7996888595
      0.2727556043
     -0.1734548015
     -0.0005296677
      0.0103176422
     -0.8967900964
      0.6927510078
      0.4373853501
     -0.9158564503
     -0.1192577134
      0.9682734301
      0.1025163090
     -0.7600184469
     -0.3725421388
      0.5256160220
     -0.2546980628
      0.4331068450
     -0.6337097595
      0.0173266661
     -0.0999645858
      0.1207408758
     -0.6614087550
     -0.2732931905
      0.3885503888
      0.0368506041
      0.2401936833
     -0.8192924396
     -0.5304528257
     -0.1354567847
     -0.5025918860
      0.5208528009
      0.2262346459
     -0.4347199984
     -0.7617783803
     -0.8950048216
      0.2551238845
      0.7364483332
     -0.2556394742
     -0.4165576434
      0.6211890215
     -0.6684363182
      0.1333716477
      0.0843027645
      1.0381065105
     -0.4815276790
      0.5373559404
      0.3699043052
     -0.3043447318
      0.6568454137
     -0.1386172868
      0.0006489203
      0.7609923838
      0.7688711457
     -0.0679846453
      0.3290533526
      0.9748909168
      0.9487065890
      0.3150971933
      0.3287164598
     -0.8810004809
     -0.6240563774
     -0.2658040346
      0.1483621486
     -0.4196276254
     -0.7166789223
     -0.0713316230
      0.1919691891
      0.3558041725
      0.0391126005
     -0.0424114783
     -0.6797434124
     -0.5731447179
     -0.5207359580
      0.5075018417
     -0.4457647292
      0.6205967536
     -0.3964870564
      0.0837333148
      0.4639731193
     -0.6385347971
     -0.5747461357
      0.6893349214
     -0.9746629616
      0.2874570981
      0.8832434715
     -0.7667123006
     -0.9354870029
     -0.7063268246
      0.4718014239
     -0.1948470461
     -0.4787909282
      0.7495927482
     -0.9164013113
      0.3311486287
     -0.8696120931
      0.3385234065
     -0.2205340610
     -0.8173811385
     -0.5958825785
     -0.1024259202
     -0.5902996710
     -0.0479894656
     -0.7044850837
     -0.6345711632
     -0.1140299190
     -0.5035977899
     -0.1105151593
     -0.7682316336
     -0.3361833006
     -0.4724544654
      0.7963161006
     -0.1448184891
      0.6785558077
      1.0066641761
      0.8423467038
     -0.1108983077
      0.3568336208
     -0.4633149441
      0.2172183367
     -1.0185898767
     -0.6286733142
      0.3593877492
      1.1195001337
     -1.0218688672
      0.8763782604
     -0.4387651989
      0.7528236876
     -0.7238303639
     -1.0023439182
     -0.3292595129
     -0.8361526672
     -0.9412814830
     -0.2043952344
      0.5716920033
      0.2322613815
      0.1985237407
      1.0243981444
     -0.3011938484
      0.6463204463
      0.9386142586
     -0.9339821765
     -0.2293836203
      0.1930868138
      0.3336148279
     -0.3455162928
     -0.3985147459
      0.7380754502
      0.3326665787
      0.7998945010
     -0.5713150093
     -0.6091514438
     -0.5467693523
     -0.0457551522
     -0.9624072252
     -0.2678826585
     -0.2221438793
      0.0224503938
     -0.4526166127
      0.4820482328
     -0.8178281134
     -0.4389283340
     -0.4908923811
     -0.6364635827
      0.4101748003
      0.2586774872
      0.5518879014
     -0.8250173687
      0.7626959376
      0.9141587464
      0.7574434610
     -0.0401931361
     -0.5452747809
     -0.2205450907
     -0.0631593358
     -0.7882942082
      0.3386463593
     -0.7355015270
      0.5779996770
      0.8227625501
     -0.2764890079
     -0.5417852127
     -0.8052446670
      0.6742150697
      0.8895201684
     -0.7875547261
      0.7800586971
     -0.8070312787
     -0.7547319010
     -0.1681511901
     -0.4938551938
      0.5495158252
     -0.7920558328
      0.0825380431
      0.7216216431
     -0.0287560821
     -0.1775553602
      0.2396672895
     -0.3611718025
      0.7761618388
     -0.6788780311
     -0.6243545915
      0.4326811404
     -0.6117220548
     -0.0381731907
      0.5679662174
      0.0729057543
      0.4733474288
      0.4270752146
      0.8482763497
     -0.1639433185
     -0.1355524755
      0.1453186506
      0.5160370230
      0.5494384789
     -0.2478624174
      0.3705069735
     -0.8553890589
     -0.4945793266
      0.4985902879
      0.4351069827
     -0.7946339217
     -0.5402349511
     -0.9091644450
      0.8228263962
      0.2109731972
     -0.8661615257
      0.9016745285
     -0.4505205876
     -0.0938166051
      0.8519024295
     -0.2445143661
     -0.3577705082
      0.1662995707
      0.0392290226
     -0.0130239429
     -0.8461938422
     -0.0804686406
      0.4235509259
      0.0567375856
     -0.3945275247
      0.5897057317
      0.3660129466
      0.8587522310
      0.4617989291
     -0.6446203590
     -0.5056144484
     -0.2503435513
     -0.7785586306
      0.5867167997
      0.4143011152
      0.0872499741
      0.3408197152
      0.9264236492
     -0.0684995524
      0.9997877598
     -0.2950059169
      0.4409254923
     -0.8310450741
     -0.9401664602
     -0.3559487924
     -0.3320004781
     -0.7804975269
     -0.5057145484
      0.1934015636
     -0.1796986704
     -0.0846208562
     -0.5236245823
      0.6059718841
      0.2805937584
      0.8459628198
      1.0041440953
      0.5328976183
     -0.4484221283
     -0.8294977632
      0.7918089928
      0.4407226338
     -0.7502882554
      0.7379647960
      0.0617097311
     -0.0284101042
     -0.8999656480
     -0.1146146464
     -1.0289413962
      0.3981925891
     -0.0223742504
      0.4923576038
      0.5451363227
     -0.0937770979
      0.2631000419
     -0.7565415535
      0.2161534596
      0.1213181296
      0.5828639445
     -0.6940721702
      0.0915428486
      0.6181363381
      0.3864693468
      0.5777511838
      0.9826766259
      0.5815934310
     -0.0361067639
     -0.7730215075
     -0.5364394510
     -0.4803376254
      0.7538621029
      0.5900462988
      0.8050911782
      0.1358593371
      0.6263835483
      0.9291807785
      0.1632792590
      0.7039130802
     -0.8620617489
     -0.5250811075
     -0.2580612236
     -0.7414646808
     -0.1998093438
      0.4555808012
     -0.4334859633
     -0.1981780911
      0.4837526209
      0.3698561145
      0.0278693229
      0.1967006258
     -0.7594550829
     -0.1475676217
     -0.2148239464
      0.7239750062
     -0.8816221665
      0.1377229434
      0.8659422169
      0.4292761832
     -0.3274453919
      0.7334242096
      0.5344052851
      0.5183027214
      0.7036931807
      0.5410340523
      0.1648494381
     -0.1313128622
     -0.1429062765
     -0.3021804866
     -0.5323944906
      0.2792895654
     -0.8682128868
      0.3167066074
      0.5698461526
      0.8993594198
     -0.4355360325
     -0.1815233114
     -0.3830518094
      0.0937195414
     -0.4940469551
     -0.2974720070
     -0.2877507670
     -0.9310872195
      0.8076512220
     -0.2323605492
      0.2112514497
      0.7271699584
      0.0324676926
      0.9157789268
     -0.1346815271
     -0.2133737388
      0.2166409013
     -0.7527993662
     -0.8908630917
      0.6128557090
     -0.6579655810
     -0.8012845845
     -0.7765423075
      0.7375054736
     -0.5267544515
      0.4481229868
      0.3617393915
     -0.4171827892
     -0.1569559175
     -0.4603670954
      0.2115452268
      0.7734003378
      0.2453915502
     -0.0919251825
      0.1847558003
      0.1396087577
     -0.6445259642
