     -0.8215183206
     -0.5232298984
     -0.5679509044
     -0.1687971604
      0.2433355736
      0.4097428506
      0.8067378770
      0.2166795512
      0.8910702968
      0.1628299640
     -0.0115103947
      0.4677091781
      0.5114416173
      0.7454612591
     -0.6878391234
      0.4641139416
     -0.2783472135
     -0.8969144917
     -0.1623189024
     -0.2363484714
     -0.7800840835
     -0.4710359152
      0.3433549847
     -0.9427223587
     -0.0762127661
      0.0573273349
      0.1171845493
      0.1762968759
      0.4736587280
     -0.3762919013
      0.2656758683
      0.2564102284
      0.5376708776
     -0.8089186930
     -0.6956036725
     -0.9371343735
      0.6333540316
     -0.7122398224
     -0.3483090959
     -0.6071205918
     -0.1042505515
      0.0210048629
     -0.1816604598
     -0.1714082385
      0.9193376044
      0.0395211850
     -0.1358272410
     -0.2895856612
     -0.1514755875
      0.6436542761
      0.3337320165
     -0.9464733834
     -0.9455711215
      0.0970262470
     -0.6061095006
     -0.9088188178
     -0.0163936017
     -0.4804736110
      0.7555341673
      0.7133461818
      0.2950431232
      0.7029564624
     -0.6550581813
     -0.1583579744
     -0.8625276554
      0.2276906199
     -0.3045717128
     -0.2856468794
      0.9792253778
      0.2964431408
      0.4847786908
     -0.2674053788
     -0.1843594057
      0.5885260675
     -0.3474683385
      0.9404826012
     -0.5405719134
     -0.1458797990
     -0.6416709220
      0.0018668032
      0.7582844355
     -0.9822111889
      0.8378941774
     -0.9157538610
     -0.7879087222
      0.2353433832
      0.7579137695
     -0.2224942055
     -0.4313931774
     -0.7919407670
     -0.0380057245
     -0.0755972499
     -0.3297432461
      0.8089089333
     -0.8404953323
     -0.6692065688
     -0.2668283846
      0.9212717868
      0.0562068149
     -0.4210130794
      0.2796802378
      0.6378523078
      0.0045025654
      0.9331083434
     -0.7306225717
      0.5709995620
     -0.7510187469
     -0.7203319647
     -0.2256395018
     -0.5051610504
      0.5946537022
      0.8360444872
     -1.0316552957
      0.6159355701
      0.2481268277
      0.0435643881
      0.5981648041
     -0.8905493968
     -0.5621358010
      0.0846497623
      0.0747325642
      0.2887982970
     -0.9347410823
      0.3859603302
      0.7610722901
      0.7427474786
     -0.6767391097
     -0.2117073356
      0.3301661354
      0.9169765704
      0.1578019737
      0.2484964140
     -0.3446436060
     -0.5165683920
     -0.8281122415
      0.2459877384
      0.6000419147
      0.4703697525
      0.1634074373
     -0.6488218328
      0.2821998676
     -0.2404295742
     -0.4350554886
     -0.2495030068
      0.6951644165
     -0.0777620374
     -0.6723211089
     -0.2508727665
     -0.5313869244
     -0.6516320585
      0.6695251481
      0.2550256466
     -0.5480211088
      0.2141156873
     -0.8044781084
     -0.5446080036
      0.2755051417
      0.3220940773
      0.7916863260
     -0.3392656928
     -0.2768612117
      0.9455683721
     -0.5078738228
      0.4295831616
     -0.1816279853
      0.7025291036
     -0.2361634308
      0.3489466566
      0.1382102274
      0.0895349636
      0.7649890231
      0.9389493063
     -0.6931296137
      0.6572965412
     -0.0106116956
     -0.5764305049
      0.4270153372
     -0.3245163884
     -0.2998220629
     -0.7671395507
      0.8305769337
     -0.9706252804
      0.7172956369
     -0.3315565345
      0.0149695514
      0.7497285745
      0.1834936385
     -0.2550308401
      0.0418360492
      0.7706702441
     -0.7218326747
      0.0245721093
      0.3472493127
     -0.5038853660
     -0.6987781345
      0.5638014311
     -0.0503138911
     -0.8729478455
      0.7070711164
     -0.2862109141
      0.0197680040
      0.6657133120
     -0.4718337001
     -0.7756808525
     -0.0284783401
     -0.0489771443
     -0.7852338938
     -0.5160292106
     -0.6393150257
     -0.1922405754
     -0.4097211199
      0.6764968896
      0.2208258218
      0.8820331087
      0.2994801357
      0.4779349432
     -0.4328839074
     -0.3747054777
      0.3776463837
      0.4886635769
      0.3997371351
      0.0355856432
     -0.7527593568
     -0.9550805800
     -0.3480946937
     -0.1059065913
     -0.0049446796
      0.9083251830
     -0.7871004690
      0.1811649579
      0.8379660270
      0.8924399326
      0.3115111544
      0.5276901186
      0.7952793737
      0.2961278593
     -0.2144410895
     -0.0148586850
      0.2919327850
     -0.9641029558
      0.6068481361
      0.5182898169
     -0.8501024733
      0.0334148691
      0.9513923627
      0.6906463191
     -0.8158864769
      0.3820582631
     -0.5266841541
      0.3520852114
     -0.2772922110
      0.6843776393
     -0.3138385690
     -0.7766884927
     -0.5238023560
     -0.8933324652
     -0.1489749386
      0.1092635596
      0.1430894169
     -0.7453344502
      0.4336368858
      0.7199041440
     -0.0371477022
     -0.3706984276
      0.8677660470
      0.9355636322
      0.2014061813
      0.7512549847
      0.8133311284
     -0.6484352552
     -0.4868846779
     -0.3813438000
      0.8215981420
     -0.4628971984
      0.8116529441
     -0.4676820152
      0.4762381152
     -0.6934057304
      0.0159906278
     -0.9088231467
     -0.7504068732
      0.4255690811
      0.2670896760
      0.9387571799
      0.2047179545
      0.9469056787
      0.8712819004
     -0.4777045242
     -0.4526118010
     -0.7424575480
     -0.0198127618
      0.2842156631
     -0.9183855396
      0.0596591319
     -0.0366670815
     -0.9387747952
     -0.5232624448
     -0.0000460891
     -0.4531001540
      0.6039369906
     -0.6112406421
     -0.3637411923
     -0.5125301298
      0.1835714711
      0.8833704719
      0.5602314016
     -0.8068734511
     -0.5007510190
      0.0880092180
     -0.7914239372
     -0.5212748346
      0.1273503785
      0.3874198226
     -0.0752465691
      0.4807100895
      0.0060907913
     -0.3118788593
      0.0189779136
      0.5821068178
     -0.8301246405
     -0.5618501083
      0.6248172824
     -0.7880705983
     -0.9270111798
     -0.8620283404
      0.0686707258
     -0.9850264066
     -0.8249470290
     -0.4530566151
     -0.7049277484
     -0.6307768264
      0.0884167969
      0.9315945550
      0.7992068208
     -0.2519670539
      0.8124497293
      0.3783495221
     -0.2274724802
      0.1638242655
     -0.1352932048
     -0.5967261046
     -0.7323160446
     -0.8061753426
      0.6603551553
     -0.9444022816
      0.6158538182
      0.3390073447
     -0.7734577120
      0.2290021556
     -0.0710866143
      0.3615269752
     -0.1852888365
      0.6403489962
     -0.0652270885
     -0.3232776983
     -0.8286966801
     -0.2954745638
     -0.0660099833
     -0.9666656302
      0.2375528871
     -0.1536150359
      0.2175258371
      0.8907508489
      0.0089072710
      0.3981346998
      0.1403602056
     -0.7263949203
      0.2259920286
      0.3028657560
     -0.1841069041
      0.6224497924
      0.2053442170
      0.1360038810
      0.3257631660
      0.8572075893
     -0.1864929553
     -0.5496604625
      0.1904528535
      0.4752394607
     -0.7724894965
     -0.1898845336
     -0.5739497163
     -0.1880403836
      0.3991192262
      0.4435308589
      0.0635803665
      0.4803976447
      0.6484766205
      0.3920755356
      0.8684589289
     -0.2729815040
      0.9708031325
      0.9785923697
     -0.3673101523
      0.8770618935
     -0.6939900990
     -0.1188055297
      0.1680716429
     -0.2233163888
     -0.9456371091
     -0.0457193392
     -0.0729192710
      0.9872282856
      0.3283860398
     -0.2533938981
     -1.0751762818
     -0.8577233562
      0.0184681554
      0.9972041393
      0.9527813794
     -0.3284801104
      0.5348075740
      0.5778510971
      0.3819990991
     -0.9118281849
      0.2371051576
     -0.6774419659
     -0.8298419052
     -1.0958669858
      0.2511287871
      0.6417840255
      0.7237745488
     -0.9352878279
      0.6342551300
     -0.4564938887
     -0.9897368577
      0.6361879895
     -0.3887513472
      0.4600013933
     -0.2656319672
     -0.9569227084
     -0.2910383201
      0.4074513564
     -1.0176845180
     -0.0502398089
     -0.1275885892
     -0.5332239740
     -0.0487657992
      0.9845937028
     -0.5361583531
      0.1435524186
      0.3288975449
     -0.2160835516
      0.6734512063
     -0.1407361356
      0.4339052940
      0.9929788254
      0.6641294802
     -0.9218801568
     -0.5269286217
      0.5035488123
     -0.6395670925
      0.4582067932
     -0.3113487360
     -0.4125204494
      0.8543203209
     -0.8535507157
     -0.4066036236
      0.8105159876
      0.4210673142
      0.0298792204
     -0.0597928449
     -0.6969376644
     -0.6103129795
     -0.8790712516
     -0.0222912184
     -0.4809936205
      0.2803817949
     -0.1641244780
      0.3114262906
      0.3875912552
     -0.9108129108
     -0.8609816826
      0.8790900034
      0.8005870214
     -0.5986979200
      0.5898174474
     -0.6202584905
     -0.1926634189
     -0.0959195226
      0.3805727628
      0.7880630047
      0.8824264331
     -0.5958771781
      0.8375454628
     -0.8946386896
     -0.1855008634
      0.8395850533
     -0.8818381951
     -0.9340426254
     -0.1000931852
      0.5277705948
      0.3340657990
     -0.5198612612
      0.1582279364
     -0.8517132400
     -0.8726666858
     -0.6968416683
     -0.9812572296
      0.1610697535
      0.7662302527
      0.7213646130
      0.6892952385
      0.2867404327
     -0.2244233252
      0.7402303244
     -0.5686474034
      0.3659188422
     -0.5140046416
     -0.4435742638
      0.6372107426
     -0.4031217485
      0.3188024786
      0.3385879284
     -0.2781798922
      0.2236547501
     -0.7865388886
      0.3359704661
      0.5889801312
     -0.9424805430
     -0.4521989267
      0.6000616324
      0.9189226704
     -0.7846920216
      0.0630248442
     -0.5469145397
      0.3708333468
     -0.6298655998
     -0.3111685291
      0.8735919924
      0.1805365828
     -0.6212191462
      0.7576411108
      0.4433993960
      0.9705963548
     -0.5615781840
     -0.0406688795
     -0.4148758302
     -0.5871874635
      0.4486605236
      0.3023735165
      0.8101855973
      0.5561884611
     -0.9907049790
     -0.6220326572
      0.2389109325
      0.7492765686
     -0.9513171436
     -0.9202355634
      0.6527921647
     -0.3871238693
     -0.9138712397
     -0.7789029700
     -0.1054944415
      0.8862173295
     -1.0526822083
      0.5883104958
     -0.5524760259
     -0.8057933441
      0.9465430584
      0.8471009409
      0.3093490177
      0.8806253823
     -0.8844389916
     -0.6924137276
      0.8760865217
     -0.3513233329
      0.6414086841
      0.1123869157
     -0.4337415109
      0.6315642007
     -0.1710218698
      0.4133199420
     -0.8358772292
     -0.4984262942
     -0.6470567677
     -0.1159758501
     -0.9689828826
     -0.8228416341
      0.7340397641
     -0.9170380416
      0.1492178069
     -0.4710753240
      0.8007439984
      1.0060951480
     -0.7934582200
     -0.7157042241
      0.5109101254
     -0.1499846096
      0.8420414350
      0.6041331596
      0.6568687622
     -0.2157529496
     -0.4897365413
     -0.1575551147
     -0.1753549130
     -0.7448706192
      0.7033206178
     -0.8179780230
     -0.9644435806
      0.6611348803
      0.0265817196
     -0.7482364020
      0.4386781036
     -0.4721608377
     -0.2838941591
     -0.7105236883
      0.8352689895
      0.9080444895
      0.7490213993
      0.5710322484
     -0.2308548226
      0.4106931890
     -0.1120373332
     -0.0017915032
     -0.9439965779
      0.0529691427
     -0.5343680749
      0.8291207991
     -0.2388147574
      0.8340176984
      0.8894544191
      0.8377500026
      0.6690500007
      0.0498767900
      0.3461077969
     -0.5755702507
      0.8544323864
     -0.9676823595
      0.2757239391
      0.3975997704
     -0.7933292707
     -0.4531653731
     -0.1573877678
     -0.0407245449
     -0.1255722452
     -0.3056315342
     -0.8619507313
      0.4265521129
     -0.3406657827
     -0.2962579767
      0.6021862547
      0.5867070566
     -0.4716065130
      0.3894203443
      0.3610635610
      0.8782457058
     -0.9528126701
     -0.9999149111
      0.8494836251
      0.7299781030
     -0.9006915208
     -0.6101087226
      0.8673733646
      0.0678560944
     -0.8972545168
      0.6356893102
      0.3047937242
     -0.4344440614
      0.3496809152
      0.4586384367
     -1.2063540890
      0.2141535950
      0.2168266501
      0.1901841477
     -0.1616231354
     -0.2180245823
      0.7024953532
     -0.3156130338
     -0.0957118576
      0.9582655300
     -0.9341439747
      0.3419015052
     -0.8078274861
      0.9567416788
     -0.5609986105
