     -0.3807637869
     -0.4814448194
     -0.0444554197
      0.4114463390
     -0.4332849425
     -0.0099946157
      0.3430167623
      0.4775488572
     -0.2296360710
      0.1496974302
     -0.4433634010
     -0.2263116030
      0.4069914312
      0.3777544953
     -0.4218461500
     -0.3012661526
      0.2016837570
     -0.4199094961
     -0.4987257713
     -0.2210948541
      0.1882638118
      0.0988325584
     -0.4366751737
     -0.3637878912
      0.1255351896
      0.4452840694
     -0.0088071001
      0.4718971273
     -0.1575337753
      0.0981826229
      0.2562386353
      0.3054859723
      0.0068368286
     -0.4753116172
     -0.1000591542
      0.2148789328
     -0.3462117668
     -0.0927747935
     -0.1724404192
      0.3741263823
     -0.2934886545
      0.0579212213
      0.2024685994
      0.1674983845
     -0.2050773747
     -0.0432085956
      0.2801032256
     -0.0224289639
     -0.3536203616
     -0.1256118308
      0.4556675026
      0.0460677846
      0.2853837477
     -0.2349216138
      0.3551547861
      0.3765079115
     -0.5220718084
     -0.1282883514
      0.5256570625
      0.3198439340
      0.2377044000
     -0.1861912455
      0.1691490395
     -0.3635112421
     -0.4404101721
     -0.3364820990
     -0.3939219594
     -0.2379151082
     -0.4594135160
      0.0781940219
     -0.2989589095
     -0.4226258965
     -0.3518601756
      0.4217063845
      0.2998722787
      0.0129960810
     -0.2449985913
     -0.1052024979
     -0.0891263480
      0.2395836868
     -0.4152839922
      0.4617568588
      0.4511047894
     -0.1293096496
     -0.2588726613
      0.4296736954
     -0.3198502757
      0.1749017511
     -0.1955100875
     -0.2923028847
     -0.2691817008
     -0.2927474470
      0.4602325978
     -0.1142814609
     -0.0213416381
     -0.1711801568
      0.5125899329
     -0.3430613964
     -0.2558930547
      0.4193929529
     -0.3850972285
     -0.1484781440
     -0.3109889356
      0.2832815416
      0.4922380318
     -0.2529877051
     -0.1870049154
     -0.4151038344
      0.3558467024
      0.2289584509
      0.3760268175
     -0.2811689639
     -0.0504462390
      0.4547887678
     -0.5008159179
      0.1684557207
      0.1662564748
      0.3200819999
      0.0255679344
     -0.1274045935
     -0.0400343491
     -0.1912917370
     -0.4993002443
     -0.2007621940
      0.3498715551
     -0.3253327980
     -0.2686085461
     -0.3461095579
      0.0220781278
      0.1571385590
      0.1926693808
      0.3987858934
     -0.2969857730
      0.0853011712
      0.1587855746
     -0.2638084967
     -0.2194509403
      0.0842313194
      0.5266783919
     -0.1971442063
     -0.4051115954
     -0.0803735832
      0.2546712444
     -0.2476640405
      0.3769547556
     -0.4163010661
     -0.4297895938
      0.3280610787
     -0.5002093177
      0.1850468026
     -0.1277459091
      0.1205662366
     -0.3771945969
     -0.1020098821
      0.2841022746
      0.0891230153
      0.0167054233
     -0.4382056159
     -0.1971654828
      0.0469616972
     -0.3756812941
      0.0040287212
      0.3897247822
      0.0288756053
     -0.1554269639
      0.4208817826
      0.4415179546
      0.0365808628
      0.1206178890
     -0.3567732476
      0.3154566703
     -0.3398760257
     -0.4099964658
      0.1728060486
     -0.0805750656
      0.3523013848
     -0.0008273123
     -0.2839926378
      0.0984763808
      0.1989712554
      0.0703482386
      0.0600531550
     -0.4962521670
     -0.1055375242
      0.3829356604
      0.1560485539
      0.4067282644
     -0.0444461116
     -0.2012319879
     -0.4532677541
      0.1952173705
     -0.3934069303
     -0.4160191675
     -0.0713281914
     -0.1030345763
     -0.1666984880
      0.0376518454
     -0.0698955720
     -0.0944365832
      0.0429250191
      0.3280420642
     -0.4240351356
     -0.2314931028
     -0.3081859406
      0.1295230685
     -0.2847823646
      0.0906607132
      0.2430248658
     -0.4053582590
     -0.4793185716
      0.2442259081
      0.3884341636
     -0.3254650048
     -0.3185463425
      0.3086649175
     -0.4791982179
     -0.0067861111
      0.0878110056
      0.4978875642
      0.2598421811
      0.3078055378
     -0.5742323753
      0.1580757984
      0.4073282076
      0.1284003542
      0.4374774041
      0.3174306589
     -0.2579920379
      0.4067110508
      0.1750851136
     -0.4951252461
     -0.3733541690
     -0.3511563844
      0.1467233962
     -0.0620771911
      0.1637092727
     -0.3631090153
     -0.4181909696
     -0.1619151283
      0.0003810178
      0.4077230054
     -0.2498672249
      0.1233790457
      0.1868692958
      0.1088799981
      0.1123796451
     -0.3883417495
      0.0601555643
      0.1397973895
     -0.4126051242
     -0.1691701434
      0.2996679801
      0.0722367457
     -0.0986648344
      0.3978294934
      0.1398923192
      0.2849348665
      0.3735273535
     -0.1403204362
     -0.2491245060
     -0.4319752242
     -0.5293802620
     -0.1131023572
     -0.2593895638
     -0.3402279896
     -0.1604011767
     -0.0645298249
      0.1750853561
      0.3614484248
      0.2944624732
     -0.2048899323
     -0.1367138320
      0.0213695186
      0.5158322863
     -0.2985285508
      0.4959223368
      0.5132730041
     -0.1083507826
     -0.4144816908
      0.3099163144
      0.3935563922
      0.2639894738
     -0.0546638852
     -0.4434800582
     -0.1664981978
     -0.3121402086
      0.2933691396
      0.4113287744
      0.1732688087
      0.4322621449
      0.2177464856
      0.0053940601
     -0.4203230108
     -0.2486834289
     -0.2581861233
      0.4311402126
     -0.4852061395
      0.3339839552
      0.1092991658
     -0.5308136702
      0.0092063300
      0.0659817018
      0.0767247465
      0.4170506377
      0.3820236859
     -0.2895850519
      0.3464099382
      0.4854415721
      0.3595516389
      0.4834984944
     -0.0444317039
     -0.3877414003
     -0.3377447072
      0.4163374833
     -0.1124810937
      0.3199571014
     -0.3562582383
     -0.1326642920
     -0.2025455477
     -0.3258920424
     -0.1022922141
     -0.2970705363
     -0.1175756978
      0.2202508292
      0.4577371002
      0.4417285203
      0.1837678385
      0.0074487023
      0.2810176236
      0.1738391259
      0.4780402422
     -0.2689451271
      0.0839237224
     -0.0481635438
      0.4026323523
      0.0537540782
     -0.0763578490
     -0.1718334840
     -0.3154508195
     -0.3574699418
      0.0178447167
     -0.0032510283
      0.0776108355
     -0.3380618559
     -0.1841146687
      0.3304293498
     -0.2568615507
     -0.3298343276
     -0.1995547294
      0.4700968239
     -0.3404346526
      0.2179678845
     -0.0653830042
      0.3480577643
     -0.1561524441
      0.4268960828
      0.2277489263
     -0.3587356312
     -0.0049789675
     -0.4369905105
      0.1040647472
      0.1131821810
      0.1807558123
      0.3270180108
     -0.3600386386
      0.1506634241
      0.3569709077
      0.1729881731
     -0.0866068334
      0.0625377562
     -0.4321532305
     -0.2848483285
      0.2372046599
      0.1747625438
      0.2749587692
      0.2180041386
      0.0348646782
     -0.3029200854
     -0.3698664983
     -0.1506399943
     -0.0393922169
      0.0604271225
     -0.3968602456
      0.4025287310
      0.0473428001
      0.0210276932
     -0.1924804743
      0.2522051400
      0.0625049760
     -0.4305504558
      0.1133210693
     -0.2146980050
      0.0453979289
     -0.2077460736
     -0.1365273786
      0.1580447244
     -0.1177002218
     -0.4210444299
     -0.5192278852
      0.3360249845
     -0.3823385351
      0.4271064505
     -0.1809267935
      0.4285277761
      0.3594558999
      0.2065888144
     -0.1767518204
      0.5058553272
     -0.2050925965
      0.1525393909
     -0.0954344704
      0.0726148033
     -0.1954885659
      0.3072966618
      0.3085584458
      0.0280004230
     -0.4125880086
      0.3753473242
     -0.2019132484
     -0.1867850316
      0.2739293532
     -0.0598917778
      0.0839441547
     -0.1835797660
      0.3142459685
      0.3606811838
      0.0292522381
     -0.0286148000
     -0.4696078626
      0.2937046038
     -0.1802059592
     -0.4105718366
      0.1396776353
     -0.4755400929
      0.4412500690
     -0.0371447496
     -0.0997253166
     -0.0446074984
      0.1226959026
      0.2551913955
     -0.4650686673
      0.5060235262
      0.2313881542
     -0.1944376525
     -0.1010835508
      0.0841913540
     -0.4551290144
      0.1524483799
      0.2349906463
      0.1054842976
     -0.3562476033
      0.3339774069
     -0.2950837484
     -0.1149293162
      0.4665907467
     -0.4743686396
     -0.4516291513
     -0.4212280437
      0.1188276933
     -0.2500408433
      0.1923801739
      0.0562966925
      0.4373699246
     -0.1436248114
     -0.1104225838
     -0.4482291319
      0.3995109831
      0.5080257963
     -0.1992684125
     -0.0334762644
      0.0591034441
     -0.0013493254
     -0.4153729713
      0.2653361677
     -0.2171401218
      0.2804301342
      0.2313705543
      0.0062421831
      0.4839601356
      0.1583019014
      0.0476767664
      0.4846701285
      0.4389152369
     -0.3454745748
     -0.0631626423
     -0.2334297688
     -0.0247063146
      0.1803958796
      0.1973108488
     -0.2429492782
      0.4970518671
     -0.4167770895
      0.4669808151
      0.0285914450
      0.3517573401
     -0.4847931340
      0.4121278572
      0.3978778055
     -0.0558331720
      0.4700592523
     -0.1994156614
     -0.0149880739
      0.1298140964
     -0.1007704018
      0.2398839908
      0.1885905877
     -0.0432134818
      0.0306216794
     -0.3091644196
      0.1312820724
      0.2157611249
     -0.2182448131
     -0.3070526412
     -0.4691570514
     -0.0343701968
      0.0627480679
      0.0089813462
      0.4189766811
     -0.2154667588
      0.5165434132
      0.3187611671
     -0.2965723809
     -0.3290176961
      0.4121244527
     -0.3767243174
     -0.2325419763
     -0.2843131515
      0.3836422146
      0.4001487839
     -0.2891933690
     -0.1678139625
     -0.4077594523
      0.0016665064
      0.3020017632
     -0.4962174759
      0.4746913293
     -0.0795764343
     -0.3162112879
      0.2068714629
      0.0521032158
     -0.3484722149
      0.2597478075
      0.4736368647
      0.1240413280
      0.2823934506
     -0.2014845175
     -0.3246387716
     -0.0521569752
     -0.3489547270
     -0.4297984345
     -0.0295403127
     -0.1521966162
      0.2151524938
     -0.0750396565
     -0.1291087705
      0.1514403353
     -0.2620244746
      0.2601328760
      0.2064238683
      0.2428514010
      1.1192076099
     -0.8352225539
     -0.0760663439
      0.7675902269
     -1.3902070750
      0.6840598448
      0.0754686600
     -0.6524326703
      1.3239493532
     -0.3207656177
      0.2642871147
      0.5821227190
     -0.1663698090
      0.6144565122
     -1.0120692497
      0.5954401184
     -0.9082177485
     -0.8761526859
      0.3526032843
      1.1390588498
      0.3695839629
      0.5953514302
      0.4447563708
      0.2610105415
     -0.5003430864
      0.6059421511
     -0.0818657424
      0.6288033023
     -0.3581006483
     -0.2446045780
      0.3116501678
     -0.0284475326
     -0.4790205213
      0.3110895590
      0.1391999469
      0.1192226176
     -0.1543120282
      0.0314286998
     -0.1960240821
     -0.1584237978
      0.4354193017
     -0.1183125989
      0.6410790095
      0.5236799671
     -0.3242972053
      0.4244085664
     -0.3353547650
      0.4124374068
      0.3465164971
      0.3546200735
     -0.4561838993
      0.2441871570
     -0.3524549320
     -0.3982181410
      0.3660510839
      0.2875012099
     -0.2035678165
     -0.6276787877
     -0.0229091407
      0.5319896652
     -0.5664564385
      0.6646642066
     -0.0284713810
      0.3472249399
     -0.5253372878
      0.1816751349
     -0.0739840608
     -0.3226489798
     -0.3843891727
     -0.2301808782
     -0.0351708268
      0.0199182033
      0.4160197607
     -0.6022171219
     -0.0018447237
     -0.1024828179
      0.0017044661
     -0.3838711748
     -0.1317014033
     -0.4327360881
     -0.2032396392
     -0.4396864710
     -0.2415061210
     -0.1725152627
      0.5030971385
      0.4120575740
     -0.2002759223
     -0.1158383454
      0.4962464749
     -0.6003076100
     -0.5423212927
      0.5430365603
     -0.4212019761
      0.1167683368
     -0.1220864375
      0.7056698022
     -0.2967660725
      0.1711682080
      0.1653412416
      0.4676244486
     -0.3186762474
     -0.2069090245
      0.5304288487
      0.4515055546
      0.0063769037
     -0.0961719333
      0.2635576823
     -0.0442020317
     -0.0202479082
     -0.1798021201
     -0.5078961626
      0.4019996112
     -0.2716839934
      0.0465889053
      0.4208966660
     -0.4378324963
     -0.2316917110
      0.2043089576
      0.5908716245
      0.2983210836
     -0.1679631006
     -0.4512567399
      0.6362498429
      0.2516181144
     -0.3141056039
      0.0221377407
      0.3597887982
     -0.1604013535
     -0.4234051373
     -0.3036057907
     -0.4205193892
     -0.6248644357
     -0.4829316825
      0.1570579992
      0.4479275860
      0.0509623860
     -0.5783742751
     -0.5633725882
      0.5934943011
     -0.3382862354
      0.3760376720
     -0.1881057338
     -0.2493829201
     -0.1967037232
     -0.5350075398
      0.4965662275
     -0.4957348637
      0.1731613788
     -0.5101869397
      0.4411229022
     -0.2072555467
      0.5741865521
      0.5666699332
      0.4724658113
      0.3681207428
     -0.2187543346
      0.0176359380
     -0.0789440533
     -0.3097523875
     -0.1575305387
      0.0682094818
     -0.3494184815
      0.4584390552
     -0.5194393524
     -0.3994129378
      0.3860403930
      0.4297957859
     -0.7430973487
      0.5508220262
      0.5176292071
      0.2762137688
      0.3573951396
      0.0963346620
     -0.0742796260
      0.0032269425
      0.6996738432
      0.1760315186
      0.0226165950
     -0.1026365656
     -0.6170206411
      0.3108554667
     -0.2066565345
     -0.1722002438
     -0.4908080458
      0.5017863693
     -0.4529207835
     -0.5035955493
     -0.2260861991
     -0.2778394549
     -0.3030905210
     -0.0457984501
     -0.6863415753
      0.3429382731
     -0.3953235889
      0.5818091777
      0.2546810116
      0.2954393087
     -0.5597019004
     -0.3311751092
     -0.1144358958
     -0.1934999262
     -0.3588007434
      0.6125100785
     -0.5329133320
     -0.2124956584
     -0.0177018718
      0.4098242540
     -0.3055730836
      0.1133390790
      0.4530065065
      0.0754455082
     -0.5646339934
      0.3937172857
     -0.5662755243
     -0.1110378585
     -0.3494879343
     -0.2388503417
      0.3281300214
     -0.3279050243
     -0.3306878913
      0.3118845731
     -0.2417696809
      0.2726155617
      0.3558337367
      0.1588636839
     -0.1628296894
     -0.4649123510
      0.5566372728
     -0.6898616837
      0.0420843020
      0.4612433194
      0.1086166989
      0.1204772269
     -0.1618841570
      0.6310500829
     -0.2491285605
      0.3784394020
      0.4084098045
      0.5235101730
      0.3244850518
      0.6056040109
      0.4100144337
     -0.0746678918
      0.0766820855
      0.1535697982
      0.6104107268
     -0.4603530123
     -0.0552488911
     -0.0718674959
      0.1134399379
     -0.3162916791
      0.0864160371
      0.2335614551
     -0.5708616787
     -0.2271833672
     -0.2206776971
     -0.1779545736
     -0.0025902271
     -0.5819178080
      0.2869533385
      0.3685371522
      0.3635414676
     -0.3223615450
     -0.0973432651
     -0.2926759416
     -0.3970858026
      0.1205319632
     -0.1354409232
      0.0949867696
      0.2299404603
     -0.5125475721
     -0.2895877342
      0.4580672602
     -0.1469402330
      0.3583373437
     -0.0717274187
     -0.5995153914
      0.3836106450
     -0.3517438198
      0.0325896878
     -0.5163118735
      0.0266270704
     -0.1990922323
     -0.0799871291
      0.4668118603
      0.4087349464
     -0.2743340976
     -0.6023833728
     -0.1716670143
      0.3182194907
      0.1110556907
      0.0746419699
      0.2463569163
      0.5581531819
     -0.2724884783
      0.2158646876
      0.1316247877
     -0.1558007264
     -0.3305076590
     -0.3088684179
     -0.4751932945
      0.4574661269
      0.1375863480
     -0.4903554606
     -0.1093664948
      0.2977292123
     -0.3916971461
      0.5361730826
      0.2222575288
     -0.4388050641
      0.4442049212
      0.2656440619
      0.2510675585
      0.3836606839
     -0.5343427798
      0.6317005381
      0.7045708380
     -0.2229700873
      0.2807754077
     -0.4037367916
     -0.0449853077
      0.4865742788
      0.2662212193
     -0.4887575417
      0.4481507595
     -0.3638099034
     -0.5523588847
      0.2603153542
     -0.6708189646
      0.2456136315
      0.4282894680
      0.4908318559
      0.1555758142
      0.4054786465
     -0.0708268336
     -0.3432990113
      0.0776681439
      0.2314846489
     -0.2215469889
     -0.4367319277
     -0.4568908581
      0.2663909556
      0.3187993615
     -0.5237302811
     -0.0389199889
      0.2207480008
      0.4038068261
      0.1747515642
      0.3298393704
      0.5740332307
      0.5460783436
     -0.0243971606
      0.5989203545
      0.1426752088
      0.6657694629
     -0.3766839415
      0.6825766687
     -0.5670746060
      0.4193995093
      0.1950827904
     -0.3146247545
     -0.0116896400
      0.0720880215
      0.0727026109
      0.0532655011
      0.3414808837
     -0.1534971328
     -0.2162335642
      0.1604056366
     -0.5873820833
      0.4651453093
      0.1214877546
      0.1759364881
     -0.1118400209
      0.2922156781
     -0.4442021439
     -0.0834572318
      0.4680568978
      0.4545766352
      0.4412836722
      0.1921714299
      0.2264823243
      0.4333738993
     -0.2835295381
      0.4354007590
     -0.3685518084
     -0.3215055958
     -0.2618839358
     -0.0608862545
      0.0721403947
      0.0476428657
     -0.1567035838
      0.3867779643
     -0.4358866950
     -0.3466223527
     -0.3125357763
      0.0920071760
      0.5251061224
     -0.1230142269
      0.5701064520
      0.3269704091
     -0.3716437848
      0.0784954137
      0.2509919254
     -0.3995103210
      0.1946861758
     -0.4031737385
      0.1132945228
     -0.1081023083
      0.2433074057
     -0.0251916229
     -0.1712824737
     -0.2513896117
     -0.2423053750
     -0.1464405463
     -0.0766224935
      0.6260367872
      0.1670470727
      0.4083415329
     -0.0659492550
      0.4399004199
     -1.2468930006
     -0.8898165994
     -0.4014828257
      1.1838915408
      1.4514330094
     -1.1629459032
     -1.5786356669
     -0.6581496271
      0.1155611705
     -0.1841767384
      0.7412498612
     -0.2435445824
      0.5387162353
      0.8632148332
     -0.1522131716
     -1.0700922483
     -0.4788753588
      0.7805767026
     -1.1629245000
     -0.0010205037
     -0.0127653932
      0.0002609334
      0.0041628495
     -0.0051331972
     -0.0018748848
      0.0009664888
     -0.0151219787
      0.0029979840
     -0.0068345245
      0.0131682474
      0.0015127693
      0.0202794553
     -0.0120881398
     -0.0020699045
      0.0009321443
     -0.0106210397
      0.0003643518
      0.0006109563
     -0.0107994260
     19.6511167882
