     -0.0794277556
      0.1301261679
      0.1881491106
      0.2193797905
      0.1092759672
     -0.2893330063
     -0.1687671988
      0.4251281918
      0.3806745351
     -0.3450167094
     -0.2042536689
     -0.0339947963
     -0.2406845452
     -0.1095621872
     -0.4377742718
     -0.0048869003
      0.3878006390
      0.0961990161
      0.1349478608
      0.0050393738
      0.3474085066
     -0.3856817397
     -0.0965655333
      0.2893988024
      0.3215461884
     -0.3733674758
     -0.1202549488
      0.4035461654
      0.3991941426
     -0.2834408352
      0.2977067882
     -0.1945858335
     -0.1545708042
      0.0306224102
     -0.3006379896
     -0.2888005741
      0.2663183313
     -0.4191450497
      0.2629579111
      0.1824016600
     -0.2346933337
      0.1503418159
     -0.1034634122
     -0.2449851425
      0.4235504477
     -0.3347698612
      0.3363949533
     -0.4366194136
      0.4380269367
     -0.1188354054
      0.1492392351
      0.2665207956
      0.0565819702
     -0.1841090472
     -0.3499888595
     -0.0973516643
      0.2560747798
     -0.0717347793
      0.3297077727
      0.0039377170
     -0.1366419753
      0.4291195937
      0.3379762083
     -0.0553048035
     -0.4427927414
      0.0884625685
     -0.2604402751
      0.4033829639
     -0.1095047506
     -0.0451071790
      0.4188443065
      0.4771535788
     -0.3545523091
      0.1521253901
      0.2554015916
     -0.1119142834
      0.2652688971
      0.0991031060
     -0.0541771217
      0.3700652978
      0.1218210177
     -0.0542806682
      0.0605491782
      0.2686806178
      0.0073605548
      0.0184244416
      0.0952040217
     -0.1046467476
     -0.1320651188
     -0.3570237415
     -0.1597644722
      0.2920328354
      0.2533190403
      0.4775794731
      0.2234766445
     -0.0935282892
     -0.1504104221
     -0.1714888502
      0.3313117190
      0.3370638617
     -0.0479473003
      0.1397780730
     -0.2609955006
      0.0858014598
      0.0994750140
      0.1806645642
      0.0294906312
      0.3708474474
      0.1931559115
     -0.3624809682
      0.1333402904
     -0.2990479493
     -0.0242262959
      0.4251618371
     -0.3029076074
     -0.2817257429
     -0.1366286606
     -0.3013307082
     -0.3921580384
     -0.3632428822
      0.2287056156
      0.1901307241
      0.1419154647
     -0.2775971946
     -0.0386380988
      0.0844008799
      0.1949769981
     -0.2854796457
      0.4145354391
     -0.3200741954
     -0.2872176418
     -0.3388942320
     -0.2350715546
     -0.2638708463
      0.2438260325
      0.4695588068
      0.3505644539
      0.3221491235
     -0.3464380647
     -0.3508731421
     -0.1644593596
      0.1982166343
     -0.0832863744
      0.3281297305
      0.0716395098
     -0.4305083580
     -0.4392372060
     -0.2542282101
     -0.1348302531
     -0.3208693387
     -0.1433875855
     -0.3475847279
     -0.0776171787
      0.4436323280
     -0.4442403358
      0.2795696456
     -0.0367551153
     -0.0333277899
      0.2520905634
      0.0965951269
      0.3102259623
     -0.2542674476
     -0.3660180432
     -0.3033410600
      0.2107780663
     -0.4354405833
     -0.2796358428
     -0.3129318765
      0.0408078400
      0.2062167201
      0.1537877681
     -0.3567467188
     -0.2659949799
      0.2161961901
      0.3373280965
     -0.2436984031
      0.4003441498
     -0.4247251404
     -0.4254667354
      0.0761230260
     -0.4068966718
     -0.4343064676
      0.2783684676
     -0.3835443096
     -0.2288158020
      0.3032064753
     -0.1294331639
      0.1234807199
      0.0306301794
     -0.0267615584
     -0.3307618368
     -0.4169066830
      0.2684207156
     -0.2041313506
      0.3354526497
      0.4447767295
     -0.2079396050
     -0.4212398641
     -0.3624005289
      0.1895518620
     -0.3613770357
     -0.0638360160
     -0.3153366989
     -0.1177033468
      0.2916773270
     -0.1507023574
     -0.3147434422
      0.1538847833
     -0.1161930854
      0.3568852891
     -0.3351663607
      0.2760314347
      0.0997178370
     -0.1465882416
     -0.2302018248
     -0.1456085475
     -0.4255103986
     -0.4593395283
     -0.4052069710
      0.2747913722
     -0.1941073545
      0.4492464785
     -0.3069312318
     -0.3650397690
     -0.1147722436
      0.3403648554
     -0.0132053587
     -0.4481531995
      0.3276204755
     -0.0404075377
      0.3685876143
      0.1876289547
     -0.1535374648
     -0.4825613609
      0.3549877501
     -0.0830112817
     -0.1969889006
      0.0635111142
     -0.1647920264
      0.4353894716
     -0.1709695325
      0.4054970269
      0.3754426926
     -0.3069167991
      0.4402618763
      0.2684744141
      0.4756179339
      0.2446787519
      0.1204501066
      0.1258415706
      0.2127033849
     -0.3877445838
     -0.2713761410
     -0.2744299062
     -0.0362884074
      0.3575449963
      0.2152121048
     -0.4605902610
     -0.1363583036
      0.4134704410
      0.4611890653
      0.1391332115
      0.1008634217
     -0.0484065391
      0.2769971514
     -0.2776395878
     -0.1809983531
     -0.1916404209
     -0.3300269409
      0.3645247717
      0.3319739187
     -0.2340096646
     -0.1097602755
     -0.1338873309
     -0.1177598936
     -0.4791825825
     -0.1930043684
     -0.2628813124
     -0.3591267153
      0.2791847103
      0.4654322187
     -0.2605165579
     -0.2645709452
      0.4339704760
     -0.3684017415
     -0.3775645646
     -0.4589641759
     -0.0618848678
      0.3155057206
      0.4051635881
      0.2459065246
      0.2371388549
      0.2914687399
     -0.0778948756
     -0.4630502703
     -0.2285113837
     -0.2207400137
      0.1393800788
     -0.1311045881
     -0.2555426434
     -0.1329724819
      0.3275456005
     -0.2584857503
     -0.4579374206
     -0.0320142230
      0.3080732385
      0.4330367971
     -0.2284410392
     -0.3146738701
     -0.3478775079
      0.3201441735
     -0.0894242058
     -0.5207768256
     -0.0346866990
      0.2925861296
     -0.2903710038
     -0.3574331941
     -0.2219994146
     -0.3965673842
     -0.1245781741
     -0.3744202971
     -0.1504564246
     -0.3010602875
      0.3424655586
     -0.2298731320
      0.3394504780
     -0.3392041965
      0.0648977950
      0.2100733072
      0.3718074207
     -0.3701056598
     -0.1108365545
     -0.3340313723
      0.1116805398
     -0.2958907461
     -0.0012508021
      0.3693045945
     -0.0497979684
      0.1012545520
      0.3709861332
     -0.2025611210
      0.2024560752
     -0.3779494062
     -0.3586129355
     -0.4431932370
      0.2085462590
      0.0049421646
      0.4609055946
      0.3569959454
      0.0980317979
      0.2529628819
     -0.4192566991
      0.3324171246
     -0.0770733579
      0.3798402233
      0.3976980935
      0.4460212460
      0.1197276002
      0.2488705390
      0.2270626821
     -0.2699114313
      0.1265979428
     -0.4283276716
     -0.3460072391
     -0.2410467914
      0.0349109286
      0.0758678364
     -0.3640861291
      0.1653426384
      0.4037770721
     -0.4091655060
     -0.3056142939
     -0.0514004783
      0.0203570597
     -0.2005613978
     -0.3137125702
      0.4188141955
     -0.2632885404
     -0.0445551388
      0.1611049691
     -0.3755135251
      0.4015862482
      0.1935360887
      0.2058536063
     -0.1010619892
     -0.2560098788
     -0.0074515846
      0.1920469308
      0.2816825988
     -0.2182889227
     -0.1636117625
     -0.0855512844
      0.0071721957
      0.3277872303
     -0.2568463210
     -0.2417493149
      0.2625163508
      0.1789789904
     -0.3419073102
      0.3340953786
      0.1599245715
     -0.1316108998
     -0.3018279294
     -0.0378778917
     -0.1347631547
     -0.3813209968
      0.1400246615
     -0.2666635160
     -0.2652454447
     -0.1677396027
      0.3456377383
      0.0755245463
      0.3465649425
      0.1642065629
     -0.1272964280
     -0.0310029784
      0.1947142817
     -0.2116979926
     -0.0261507074
     -0.1291653866
      0.3973447451
      0.1290993333
     -0.1756627095
      0.0218596566
     -0.3478624988
      0.1004969377
      0.3895888238
      0.0575180652
      0.2688729959
      0.0572964752
      0.2225015934
      0.2935159755
      0.0886122165
      0.1458950542
     -0.2015535486
     -0.4071235786
     -0.1356407986
      0.2162903289
     -0.0483611094
     -0.4171108771
     -0.1732764336
      0.0563282638
     -0.3462512570
     -0.1429141608
     -0.4415212904
      0.4476815212
     -0.2326102333
      0.0246812829
     -0.0724782131
     -0.3281245961
     -0.2993520267
      0.0959538643
     -0.5472116181
     -0.2247097613
      0.0942345640
     -0.1692277043
     -0.2447173959
     -0.3756970968
     -0.3243052389
     -0.1569498059
      0.5259230235
     -0.1361995110
     -0.3386892225
      0.2887418853
     -0.3956750331
     -0.0497061638
     -0.3974964286
     -0.1537196184
     -0.1815158865
     -0.2176609393
     -0.1312708198
     -0.3175667045
     -0.0027530753
     -0.0262723350
      0.1409256522
     -0.4210964172
     -0.0247344230
      0.2876325449
     -0.3693379264
      0.2638676285
      0.0993087329
      0.1679348057
      0.3402384613
      0.4154495498
      0.0813743178
      0.1854830012
     -0.4152397951
      0.2184323859
     -0.2174620580
      0.0148258407
      0.1770841502
     -0.3717722586
      0.4215073111
     -0.1736296716
     -0.1943566008
     -0.2067987412
      0.3651678729
      0.3879028240
      0.0480549638
      0.3572194720
     -0.0689642059
      0.4478933010
      0.2316587470
     -0.0720315687
     -0.2073125937
      0.3045465577
      0.2014019108
     -0.3264954217
      0.3987777401
      0.2974137620
     -0.2871670716
      0.2354093858
     -0.4532220910
      0.5042249867
     -0.0479347721
     -0.3122212643
     -0.1582591766
      0.2618949460
     -0.1792902148
     -0.2179698025
      0.3580657161
      0.4209512418
      0.4163014600
      0.1776890047
      0.4417265847
      0.0738558655
      0.3711929830
     -0.4197052485
      0.1138350081
      0.3753706515
      0.3913085835
     -0.3122414618
      0.1880321334
     -0.5179296463
      0.1446968989
      0.0493044371
     -0.2922998809
      0.1631255983
      0.4006067459
      0.4323911379
      0.2828672026
     -0.4058279491
     -0.4368847932
     -0.4764892008
     -0.2184116855
     -0.1161001830
     -0.2194928084
      0.2240924207
     -0.2251198184
      0.3685959124
     -0.3911952079
     -0.1198404630
     -0.2334636685
     -0.4020568704
      0.0216966994
     -0.0212417237
      0.2610882020
     -0.3047234953
      0.0102998221
     -0.3412819120
     -0.1012946041
      0.1715931234
     -0.0719533977
      0.1421928904
      0.0877630397
     -0.2272129089
     -0.1214131171
     -0.0039141308
     -0.3954049804
      0.1370328245
      0.1682413737
     -0.1856592040
      0.4666929312
      0.0703577482
      0.3328912180
      0.1600383342
     -0.3211256760
      0.3705892956
     -0.4141392875
      0.2260582488
     -0.2272208481
     -0.2684998248
     -0.2267064242
      0.1718077102
     -0.3757282411
      0.1476159303
      0.1573929821
      0.1678269470
     -0.3343291703
     -0.1247751826
      0.2876930318
      0.0865034623
      0.2433134083
      0.2824604240
      0.2604237145
     -0.4655186458
      0.2122938661
      0.2242424826
      0.2157429643
      0.2035977016
      0.0662036907
      0.3478269749
     -0.1230560695
      0.1953494832
      0.1424945979
     -0.4466829739
     -0.3447886359
     -0.0419947751
     -0.4280743982
     -0.3837859164
      0.0477453069
      0.3323809233
      0.1412229197
      0.4055884276
     -0.3534401472
      0.1828552398
      0.1233598883
     -0.2663529516
      0.2379267477
     -0.1063401386
      1.3658916830
      0.5412728585
      0.7743361375
     -0.4304113123
      0.5607714004
      1.4224605987
      1.4587042625
     -0.4217072216
     -0.7094579247
     -0.6027389388
      0.9407308237
     -0.5651102752
      0.3183279494
     -0.8826157844
      1.0737384870
      1.1709821748
     -0.5665871479
     -0.0275331458
      1.2885875251
     -0.8169240025
      0.0982115062
     -0.3077812449
     -0.5354896808
     -0.2059540519
      0.1118008561
     -0.5295877540
     -0.3420738149
      0.1654547302
      0.0336022401
      0.1560758027
     -0.4249502184
     -0.6113128264
      0.0665047341
     -0.3795761820
      0.3309789854
      0.3172487501
      0.0559956136
     -0.1140239905
      0.5460958057
      0.0948127604
     -0.3250977896
      0.4771890290
      0.5365709389
      0.0883052593
     -0.6590836594
      0.0216905947
     -0.1684416364
      0.3013561000
     -0.3785527577
      0.3149935035
      0.4749930083
     -0.4529105695
      0.2657941207
      0.0950458109
      0.1735818892
     -0.2236471783
     -0.0520375533
      0.5415296459
      0.3949771677
     -0.4492318380
     -0.4238156931
     -0.2667871237
     -0.0530238539
     -0.4624382870
     -0.2015445871
     -0.3041319788
     -0.2637109613
     -0.1715109730
     -0.1137802041
      0.6336140243
      0.6573153412
      0.0619495438
      0.0536244656
     -0.3455979914
     -0.2645160021
      0.1524465423
      0.0353179103
      0.1515408893
      0.0737350247
      0.4396507398
      0.5663230572
     -0.4843371476
      0.4432007089
      0.4028245350
     -0.3581727747
      0.4029459221
     -0.5424590082
     -0.2058709819
      0.5498971863
     -0.0162810142
     -0.2399102233
      0.3940883883
      0.4943801368
     -0.0639153720
     -0.1125286816
     -0.5826514704
     -0.0801798220
     -0.5736166869
      0.5271626600
     -0.3429708288
      0.3818838569
     -0.6494011990
      0.4750309116
      0.4230674828
     -0.2531092616
     -0.3982001928
     -0.1141743401
      0.0804161659
      0.2174628732
     -0.1910792959
     -0.5389442318
      0.4887764337
     -0.4305461149
      0.4473180781
     -0.0725790902
     -0.2859773896
     -0.0959259797
      0.1602146925
     -0.5631370720
     -0.0042145301
     -0.2738577208
     -0.0402320840
     -0.4544027580
      0.3228411355
     -0.0194751894
     -0.2942307918
     -0.4451510645
     -0.1373289113
     -0.4955913888
     -0.5912300390
     -0.1990868076
      0.0480038893
      0.4255534556
     -0.1799455863
      0.0034373597
     -0.3850758683
     -0.1872319661
     -0.2209514241
      0.4603197023
      0.4928873871
      0.3405957299
     -0.4012919816
      0.3440619935
      0.0185506986
     -0.1014583295
     -0.0024120139
      0.4281912138
     -0.4007306187
     -0.1056276263
     -0.0240078104
     -0.5390191094
      0.5756152476
      0.3158761620
     -0.4652678241
     -0.4492303901
      0.3245391110
      0.7197362135
      0.1562150492
     -0.1705736555
      0.3723343374
      0.5475993511
      0.4945860299
      0.4523092934
      0.3742417739
     -0.1463085273
     -0.1116883047
      0.5697484763
      0.0600720669
     -0.4998840777
      0.6559711630
     -0.0273895084
     -0.0737597842
     -0.4965184574
      0.4941302772
      0.4213351503
      0.5343081542
     -0.3964309290
      0.3081132462
      0.0192582125
     -0.0322096739
     -0.1178039385
      0.3652238197
      0.0701430961
     -0.4123357148
      0.5649940763
      0.5017511385
     -0.5680900272
      0.5894158194
     -0.0788834060
     -0.5825803487
      0.4582187203
      0.3335229074
     -0.0592858298
     -0.1869407365
      0.1968110370
      0.2276940880
     -0.0003532450
      0.3384911890
     -0.5280383504
     -0.1125249579
     -0.0009557797
      0.1344989625
      0.3536726951
     -0.1019366811
      0.5389709084
      0.1676452460
     -0.3029892758
     -0.2232613816
      0.0923541720
      0.1030689315
      0.4356462745
      0.3871830300
     -0.5069538781
     -0.4665065557
     -0.6100967727
      0.2081806520
      0.0505680974
      0.1719769691
     -0.5134094882
      0.5099172489
     -0.4821888690
      0.3863546168
      0.2344649768
     -0.1798105574
      0.0503809259
     -0.5871756396
     -0.1867415636
      0.2272612337
      0.0911885397
      0.2144199636
     -0.2556642890
     -0.4638173460
      0.4046628060
     -0.1261158149
      0.2975925327
      0.0057524800
     -0.4639719609
     -0.2772118527
      0.2550259835
      0.4628428103
     -0.4351583790
     -0.1340926914
     -0.2832600202
     -0.4211687648
      0.2682879105
      0.4177345532
      0.3747171688
      0.1904840467
      0.4699217403
      0.1052753168
     -0.2819755729
     -0.5179198629
     -0.3268340985
      0.4970094062
     -0.4096531307
     -0.3878137743
     -0.5283764478
      0.3792954941
      0.0894801702
     -0.0737438801
     -0.4209367860
     -0.1805614058
     -0.4179043724
      0.5601735477
      0.7288397509
     -0.4992435589
     -0.1301066045
     -0.6074401960
     -0.5168879514
      0.4197248604
      0.2415225832
     -0.0074199994
     -0.4019722057
      0.1237615618
     -0.4969264474
      0.5067413230
     -0.2133349344
     -0.4445633584
     -0.1796188907
     -0.4420376077
     -0.3679384415
     -0.0944427450
      0.4258628630
     -0.3558362082
      0.1799518957
     -0.2823897736
     -0.0358318691
     -0.3112528191
     -0.2586711187
      0.5004275679
      0.1031160499
     -0.0570643632
     -0.0187433545
     -0.3189883739
      0.4779458229
     -0.2629308324
     -0.2090462011
      0.1660251696
      0.2061732976
     -0.5227236119
      0.2143606162
     -0.2468717098
      0.4708210356
     -0.3698307450
     -0.4895624690
      0.2545286152
      0.4625982061
     -0.7053631250
      0.4240554991
      0.0591107265
     -0.1106077286
     -0.0291493318
     -0.4965781125
     -0.2926847442
      0.0442647113
     -0.5562567130
      0.6190492094
      0.3011581767
     -0.1185124651
     -0.0985325098
     -0.3752788122
     -0.4488411636
      0.0915092529
     -0.5173206312
     -0.0686261557
      0.4284809631
      0.5508988677
     -0.2341142914
      0.3911645435
     -0.0483088978
     -0.2397211016
      0.1313562500
      0.3035656890
      0.3768928629
     -0.2489131345
      0.4493256124
      0.4235936249
      0.0163010719
      0.1380969413
     -0.3928970458
      0.1515165057
     -0.5362972438
     -0.4334306232
      0.2537605254
      0.5838387113
      0.5071560135
      0.3133401608
     -0.0809509744
     -0.0691042511
     -0.5965407152
     -0.1444588900
     -0.1125147362
      0.0078717631
      0.4519834317
     -0.6174342260
      0.5434070108
     -0.4220901674
     -0.3040736869
      0.3408209047
     -0.4563655777
     -0.1591704837
      0.2889828140
      0.0274712684
     -0.1877139574
      0.0723810132
     -0.3617581806
      0.2165091810
     -0.2628509963
     -0.5552635464
     -0.2060729219
      0.3661685985
     -0.4252475886
      0.2604477936
      0.2147880225
      0.5379067077
     -0.2777278832
     -0.2855256617
     -0.6876795326
      0.2518990904
      0.3627408415
      0.4174442510
      0.0771502309
     -0.0765558448
      0.5211076805
     -0.1405426546
     -0.0137807539
      0.0980874353
     -0.4347675467
     -0.3543044631
      0.2514889850
     -0.4831682197
     -0.5483709274
     -0.4857572991
      0.5744875221
     -0.3315114699
     -0.0630600119
     -0.3652807807
      0.4377324780
     -0.5403370825
     -0.0239521874
      0.4825575656
      0.4368216594
      0.2643512538
      0.4343047864
      0.2731239547
     -0.2970128300
      0.3688076446
      0.7046001969
     -0.5314125921
     -0.0377024090
     -0.2313542721
      0.2670586177
      0.5234399929
     -0.4836384694
      0.2250683944
      0.2236666082
     -0.6089985358
     -0.5937712041
     -0.3919546351
     -0.5242340382
      1.0902483312
      1.2257326808
     -1.5001160478
      0.9231785698
     -1.6210186427
      1.2365113869
     -1.2726391790
      1.5365205001
     -0.8477043918
      1.4976047943
      0.3059999909
      1.2174510842
      0.3584372090
     -0.7022148209
     -1.6129445387
      0.4344861053
     -0.8501324506
      0.3435835162
      1.4829652816
      0.6185704853
     -0.0003992148
      0.0140843990
     -0.0022780404
      0.0078461250
     -0.0031789074
      0.0049217689
     -0.0031239850
     -0.0053883335
      0.0271313097
      0.0107799383
     -0.0028547883
     -0.0216933991
     -0.0014123298
      0.0019767467
      0.0029903318
      0.0053734090
      0.0072564442
     -0.0075679941
      0.0023512808
      0.0048987373
     19.6533241022
