     -0.7653364007
     -0.8098200388
     -0.1022688476
      0.9320357606
     -0.8115344860
      0.0067511401
      0.7040195222
      0.8971722825
     -0.4115687587
      0.3041601252
     -0.8293473282
     -0.5260763688
      0.8625550682
      0.6869342271
     -0.7802056808
     -0.5516172892
      0.3663726926
     -0.9031359924
     -0.8845822975
     -0.3402027161
      0.4308173814
      0.1419173131
     -0.7764886084
     -0.7537987195
      0.2442511110
      0.9252271708
     -0.0288269778
      0.8645581606
     -0.3339431573
      0.2580605928
      0.4935651932
      0.7199912054
     -0.0061450842
     -0.8913233068
     -0.1663097562
      0.4318978191
     -0.6372084071
     -0.1911958375
     -0.2860061078
      0.6682280762
     -0.6431247917
      0.1051344940
      0.3760971891
      0.3396538154
     -0.3730111131
     -0.0757316129
      0.5985721364
     -0.0401868149
     -0.6594346142
     -0.2039932092
      0.8386055167
      0.0893318326
      0.6301151384
     -0.4131667102
      0.6841702053
      0.6810643136
     -0.9459472462
     -0.2956944076
      0.9718410883
      0.6239147862
      0.5227810425
     -0.2966055411
      0.2930226332
     -0.7967343595
     -0.8369885689
     -0.7403570660
     -0.8347002661
     -0.4409892442
     -0.8843889768
      0.1522647265
     -0.5502796384
     -0.9770305704
     -0.7473518019
      0.7890561262
      0.5931076995
      0.0210805913
     -0.4157899152
     -0.2141203975
     -0.1405306137
      0.4771442883
     -0.8850317379
      0.7623095108
      0.8617461046
     -0.2660736068
     -0.5146703094
      0.9024706551
     -0.6762333970
      0.2865075797
     -0.3809408177
     -0.5601588695
     -0.4732050721
     -0.6638641444
      0.9489411957
     -0.2342674807
     -0.0202562475
     -0.3458127875
      0.9283333206
     -0.7398420321
     -0.4705345305
      0.7447374960
     -0.8221704703
     -0.2245494598
     -0.5868811724
      0.6148141036
      0.9607254946
     -0.5861915133
     -0.3585857027
     -0.7456010182
      0.7212563224
      0.5086870971
      0.6533938058
     -0.6599435404
     -0.0759151264
      0.8704583463
     -0.9836840744
      0.2844029775
      0.2909985766
      0.6372518283
      0.0681338898
     -0.2005415669
     -0.1412141022
     -0.2814372141
     -0.8889018228
     -0.4254127920
      0.7169420570
     -0.7445569216
     -0.5553995107
     -0.5976874320
      0.0301127394
      0.3078488372
      0.2965515322
      0.9213650335
     -0.6759962716
      0.1941398019
      0.3348492511
     -0.5023807395
     -0.3629350805
      0.1588217195
      0.9607655951
     -0.3315501266
     -0.8803257329
     -0.1197081010
      0.4626021420
     -0.5448372712
      0.7247786150
     -0.9196174425
     -0.8729327649
      0.5917593683
     -0.9911064117
      0.3732255620
     -0.2972591277
      0.2882763062
     -0.7353516441
     -0.1555880275
      0.5672844050
      0.1554014065
      0.0228959417
     -0.9012784227
     -0.3776429975
      0.0679424486
     -0.8082506936
     -0.0188468585
      0.6877897087
      0.0801576268
     -0.2880833290
      0.9267130662
      0.9545311948
      0.0441369064
      0.1934726047
     -0.7000063595
      0.5455326927
     -0.7569699676
     -0.8632920103
      0.3055856920
     -0.1637092579
      0.6631290468
      0.0347851331
     -0.6108135912
      0.1820437028
      0.3563170570
      0.0599273514
      0.0480327487
     -0.8397125974
     -0.1267288933
      0.7516605920
      0.3411151401
      0.8008526044
     -0.0662264335
     -0.3843212493
     -0.9497505328
      0.4428302067
     -0.9752453365
     -0.8925502663
     -0.1565032493
     -0.2186352495
     -0.3162156475
      0.0567583246
     -0.1640193537
     -0.2349400770
      0.0983700954
      0.7041870299
     -0.6294812806
     -0.3892670356
     -0.7255750493
      0.2596693169
     -0.6591476551
      0.2199187642
      0.5002251663
     -0.8245133510
     -0.9707617722
      0.3611134763
      0.8562001498
     -0.6162056563
     -0.5031639482
      0.6044114161
     -0.9233334428
     -0.0636132313
      0.1959391787
      0.9511287657
      0.4494424481
      0.7602467854
     -1.0079523255
      0.2809231132
      0.8686737185
      0.2222332187
      0.9593139312
      0.6101548622
     -0.4715048666
      0.7814097590
      0.3503466069
     -0.8470041702
     -0.8108299854
     -0.6771092473
      0.2423292700
     -0.1046116210
      0.3065692119
     -0.6549215438
     -0.8090349342
     -0.3489281024
      0.0038306301
      0.8483143436
     -0.3632676798
      0.2508385497
      0.3808872161
      0.2004723912
      0.2022468519
     -0.7577099199
      0.1152593051
      0.2715839794
     -0.8500450725
     -0.3588281862
      0.7328403249
      0.0840818696
     -0.1317220012
      0.7697344677
      0.3046953331
      0.5201494692
      0.8030221993
     -0.2010971239
     -0.3530678578
     -0.8354365517
     -0.8701580369
     -0.1413454606
     -0.5141328850
     -0.6288514959
     -0.3778413550
     -0.1604932186
      0.3360371265
      0.6828667243
      0.6495553975
     -0.4000333850
     -0.2541921449
      0.0384480304
      0.9809550442
     -0.5271788845
      0.9274514660
      0.9196004182
     -0.2051681591
     -0.7722494267
      0.5483834002
      0.7858129902
      0.4473115730
     -0.1418776551
     -0.9496281769
     -0.3044176431
     -0.6667502698
      0.6468916288
      0.7620913658
      0.3640475830
      0.9409374632
      0.4083074836
      0.0291415990
     -0.8504788975
     -0.4453797543
     -0.4936415261
      0.8116827003
     -0.8718219460
      0.6921510652
      0.1996121408
     -0.9301741549
      0.0135343364
      0.1332637519
      0.1272635029
      0.8932995796
      0.7595451737
     -0.6680715994
      0.7297902410
      0.8945902419
      0.6982616826
      0.9685520591
     -0.1010796166
     -0.8885259188
     -0.7273884563
      0.7950204516
     -0.2089528587
      0.5874526856
     -0.6018248050
     -0.2578791348
     -0.3806781211
     -0.5537232466
     -0.2433141115
     -0.4862700696
     -0.1849760495
      0.4717081149
      0.8798432994
      0.9106779905
      0.3803940343
     -0.0302104223
      0.5824056917
      0.3861000911
      0.8556577855
     -0.6020671068
      0.1771920743
     -0.0836014664
      0.8253841393
      0.1047637645
     -0.1234442823
     -0.3413840190
     -0.5806769896
     -0.6419495045
      0.0209776751
     -0.0010688821
      0.1306170324
     -0.7454877007
     -0.3450682743
      0.6812682624
     -0.5227406444
     -0.6154492783
     -0.3072092210
      1.0644484820
     -0.5825368982
      0.4330786429
     -0.0730975099
      0.6914064129
     -0.2983739421
      0.8188454044
      0.3569807339
     -0.7540355965
     -0.0506702428
     -0.7287405780
      0.2249434120
      0.1864958990
      0.3264695124
      0.6616055184
     -0.7083180563
      0.3046571547
      0.8053707880
      0.3100821507
     -0.2148328283
      0.1130221908
     -0.7988904112
     -0.6268467902
      0.5010571293
      0.3289187018
      0.5304176802
      0.3827722023
      0.0910138350
     -0.6430668668
     -0.6647759834
     -0.2101486298
     -0.0655728746
      0.1080600880
     -0.6691163850
      0.8852622115
      0.1015389550
      0.0179832529
     -0.4193133037
      0.4826878875
      0.1148470596
     -0.8543060935
      0.1228250615
     -0.5410880293
      0.1015344278
     -0.3034511256
     -0.2245616251
      0.3766124452
     -0.2741628388
     -0.7710420152
     -0.9635587545
      0.6283288365
     -0.8062164059
      0.6397223022
     -0.2165291474
      0.8731519164
      0.7334948519
      0.6577726406
     -0.4245881024
      1.1877732657
     -0.7322837475
      0.4423409192
     -0.2211637715
      0.4896653388
     -0.7366828852
      0.5873272852
      0.6524169185
      0.3115764350
     -0.7183127417
      0.9426176138
     -0.5997827053
     -0.6388860892
      0.6591254776
     -0.0995151890
      0.0837722833
     -0.3792080273
      0.5996768260
      0.7125626275
     -0.0386280504
     -0.0540279924
     -0.9209826359
      0.6852191955
     -0.0876241441
     -0.9690125062
      0.3550840464
     -0.8797185676
      0.9251916462
     -0.1034417552
     -0.2072075308
     -0.0367962838
      0.2019087857
      0.4938237050
     -0.9045886700
      0.8173622783
      0.4239224142
     -0.4327346887
     -0.1822421025
      0.1558039478
     -0.9079590229
      0.2633602755
      0.3774471124
      0.1785864894
     -0.5459389638
      0.7519119483
     -0.6444126881
     -0.1784924983
      0.9142670322
     -0.9540081941
     -0.8641365927
     -0.9122572589
      0.2425714572
     -0.3676680608
      0.5968805463
      0.0331808279
      0.9173417576
     -0.2904139551
     -0.2182858349
     -1.0095309234
      0.7841884894
      0.9124326393
     -0.4052901754
     -0.0400544291
      0.1946069335
      0.1197693611
     -0.8843646913
      0.5209264910
     -0.4675642073
      0.3798443446
      0.3171946848
     -0.0483191635
      0.8440257701
      0.1774355326
      0.1160060252
      0.9386288842
      0.7631998476
     -0.7220455876
     -0.2233933453
     -0.7163744446
     -0.1374702221
      0.3647029842
      0.3496084551
     -0.4576337584
      0.9744249565
     -0.7990671113
      0.9448476576
      0.2064935581
      0.8652384120
     -0.9455764583
      0.7065065826
      0.8288113476
     -0.1121135179
      0.8651413406
     -0.3848394371
      0.0287320588
      0.2327618480
     -0.2098264535
      0.4331685453
      0.3877943994
     -0.1707547824
      0.0488258823
     -0.6395745968
      0.2243700425
      0.4708704878
     -0.4167038427
     -0.7038012721
     -0.9016157673
     -0.1236589170
      0.0214701309
     -0.0322954934
      0.9104204635
     -0.4227619074
      0.9842481973
      0.7730757443
     -0.4354165931
     -0.5296283389
      0.9948375945
     -0.7389583376
     -0.5594679467
     -0.5912107663
      0.7364155620
      0.7294369675
     -0.5643545905
     -0.1709078686
     -0.8588290990
     -0.0005174626
      0.5686359353
     -1.0029529674
      0.6946247403
     -0.1550912682
     -0.7198391379
      0.3336482876
     -0.0463322381
     -0.6696825976
      0.5205510458
      0.7488965359
      0.2223976279
      0.4983122299
     -0.5315970291
     -0.6885495620
     -0.0810339887
     -0.7161720501
     -0.7866238308
     -0.0102079956
     -0.2518450203
      0.4243161937
     -0.0463362674
     -0.2226943383
      0.3613587914
     -0.5125024472
      0.4950834618
      0.3989628109
      0.4365104022
      0.6750032570
     -0.5934273674
     -0.0639568830
      0.5117866178
     -0.8416766771
      0.5615683687
      0.0376816420
     -0.3442239711
      0.8474474385
     -0.1517987979
      0.1612679614
      0.5106350971
     -0.1316130878
      0.3859414728
     -0.7250748079
      0.2520419981
     -0.6046082747
     -0.5347871170
      0.1963023633
      0.6900136015
      0.5425867203
      0.8862669250
      0.6473601178
      0.5838130414
     -0.8097530794
      0.9049332519
     -0.1672718911
      0.6900198715
     -0.4459965965
     -0.3828218989
      0.6167366517
      0.0683921793
     -0.7839692551
      0.5005869133
      0.1563805688
      0.0294732049
     -0.2663685419
     -0.0097709589
     -0.3073919361
     -0.2459369677
      0.7123063919
     -0.1601349607
      0.8746529246
      0.8672547424
     -0.5884359602
      0.6588182540
     -0.6655700676
      0.3978585063
      0.4946372980
      0.6264199208
     -0.6039295314
      0.2350721629
     -0.4854781614
     -0.6482794753
      0.5089572853
      0.2720911947
     -0.2852059760
     -0.8544551115
     -0.0182467811
      0.7925383608
     -0.8192878521
      0.9350982259
     -0.0387250031
      0.5892966587
     -1.0781619147
      0.0827175800
     -0.0412340448
     -0.3882424231
     -0.5569274002
     -0.3305894928
     -0.1394685099
      0.0183535399
      0.7276019222
     -0.9639747502
      0.0001870855
     -0.0854312400
      0.0826761114
     -0.6016690184
     -0.2271978011
     -0.7130895592
     -0.4877168261
     -0.5941079578
     -0.4377463551
     -0.3189723814
      0.8714656644
      0.7614147468
     -0.3440314651
     -0.2366049706
      0.6765068194
     -0.9851994715
     -1.0445268612
      0.6650358787
     -0.7104570239
      0.2041239089
     -0.0684443652
      1.1670533483
     -0.4694771227
      0.3694011465
      0.2980935295
      0.7183378514
     -0.6520517029
      0.0750416277
      0.4168369349
      0.3763978330
     -0.1475754542
     -0.3610217106
      0.3331350109
      0.0104376943
     -0.0747311394
     -0.5814383117
     -1.2498041658
      0.6014181824
     -0.5824989573
      0.3486772324
      0.6935190412
     -0.7508753072
