     -0.2976349745
      0.1731001450
      0.9968105320
      0.3437544643
     -0.2814331356
     -0.6120953268
      0.8369474591
      0.4217216118
     -0.5563247895
      0.0611174815
      0.6169259493
     -0.0999729208
     -0.5342659916
     -0.4518580369
     -0.7951161063
     -0.8182044579
     -0.8056280716
      0.2371309258
      0.6213389369
      0.0503015933
     -0.7497875784
     -0.9381415511
      1.0133514308
     -0.5428916335
      0.6002520244
     -0.2952832635
     -0.3688078686
     -0.3187285102
     -0.9646414951
      0.8125074992
     -0.8361476666
      0.0358998520
     -0.6965342650
      0.6321463091
     -0.4047364998
      0.8526415891
      0.8351410322
      0.7478026113
      0.5729744241
     -0.2635876269
      0.0372302179
     -0.0718977823
     -0.4785144684
     -0.1920640542
      0.0681524516
     -0.4170959885
      0.6603914698
     -0.9080675401
     -0.7876069009
      0.5969594538
      0.7842257049
     -0.7894718922
      0.7685048751
      0.8281023499
      0.5404677543
      0.4955415926
      0.1680914611
     -0.0985165337
      0.0326270470
      0.9188320180
      0.2432453777
     -0.0742388113
     -0.1730069957
     -0.9972472347
      0.4399365893
     -0.2640939715
     -0.3370747925
     -0.8549136202
      0.9571787118
     -0.7085563845
     -0.8318357085
     -0.1865617279
     -0.3507732660
     -0.4645448457
     -0.1102259802
     -0.9551640520
      0.5317575476
     -0.6521405380
      0.8147400049
      0.3146593257
      0.4521549965
     -0.9216910251
     -0.5507986887
     -0.1858201423
     -0.2565658209
     -0.5044411411
      0.9290352748
     -0.9025177672
     -0.3834445598
     -0.0287297645
      0.6923002451
     -0.3766787249
      0.1525177496
      0.6958547858
      0.1296876674
     -0.8009600987
      0.6029240989
     -0.9163617132
     -0.1581883358
     -0.4605451860
     -0.2904386489
      0.5405500286
     -0.5328042220
     -0.4644865354
      0.4482873035
     -0.3068549839
      0.3936583062
      0.5826146490
      0.2485594952
     -0.2723465129
     -0.7658195960
      0.5216093920
     -0.9537923003
      0.0556100167
      0.8521747944
      0.1674887836
      0.2076777024
     -0.2548508330
      0.9267317438
     -0.3229823676
      0.5141508537
      0.6002776825
      0.8777533445
      0.4715665542
      0.8937975474
      0.5648647677
     -0.1318239493
      0.1251437251
      0.2682109223
      0.9362720221
     -0.7461508863
     -0.0373261149
     -0.0926617269
      0.2143208819
     -0.5684688659
      0.1545115351
      0.3548625968
     -0.9388488442
     -0.3809086962
     -0.2984183975
     -0.2024128935
     -0.0387236591
     -0.9728062058
      0.4155521658
      0.5700310723
      0.5046807092
     -0.4768258000
     -0.1560693428
     -0.5414782602
     -0.6341082536
      0.1942143030
     -0.1913559914
      0.1419990616
      0.3835874872
     -0.9312580517
     -0.4856916334
      0.7298081543
     -0.2526514060
      0.5136661759
     -0.1412101243
     -0.8142447641
      0.6148062659
     -0.5799487196
      0.1031568783
     -0.7490747983
      0.0636820196
     -0.2853626259
     -0.1794170198
      0.8242910334
      0.6377036757
     -0.4369354932
     -0.6155814481
     -0.2450182459
      0.5044392244
      0.2116892766
      0.1289511958
      0.4075216349
      0.8950916719
     -0.4216852398
      0.2854771727
      0.1740396270
     -0.2979134826
     -0.5391548530
     -0.4635104415
     -0.7035083407
      0.5499703528
      0.1560362893
     -0.8645517927
     -0.1813809551
      0.4439113353
     -0.6643044740
      0.5190013547
      0.3268075022
     -0.6446583434
      0.8044642090
      0.4097327984
      0.4488877257
      0.5627380723
     -0.8425670309
      0.8042218969
      0.9834808604
     -0.3644797375
      0.4435698594
     -0.6179991875
     -0.0791916638
      0.7086365745
      0.4025969754
     -0.8527293683
      0.8003083816
     -0.5650836144
     -0.9469723695
      0.2365351536
     -0.9110358955
      0.4053135266
      0.7776065353
      0.6492662625
      0.2175565013
      0.6405639164
     -0.0759372046
     -0.4584919309
      0.1160574684
      0.3338187285
     -0.3532599093
     -0.5821216270
     -0.6714365971
      0.3818807704
      0.4551194868
     -0.9378152525
     -0.1297688646
      0.3183768475
      0.6477665773
      0.1342768059
      0.4102394139
      0.9480684187
      0.9664254624
     -0.0056108331
      1.0264500834
      0.2223950094
      0.9565534863
     -0.4846494241
      0.9344506751
     -0.9233393810
      0.6907507364
      0.2486697505
     -0.4750924003
     -0.0062729302
      0.0855718918
      0.1064378754
      0.1039676786
      0.5210944838
     -0.2251169522
     -0.2037746413
      0.2326595233
     -0.9447008711
      0.8334210259
      0.2031158677
      0.3195959145
     -0.2098967611
      0.3975829995
     -0.5860322503
     -0.0993256498
      0.7177046902
      0.7530753010
      0.6474807698
      0.2844643545
      0.3348988850
      0.6403095822
     -0.4921903291
      0.7982295777
     -0.5735557447
     -0.4901360208
     -0.2322300548
     -0.1191624478
      0.0705758650
      0.0805964408
     -0.1563075703
      0.6077934029
     -0.6912713815
     -0.5226772569
     -0.3666341189
      0.1438464940
      0.7984994570
     -0.1881346843
      0.8581011456
      0.4972914935
     -0.4190633719
      0.1423167370
      0.4179514814
     -0.7522348618
      0.3145061426
     -0.6069829668
      0.0820911482
     -0.1096767215
      0.3689407933
      0.0254719152
     -0.2896714552
     -0.4563043613
     -0.3574535266
     -0.1775973756
     -0.0722895393
      0.8538886079
      0.3246356740
      0.6623678775
     -0.1127926626
      0.2657831989
     -0.7440099467
     -0.5347321421
     -0.2758275466
      0.7035793121
      0.8264258339
     -0.6276109532
     -0.9523052030
     -0.4018672949
      0.0970506530
     -0.0694337474
      0.4615252296
     -0.2135361815
      0.3108427930
      0.4315007063
     -0.1065794319
     -0.5995382340
     -0.3647628104
      0.4697213706
     -0.6605098641
      0.6829625364
      0.5326786738
     -0.7420759436
     -0.1917631962
     -0.1819431271
     -0.6172713053
     -0.9118503781
     -0.9110930562
      0.7892207579
     -0.6509053667
     -0.6704628432
      0.6793440848
      0.0502119781
      0.4788265352
      0.4574448529
     -0.2398780480
      0.0240587389
     -0.2246346695
     -0.5665624620
     -0.3832899607
     -0.0818980213
     -0.1466305771
      0.1859582837
      0.4055040076
      0.4057504684
      0.2187535138
     -0.6427159051
     -0.4035678769
      0.8909664395
      0.8114100484
     -0.8478332193
     -0.4767397417
     -0.0344592483
     -0.4236462836
     -0.1816802156
     -0.8565039697
      0.0025598056
      0.7981385604
      0.2036749513
      0.2504745312
      0.0035483422
      0.6394344641
     -0.8857408182
     -0.1950857577
      0.6054218102
      0.7387111107
     -0.8316972794
     -0.2509130115
      0.8714710722
      0.8484468227
     -0.7145167200
      0.6914447475
     -0.4844817291
     -0.2850581491
     -0.0251316170
     -0.5773536322
     -0.5576690337
      0.5334973526
     -0.9128217414
      0.5849207373
      0.4102182935
     -0.3701517762
      0.3233684360
     -0.1991672125
     -0.4946203355
      0.8800423241
     -0.7018400578
      0.7381209533
     -0.9678860967
      0.8806303322
     -0.2967918620
      0.3977664126
      0.5254388211
      0.0964560782
     -0.3331805173
     -0.6496217250
     -0.1648634386
      0.5474869100
     -0.1538692728
      0.6638138564
      0.0169399898
     -0.2435171591
      0.8117958658
      0.7392695863
     -0.1514350930
     -0.9733055949
      0.2251792758
     -0.5977435116
      0.8700358816
     -0.1959020269
     -0.0597727876
      0.9664516288
      0.9691160157
     -0.6027926649
      0.3012225389
      0.4386283170
     -0.2211260842
      0.5753312041
      0.2176850460
     -0.0957945751
      0.7853489746
      0.1749376928
     -0.1336991375
      0.1251655217
      0.5189469578
     -0.0243867550
      0.0593452239
      0.1968686866
     -0.2221474828
     -0.2364303432
     -0.8519596854
     -0.4281397258
      0.3790559755
      0.4784514139
      0.7269373157
      0.4172560696
     -0.2045990533
     -0.4369646041
     -0.3839085426
      0.7799172738
      0.7420586294
     -0.0383443569
      0.3117389786
     -0.5226008847
      0.1952842262
      0.1176712033
      0.4762858344
      0.4030491194
      0.5746653748
      0.6318790808
     -0.8726194630
      0.5204371826
     -0.5146874525
     -0.0456831969
      0.6286849607
     -0.5312073137
     -0.6426801472
     -0.3174518271
     -0.7727046124
     -1.1974958511
     -0.7208188312
      0.3973964366
      0.3998965865
      0.4153093291
     -0.6539668259
     -0.0513070053
      0.1790134047
      0.3858171397
     -0.5482446092
      0.8415170021
     -0.5873498240
     -0.6664307411
     -0.6708278560
     -0.4271183471
     -0.4211457887
      0.3920841065
      0.9575355218
      0.8217083653
      0.6474013366
     -0.7290981901
     -0.7593423223
     -0.2715490494
      0.4460598418
     -0.2504825816
      0.7040128771
      0.1528447605
     -1.0361660729
     -0.9503796034
     -0.5435706759
     -0.2553480015
     -0.8220547624
     -0.3163543598
     -0.7365329583
     -0.1515095914
      0.7372563107
     -0.8203076505
      0.5797572543
     -0.0917302113
     -0.1036558879
      0.5190650894
      0.1626641052
      0.5254423573
     -0.4695545098
     -0.7709811992
     -0.6258853163
      0.4973526220
     -0.9443616867
     -0.5520371320
     -0.6822692772
      0.1011926056
      0.5345168738
      0.3623060243
     -0.7263808582
     -0.4959669366
      0.3748897752
      0.5911302473
     -0.5069688915
      0.8487267401
     -0.9159861877
     -0.8449768769
      0.1367719875
     -0.7369788725
     -0.9814309140
      0.6255917036
     -0.7370299326
     -0.5277263179
      0.6383681740
     -0.2461654769
      0.2756419999
     -0.0047149466
     -0.1640137709
     -0.6428753578
     -0.8872538874
      0.4728256375
     -0.3913542793
      0.6295663071
      0.9101624081
     -0.4649599879
     -0.8945322920
     -0.7677973357
      0.4002512136
     -0.6168532437
     -0.1503867028
     -0.6213253239
     -0.1900670004
      0.7235681536
     -0.4117686932
     -0.5935290138
      0.3412447480
     -0.2328771702
      0.8624283371
     -0.8016316619
      0.5263660570
      0.2101409346
     -0.2431716311
     -0.4620642278
     -0.3200852184
     -0.9320294925
     -0.9387431731
     -0.8749687664
      0.5853188872
     -0.1876716406
      0.9484055735
     -0.6703139710
     -0.7968058109
     -0.2366964521
      0.7437256276
      0.0079393221
     -0.9976408899
      0.7515322818
     -0.0936583504
      0.8796980861
      0.3852588478
     -0.2952432279
     -0.8120627948
      0.6049501755
     -0.2073758626
     -0.4371067731
      0.1296045651
     -0.3341230711
      0.8878751897
     -0.2816994717
      0.8911660186
      0.7816421182
     -0.6366462974
      0.9634352143
      0.5976216161
      0.9791070333
      0.5022104190
      0.2233646152
      0.1569759278
      0.4685115790
     -0.7518557426
     -0.4782298207
     -0.4544484465
     -0.0983996219
      0.7180165316
      0.4600069029
     -0.9823906133
     -0.2258059961
      0.8468018437
      0.7920635091
      0.3332286881
      0.2044359962
     -0.1670389695
      0.4534265829
     -0.5166154405
     -0.4005527191
     -0.4237610548
     -0.6975011378
      0.8897249947
      0.7645916243
     -0.4338002854
     -0.1811005989
     -0.1239563247
     -0.1752569528
     -0.9981355644
     -0.4161194613
     -0.5368778383
     -0.7730888981
      0.5044794997
      0.8932128031
     -0.6534767552
     -0.5865476670
      0.8896623316
     -0.8219414158
     -0.8307156468
     -0.9710498845
     -0.1173488371
      0.7245339695
      1.0071957394
      0.5691067207
      0.5007273233
      0.5707685049
     -0.1850321041
     -1.0260488744
     -0.3301869089
     -0.4901967414
      0.3033615288
     -0.2952618619
     -0.5103037142
     -0.2524393938
      0.6776537105
     -0.4554149480
     -0.9951702764
     -0.0800785022
      0.6642092477
      0.9064029335
     -0.4329273104
     -0.6658308517
     -0.6313280833
      0.7627716824
     -0.1347081343
     -0.9512054817
     -0.0804623384
      0.6143440243
     -0.6178552958
     -0.8091973479
     -0.4317988366
     -0.7328293307
     -0.2497143314
     -0.6895658215
     -0.3158238684
     -0.5893208812
      0.6265640337
     -0.5986394270
      0.8784125867
     -0.7274270161
      0.1237124885
      0.4197114104
      0.8916825889
     -0.8918785065
     -0.2182670520
     -0.6019657900
      0.2736799596
     -0.5365454237
     -0.0308040559
      0.8510197741
     -0.1163408667
      0.1898781229
      0.7060063775
     -0.1985832589
      0.3859117444
     -0.8325013051
     -0.7935016051
     -0.9428762797
      0.4819939629
      0.0609227240
      0.9289403740
      0.6689044006
      0.2439261821
      0.6446709792
     -0.8868177626
      0.5562465369
     -0.0404991113
      0.8811654908
      0.5288341455
      1.0334978370
      0.2724272533
      0.5944881205
      0.4293653347
     -0.2654580043
      0.3939445421
     -0.7976545176
     -0.7585071914
     -0.5596743026
      0.1751477896
     -0.0993246256
     -0.6020430521
      0.2680585537
      1.1621627868
     -1.1635725026
     -0.3358149653
     -0.0754680771
      0.2987398385
     -0.3565076268
     -0.4540397087
