     -0.4736956540
     -0.2692815649
     -0.2555329515
     -0.0814409177
      0.1059231961
      0.2158260592
      0.3796866253
      0.1355017996
      0.4603862405
      0.0843662370
     -0.0194159944
      0.2487279454
      0.2482940248
      0.4126630562
     -0.3259351335
      0.2168265444
     -0.1793796202
     -0.5012007379
     -0.0842883866
     -0.1297081859
     -0.4500016259
     -0.2287113447
      0.1643231151
     -0.4342646393
     -0.0301306134
      0.0171463455
      0.0769268342
      0.1018550888
      0.2648795607
     -0.1904879962
      0.1680382076
      0.1191875503
      0.2573362145
     -0.4249226277
     -0.3306701208
     -0.4225852471
      0.3906243239
     -0.3886124557
     -0.1718776853
     -0.2928127098
     -0.0749582249
      0.0306613243
     -0.0799966908
     -0.0574072950
      0.4352844049
      0.0262220272
     -0.0695244381
     -0.1520401995
     -0.0787986857
      0.2956270122
      0.2106507944
     -0.4595678521
     -0.4403607044
      0.0516949036
     -0.2712385421
     -0.4274409845
      0.0202396557
     -0.2718611589
      0.4052284870
      0.3421654734
      0.1836808936
      0.3459881150
     -0.2925425598
     -0.0750483401
     -0.4274482990
      0.1287464981
     -0.1377701478
     -0.1451690358
      0.5020844457
      0.1474056520
      0.2743556724
     -0.1106751404
     -0.0896686781
      0.3307925434
     -0.1641888517
      0.4346554624
     -0.3401412650
     -0.0712966135
     -0.3247640190
     -0.0139994158
      0.4557169171
     -0.4845891895
      0.3888053569
     -0.4192737532
     -0.3707737773
      0.1059525572
      0.3735186425
     -0.1255883467
     -0.1977893561
     -0.3937305060
     -0.0114593848
     -0.0373508743
     -0.1562874960
      0.4202234886
     -0.3934882616
     -0.2913298029
     -0.1541208757
      0.5357762496
      0.0299336733
     -0.2036441953
      0.1520990455
      0.3409506845
     -0.0014604361
      0.4530188012
     -0.3527352526
      0.3046129314
     -0.3677288312
     -0.3927173571
     -0.1155216789
     -0.2566868944
      0.3496613774
      0.4099792748
     -0.4760188211
      0.3397989759
      0.1273832529
      0.0046574985
      0.3764426259
     -0.5029021793
     -0.2636603274
      0.0155336438
      0.0571805629
      0.1134408046
     -0.4125545295
      0.1784623300
      0.3552944318
      0.3655525333
     -0.3211282804
     -0.0907468560
      0.2063077249
      0.4588851842
      0.0720302648
      0.1183901443
     -0.1552998665
     -0.2466531858
     -0.4214704863
      0.1206506383
      0.3677750650
      0.2688289882
      0.0811248376
     -0.3259365420
      0.1892431769
     -0.1109915811
     -0.1856992832
     -0.1150076386
      0.3388158813
     -0.0507038138
     -0.2887628172
     -0.1461594527
     -0.2477346595
     -0.3093481766
      0.4141110050
      0.1008841428
     -0.2592866405
      0.1060823392
     -0.3710736292
     -0.2592134837
      0.1724757509
      0.2050725363
      0.4408441975
     -0.1519531020
     -0.1761005484
      0.4760951849
     -0.2225294086
      0.2171702237
     -0.1188959715
      0.3780325900
     -0.1025923409
      0.1958890267
      0.0679160024
      0.0435052114
      0.4936488249
      0.4771369823
     -0.3245941850
      0.3411665941
     -0.0064955614
     -0.2676062878
      0.3070438983
     -0.1918897040
     -0.1258021307
     -0.3592433241
      0.4981241757
     -0.4937698542
      0.3112949818
     -0.1704018896
      0.0245418501
      0.4015766681
      0.0994260509
     -0.1478151719
      0.0515970000
      0.3812046069
     -0.4186331907
      0.0422848733
      0.1545461590
     -0.2610661847
     -0.3152070510
      0.2742063315
     -0.0179533937
     -0.5008953915
      0.3539117793
     -0.1343032904
      0.0426723636
      0.3451003326
     -0.2034922290
     -0.3554093140
     -0.0213584596
     -0.0244720613
     -0.3424891776
     -0.2907283656
     -0.3033796183
     -0.0732365663
     -0.2408446500
      0.3273524640
      0.0929457547
      0.4417482060
      0.1544543583
      0.2292524410
     -0.2499420920
     -0.2263553073
      0.2097770201
      0.2485234989
      0.2492596617
      0.0440051491
     -0.3498403575
     -0.4489292869
     -0.1555057320
     -0.0309997740
      0.0009916153
      0.4933574445
     -0.4055771150
      0.0914603676
      0.4975267349
      0.4422834386
      0.1658124901
      0.2913397955
      0.3574554045
      0.1349357967
     -0.1352167415
     -0.0030968748
      0.1652735517
     -0.4765202654
      0.3674489343
      0.2298587760
     -0.3737306966
      0.0121386395
      0.4549459840
      0.3485225664
     -0.3805271976
      0.2319974230
     -0.2349901714
      0.1864327436
     -0.1808691358
      0.3473760174
     -0.1425312146
     -0.3826513436
     -0.2705366399
     -0.4076060601
     -0.0745174590
      0.0898021422
      0.0744224612
     -0.3804213485
      0.2956198595
      0.3828952053
     -0.0101782260
     -0.1884627943
      0.4164972430
      0.4699652152
      0.1367764431
      0.4190698728
      0.4468399321
     -0.2981821738
     -0.2758612004
     -0.2097159258
      0.3933196421
     -0.2460863460
      0.3687808064
     -0.2144109405
      0.2910267269
     -0.3763496618
      0.0341288699
     -0.4314282500
     -0.4575974402
      0.2313058613
      0.1260051724
      0.4577719160
      0.0789213165
      0.4955697228
      0.4155330697
     -0.2472212047
     -0.2313203446
     -0.3658563298
      0.0286154161
      0.1615399346
     -0.4333071246
      0.0192855180
     -0.0158559265
     -0.4386939809
     -0.2645164923
     -0.0102687751
     -0.2035386558
      0.3121124807
     -0.3449758298
     -0.1899855270
     -0.2319440614
      0.0853404687
      0.4139318909
      0.2893913099
     -0.3814425054
     -0.2572391628
      0.0568420473
     -0.3731258931
     -0.3285348359
      0.0689189228
      0.1882414190
     -0.0135035245
      0.2020062278
      0.0122101555
     -0.2154633275
      0.0223968777
      0.2979157661
     -0.4255107707
     -0.3464030822
      0.3057586950
     -0.3310624353
     -0.4076850177
     -0.4029457420
      0.0145544948
     -0.4632255227
     -0.4516325364
     -0.2076854266
     -0.3756596301
     -0.3675159190
      0.0530709049
      0.4595267525
      0.4170926584
     -0.1222082889
      0.4007856545
      0.2562280763
     -0.1198864245
      0.0749604182
     -0.0665137833
     -0.3632414589
     -0.3239853779
     -0.3702813286
      0.3288859538
     -0.4426558784
      0.3194089266
      0.1779775245
     -0.4078094832
      0.1262555630
     -0.0564545066
      0.2496853898
     -0.0808113550
      0.3176200780
     -0.0634451537
     -0.1512329651
     -0.3975035668
     -0.1520316794
     -0.0461732916
     -0.4669771285
      0.1273721471
     -0.0709814242
      0.1086010861
      0.3954408151
      0.0030456605
      0.1877847158
      0.0867898315
     -0.3346770012
      0.1452125604
      0.1637250832
     -0.0884296972
      0.3610507570
      0.1184677283
      0.0642038245
      0.1973191467
      0.3917576509
     -0.0747758483
     -0.3174068090
      0.1262842177
      0.2380377563
     -0.3770451094
     -0.0588438905
     -0.2519490005
     -0.0796573218
      0.1821363734
      0.2096449359
      0.0284839179
      0.2737970112
      0.3497434295
      0.2289492291
      0.4443235059
     -0.1361043171
      0.4850147095
      0.4622844641
     -0.2007047011
      0.4144317200
     -0.2992973066
     -0.0475704507
      0.1046358728
     -0.0974152328
     -0.4733930085
     -0.0223447143
     -0.0157994252
      0.4390767149
      0.1676148745
     -0.1065125910
     -0.5108486101
     -0.3449013633
     -0.1775007508
      0.4917774670
      0.4472188174
     -0.0911362334
      0.1853355722
      0.3006451317
      0.0731955746
     -0.4395652537
      0.0751252366
     -0.3658159958
     -0.4953617480
     -0.4696327568
      0.1266849767
      0.4003070580
      0.4242644710
     -0.4161144719
      0.2935530744
     -0.2379550584
     -0.4701692763
      0.2954266284
     -0.2151854503
      0.2347821045
     -0.1170956400
     -0.5710766076
     -0.1488945243
      0.1953568232
     -0.4880547765
     -0.0269092561
     -0.0312365831
     -0.2841511050
     -0.0209930429
      0.4967754794
     -0.2758665406
      0.0983428018
      0.1610021303
     -0.0948714249
      0.2974659199
     -0.0608517519
      0.2231893835
      0.4623186210
      0.3674009029
     -0.4239997808
     -0.2668727653
      0.3398840865
     -0.4727821509
      0.2307668616
     -0.1625251907
     -0.1744145118
      0.3453331161
     -0.5258608701
     -0.2181874237
      0.3659996833
      0.1958150873
      0.0197781702
     -0.0546726367
     -0.3126707348
     -0.3672717900
     -0.3982686929
     -0.0425472112
     -0.2959719322
      0.1523624193
     -0.0823977050
      0.1682507356
      0.1984171580
     -0.4464419337
     -0.4123190133
      0.4477826051
      0.3561360670
     -0.2702241039
      0.3537726123
     -0.3462374578
     -0.1729091829
     -0.0210555071
      0.2047111568
      0.3759232906
      0.3908089065
     -0.2772260673
      0.4172131886
     -0.5055557217
     -0.0856598538
      0.4652310479
     -0.4535597072
     -0.4603134185
     -0.0611886951
      0.2541018678
      0.1566241301
     -0.3028670731
      0.0899085640
     -0.3942214546
     -0.4847624993
     -0.3983961187
     -0.4943005938
      0.0740770530
      0.4763232200
      0.3562544306
      0.3089638100
      0.1132239345
     -0.1088422133
      0.3871799550
     -0.2809145528
      0.2096526223
     -0.2634202574
     -0.1959316461
      0.3794856268
     -0.3019628929
      0.1530538532
      0.1785562977
     -0.1094706408
      0.0719235665
     -0.4845616724
      0.1934731169
      0.2971654404
     -0.4732239287
     -0.2590616014
      0.2694600545
      0.4174381387
     -0.4441824953
      0.0722846357
     -0.2894043925
      0.1587646815
     -0.3514660810
     -0.1607763848
      0.4286495421
      0.0645554524
     -0.3023172665
      0.3570049112
      0.2386004572
      0.4426379763
     -0.2595814460
     -0.0009858332
     -0.2437883497
     -0.2828371164
      0.2031907087
      0.1746085738
      0.3197444651
      0.2515186992
     -0.4568903255
     -0.2897150570
      0.1098744778
      0.3478741444
     -0.5258658716
     -0.4824191745
      0.3059198424
     -0.2254156188
     -0.4706096534
     -0.3667771438
     -0.1423076731
      0.4400895022
     -0.4477384755
      0.3695497428
     -0.3011827013
     -0.4086254444
      0.4508341338
      1.3783120590
      0.4765133167
      1.3948623593
     -1.4448110259
     -1.0626527373
      1.3594331630
     -0.5407837648
      0.9907923869
      0.2912608363
     -0.7451974746
      1.0249810237
     -0.3180738418
      0.6545615521
     -1.3090770859
     -0.7595481509
     -1.0886047362
     -0.1825341795
     -1.5142595099
     -1.2328814434
      1.1493872525
     -0.5562162590
      0.0928623878
     -0.2974293963
      0.5024239214
      0.8432446658
     -0.6485103383
     -0.3631903963
      0.2694406084
     -0.0792717995
      0.5175408332
      0.4686247756
      0.3373372107
     -0.1661419038
     -0.2587777802
     -0.0935605165
     -0.1259969460
     -0.4434498552
      0.4167055110
     -0.4427997360
     -0.5763546670
      0.4433276952
     -0.0483140556
     -0.4529362277
      0.2668937611
     -0.4091641181
     -0.2425346893
     -0.4745230161
      0.4448438671
      0.4679465388
      0.4885524014
      0.3839869718
     -0.1201104002
      0.3199677398
     -0.0633637510
     -0.0237196367
     -0.6188573437
      0.0683637889
     -0.3070409596
      0.5090050416
     -0.1568864344
      0.5343062201
      0.5244627224
      0.5263760690
      0.4071122590
      0.0569200264
      0.2972540989
     -0.4107629577
      0.4498825477
     -0.4662031731
      0.1792088442
      0.2703656069
     -0.4640266660
     -0.3537858910
     -0.0868092832
     -0.0185682054
     -0.1414976061
     -0.1729472002
     -0.5103359126
      0.2456626073
     -0.2073362006
     -0.1842785922
      0.3988015061
      0.3550973390
     -0.2646423751
      0.2721278473
      0.2402713480
      0.4896139798
     -0.5062442307
     -0.5276328774
      0.5768880327
      0.4436813960
     -0.4636197996
     -0.4878787602
      0.4720496585
      0.0262467752
     -0.6356673995
      0.3641410712
      0.1849500534
     -0.3656656740
      0.2440956075
      0.3396351697
     -0.5599707369
      0.1675826373
      0.1075496299
      0.0487847561
      0.1942028412
     -0.1364281538
      0.3392096658
      0.0551367025
     -0.0088960870
      0.6195926789
     -0.5014835306
      0.2448891770
     -0.4068740227
      0.6343693701
     -0.3677239073
     -0.5484501823
     -0.0913271112
      0.2563594100
      0.3557755577
      0.5623163313
     -0.4642095024
      0.5075914127
     -0.4302477084
      0.3614529376
     -0.2545106035
      0.3015125462
     -0.5001696072
      0.4570646744
      0.3442771262
      0.1463219086
     -0.3030076503
     -0.6714815958
     -0.3224660216
     -0.5239134159
     -0.6208202278
      0.3452559545
      0.2639406522
     -0.4923972764
      0.3498409744
     -0.1343883847
     -0.5530811176
      0.3816098325
      0.4903596814
      0.1520291431
     -0.2776977497
     -0.3625636779
     -0.4298637128
      0.4017014462
      0.5060607371
     -0.1847178127
     -0.0620945816
     -0.3301598072
      0.4472013325
     -0.6397076424
     -0.0501525199
      0.4607003415
      0.5754754637
      0.4115477253
      0.5836364454
     -0.0173955037
     -0.5615823777
     -0.1760051711
      0.0474042343
      0.4711814976
      0.0063851578
     -0.2964734989
      0.1226129557
     -0.1491680942
      0.1759785593
     -0.2906668083
     -0.4787880098
     -0.4971464119
      0.2383787769
     -0.3894876524
     -0.0206111882
      0.0707425719
      0.2970745068
      0.3994577119
      0.1615184943
      0.0155246110
     -0.2675367417
     -0.5557718036
      0.4850377470
     -0.0071806680
     -0.2176862024
     -0.3814449781
     -0.2230493156
      0.0637546563
      0.5143072069
     -0.0498089504
      0.4510968737
     -0.6959143352
     -0.4941934276
     -0.3846352357
      0.1673212773
     -0.3348066373
     -0.3718281819
      0.1694275218
     -0.4536667361
      0.3543437306
     -0.1687010869
      0.2806259469
     -0.4384449188
      0.4125575299
      0.5572674638
     -0.4654358764
     -0.4115304217
      0.4397644301
     -0.3790105588
      0.1690991766
      0.1682389786
     -0.2970091366
     -0.2726045336
      0.0425900883
     -0.3604825767
     -0.3519181802
     -0.2943214738
      0.1115711444
     -0.5230806433
      0.4742840398
     -0.0102617991
      0.3271443398
      0.5563246110
     -0.6514710631
      0.4244899619
      0.6422492725
     -0.3129869952
     -0.0657198577
     -0.4025740006
     -0.3676687060
      0.1432920154
     -0.1349450004
     -0.2506268967
      0.5127384960
     -0.3714047151
      0.0392023780
      0.5781824998
      0.0158143602
      0.3240263716
      0.3031014443
     -0.2312126907
     -0.2415737550
      0.4182072568
      0.0216807020
      0.1206190706
     -0.0073398316
     -0.2252889342
      0.5028586399
      0.0423820883
      0.1757266297
     -0.3692359361
     -0.0900707112
      0.4548087200
      0.2253220191
      0.0653065656
     -0.4429187284
     -0.3321207332
      0.4769716566
      0.3396278049
     -0.0210441676
      0.1570340303
      0.1458705899
      0.0073802813
     -0.1904208028
      0.1715387102
      0.2644970138
     -0.4105654904
     -0.3928218335
      0.0030040444
      0.5564928320
     -0.4561645716
      0.0250245592
     -0.2392191244
      0.1897201540
      0.6280989156
     -0.3547153073
     -0.3771046758
      0.1061407943
     -0.3409068870
     -0.3138404034
      0.1136437637
     -0.0086160134
      0.4980449383
      0.2448935076
     -0.7384063279
      0.2061916879
     -0.3377619725
     -0.5169700856
     -0.0728724728
      0.0151611338
      0.4310036659
      0.0997788501
      0.2625159050
      0.3014423925
      0.3036075164
     -0.4776796388
      0.4250744393
      0.2115757391
      0.3179562346
      0.4702418548
      0.3001329446
      0.5002084326
     -0.3369885081
      0.0134628774
      0.5336899893
     -0.4811171755
     -0.3389608816
      0.4132206442
     -0.5096478236
      0.3205956423
      0.4040970728
      0.5342094620
     -0.5347846529
     -0.0752571007
     -0.0192549251
     -0.0812431223
      0.4815733570
     -0.4053384520
      0.0787983884
      0.4215435083
     -0.0740588816
     -0.4604988742
     -0.3328623771
      0.1501346622
     -0.4953753468
      0.2971943081
     -0.4885003855
      0.4094234225
      0.0277582776
      0.2472802727
     -0.2768766176
      0.2183862123
     -0.2091642832
     -0.5473605821
      0.6023512881
     -0.3505188347
     -0.0218766083
      0.2337376410
      0.0367408953
      0.0624972921
     -0.5740264443
     -0.0834276272
     -0.3734683085
      0.4335380867
     -0.2666601078
      0.2655872678
      0.4197192006
      0.3919218652
      0.0967590762
     -0.6709804720
     -0.1000418226
     -0.1903038027
     -0.3983762238
     -0.2163712282
      0.0283054718
     -0.2733004534
      0.4551072771
      0.5824294597
     -0.2595304716
     -0.2220556712
      0.5381812640
      0.5340831612
      0.2666214758
     -0.3302456883
     -0.1068156179
     -0.1590057448
     -0.3258932041
     -0.3473768048
     -0.2493991250
     -0.2191818244
      0.4224616287
     -0.5356128317
     -0.4005218096
      0.0769003247
     -0.0808764187
      0.4743871639
     -0.3045291269
      0.5276832816
      0.4778383768
      0.4160375650
     -0.3308366911
      0.1946003007
      0.2171443412
      0.4175207383
      0.0001965105
     -0.1250821876
      0.2377043865
     -0.1139748998
     -0.4500310066
      0.5559499962
      0.3608207781
     -0.0805871156
     -0.4380335220
      0.1978315256
     -0.2183474653
     -0.5720304385
      0.0105185019
     -0.4339546812
      0.3433007756
      0.4501378760
     -0.1841869996
     -0.3413574391
      0.0604071741
      0.3539981351
     -0.3143984414
     -0.4814496696
      0.0778298884
     -0.1613336437
      0.5055478154
     -0.0735939681
      0.4113366310
      0.1100531728
     -0.5113258027
      0.6396024195
     -0.3036805802
      0.3153325695
     -0.2446954997
      0.0912173590
     -0.4809512972
      1.5768260369
      0.4917966117
      1.2717275705
      0.6498736831
      0.7585077989
     -0.3612704329
     -1.4297287040
     -0.6800520783
     -0.8149029086
      0.4962607608
      1.1687231969
      0.2086641082
     -0.3660475120
      1.6227002541
     -0.6772401862
      1.5904471965
      1.5914257404
     -0.7059351032
     -0.3146964305
     -0.3722608207
      0.0100113784
      0.0015519970
      0.0033598429
     -0.0000307069
      0.0020565859
      0.0012043087
      0.0053948653
     -0.0132214292
     -0.0077870813
      0.0106255078
     -0.0024032510
     -0.0010698790
     -0.0044438138
      0.0014846978
      0.0099798609
     -0.0035542066
     -0.0053988635
      0.0060021192
      0.0007026068
      0.0041614024
     19.6630424533
