     -0.8226069125
     -0.5180774344
     -0.5723458810
     -0.1570923471
      0.2479292050
      0.4026951302
      0.8173837501
      0.2181801695
      0.8802743396
      0.1770155767
     -0.0172654155
      0.4543047017
      0.4952641851
      0.7311522958
     -0.6840375797
      0.4599788480
     -0.2763168857
     -0.8932828229
     -0.1481444565
     -0.2379211833
     -0.7789863660
     -0.4603126659
      0.3473359282
     -0.9472213904
     -0.0622297820
      0.0519124764
      0.1126175842
      0.1635564358
      0.4670786981
     -0.3690552818
      0.2664313521
      0.2607610964
      0.5321076462
     -0.7984979403
     -0.6890250174
     -0.9394664863
      0.6480200486
     -0.7107081492
     -0.3569383551
     -0.5932966134
     -0.1088841689
      0.0152254568
     -0.1991140176
     -0.1829236897
      0.9270281176
      0.0358670495
     -0.1357913052
     -0.2866881972
     -0.1380157268
      0.6421564209
      0.3387471199
     -0.9335436612
     -0.9410930083
      0.0958704143
     -0.5919056258
     -0.9132816955
     -0.0150703278
     -0.4938326918
      0.7518815853
      0.7242020157
      0.2968230539
      0.7051723682
     -0.6646139704
     -0.1508377695
     -0.8506851866
      0.2302021554
     -0.2856374989
     -0.2863676311
      0.9756613199
      0.3090027152
      0.4839414743
     -0.2651040081
     -0.2024056842
      0.5777193466
     -0.3346553558
      0.9366825571
     -0.5454206101
     -0.1434009548
     -0.6310584816
     -0.0006735910
      0.7686593573
     -0.9674457714
      0.8448981936
     -0.9098448936
     -0.7727446344
      0.2303930258
      0.7693132570
     -0.2348763331
     -0.4283269893
     -0.7772936988
     -0.0358715572
     -0.0778407922
     -0.3454358139
      0.8120621166
     -0.8273517372
     -0.6671880209
     -0.2489902666
      0.9199392973
      0.0581695556
     -0.4089963750
      0.2804183607
      0.6437479313
     -0.0118154741
      0.9238595730
     -0.7217259677
      0.5649297973
     -0.7576964507
     -0.7136547083
     -0.2176456187
     -0.5097839727
      0.6088610230
      0.8514312149
     -1.0192664680
      0.6262452359
      0.2641339306
      0.0333818675
      0.6148639990
     -0.9002417781
     -0.5517302708
      0.1002237662
      0.0697558941
      0.2803488733
     -0.9139955690
      0.3933483011
      0.7496902427
      0.7541877941
     -0.6624424102
     -0.1848915006
      0.3473530806
      0.9353564100
      0.1326500321
      0.2612718122
     -0.3469644069
     -0.4940362028
     -0.8282924999
      0.2475818043
      0.5940420477
      0.4504170525
      0.1644174221
     -0.6363714363
      0.2820427975
     -0.2257966795
     -0.4354719429
     -0.2443618505
      0.7073070195
     -0.0771934631
     -0.6676021165
     -0.2647569687
     -0.5386991714
     -0.6487555076
      0.6655321108
      0.2533751644
     -0.5166671506
      0.2238094481
     -0.8182514111
     -0.5405064403
      0.2956775679
      0.3493359080
      0.8051000354
     -0.3302641669
     -0.3081030465
      0.9396841552
     -0.4988088600
      0.4535924339
     -0.2009394696
      0.7009691796
     -0.2433375582
      0.3184023917
      0.1360321165
      0.0962380188
      0.7483331539
      0.9377808064
     -0.6951836563
      0.6579269538
      0.0009747868
     -0.5765733889
      0.4131791438
     -0.3372254366
     -0.3166804039
     -0.7873987706
      0.8243702379
     -0.9672848460
      0.7371876077
     -0.3266991631
      0.0087838176
      0.7428429437
      0.2036698893
     -0.2537628749
      0.0425627723
      0.7670141241
     -0.7394445190
      0.0005080615
      0.3618393030
     -0.4968129534
     -0.7321327025
      0.5682411146
     -0.0459741768
     -0.8970702650
      0.6993253080
     -0.2812761981
      0.0087169701
      0.6672615014
     -0.4789819368
     -0.7797030635
     -0.0248361475
     -0.0457696057
     -0.7881670027
     -0.5330431005
     -0.6599709279
     -0.2034200775
     -0.4156421447
      0.6806016689
      0.2342498852
      0.8868464721
      0.2940736940
      0.4643649875
     -0.4218666539
     -0.3812379160
      0.3726198605
      0.4813168112
      0.3879446425
      0.0042456321
     -0.7374755418
     -0.9578015011
     -0.3829879829
     -0.0941891289
     -0.0015764804
      0.8941439996
     -0.8014162599
      0.1845797669
      0.8234688047
      0.9024119609
      0.3034508374
      0.5367475643
      0.7970651559
      0.3001405036
     -0.2091206542
     -0.0342693475
      0.2706983754
     -0.9698090329
      0.6018385530
      0.5077432858
     -0.8361432916
      0.0373989406
      0.9458939772
      0.6967336787
     -0.8082350614
      0.4009229008
     -0.5109281611
      0.3716618928
     -0.2915176370
      0.6957089921
     -0.3246626885
     -0.7623002853
     -0.5247186225
     -0.8961227006
     -0.1396670660
      0.1301710290
      0.1603093270
     -0.7454837720
      0.4409479207
      0.7514851300
     -0.0293179767
     -0.3681834177
      0.8696865920
      0.9278591691
      0.1958022923
      0.7544651115
      0.8121974328
     -0.6461598306
     -0.4866378688
     -0.3856700047
      0.8227622096
     -0.4572288033
      0.8145219585
     -0.4612106726
      0.4858835018
     -0.6786087135
      0.0220635799
     -0.8887876158
     -0.7640696983
      0.4379646040
      0.2530540457
      0.9428488696
      0.2087658158
      0.9457409011
      0.8672207333
     -0.4775529251
     -0.4428601409
     -0.7375787942
     -0.0175276976
      0.3095034313
     -0.9163499065
      0.0701601693
     -0.0298420059
     -0.9366387238
     -0.5253357949
     -0.0064211039
     -0.4578463978
      0.6069663768
     -0.6124937753
     -0.3613029769
     -0.5257337169
      0.1885060325
      0.8928208001
      0.5661646363
     -0.7908632598
     -0.4963357514
      0.0865857341
     -0.7776185013
     -0.5281950096
      0.1390375136
      0.3709972708
     -0.0819347201
      0.4972999900
      0.0000024249
     -0.3159114852
      0.0327108359
      0.5894200346
     -0.8377961976
     -0.5420385907
      0.6417398560
     -0.7669131134
     -0.9153862796
     -0.8463944784
      0.0510004250
     -0.9631245530
     -0.8326607518
     -0.4353062178
     -0.6864809475
     -0.6319042500
      0.0784517729
      0.9235153756
      0.8031181760
     -0.2470178119
      0.8108755991
      0.4010082829
     -0.2250467773
      0.1808693623
     -0.1283451371
     -0.5945504155
     -0.7330808860
     -0.8103191982
      0.6591457779
     -0.9483901900
      0.6156351714
      0.3259823776
     -0.7707859660
      0.2376324145
     -0.0701913512
      0.3712242843
     -0.1514847176
      0.6430314737
     -0.0382607148
     -0.3207255712
     -0.8246041220
     -0.2793947419
     -0.0572070888
     -0.9579814544
      0.2492293124
     -0.1586504681
      0.2130152470
      0.8649924621
      0.0064736528
      0.3987163351
      0.1221483327
     -0.7290183040
      0.2254466002
      0.2993146355
     -0.1701955473
      0.6165416716
      0.1947815499
      0.1224275114
      0.3124878683
      0.8383365139
     -0.1893904648
     -0.5595559689
      0.1859627907
      0.4750306244
     -0.7729452857
     -0.1997128076
     -0.5519119826
     -0.1848065732
      0.4192940160
      0.4457069144
      0.0622012578
      0.4658358156
      0.6490515139
      0.3877620454
      0.8454433917
     -0.2576029239
      0.9781170505
      0.9797695783
     -0.3783824188
      0.8842471931
     -0.6920848709
     -0.0840484320
      0.1625168773
     -0.2051855132
     -0.9545253531
     -0.0428241815
     -0.0683591006
      0.9764222881
      0.3129824768
     -0.2541062380
     -1.0724687231
     -0.8302318046
     -0.0611189230
      0.9946478251
      0.9627758218
     -0.3210500476
      0.6442362431
      0.5492409513
      0.4176833763
     -0.9519355514
      0.1989751909
     -0.6420285535
     -0.8478478635
     -1.0909656800
      0.1935243848
      0.6544845180
      0.7147888472
     -0.9425160056
      0.6362307275
     -0.4540610380
     -0.9675471298
      0.6341646285
     -0.3766449374
      0.4628397674
     -0.2530590320
     -0.9536900699
     -0.3052572872
      0.4161457318
     -0.9995047862
     -0.0217681443
     -0.1144180052
     -0.5083871447
     -0.0595864055
      0.9860180840
     -0.5394609541
      0.1300069029
      0.3263188429
     -0.2070835685
      0.6640151963
     -0.1334964869
      0.4343131367
      0.9755719368
      0.6714029983
     -0.8766184014
     -0.5238914270
      0.4993212428
     -0.6442978645
      0.4556696538
     -0.3104873836
     -0.4198390826
      0.8068967879
     -0.8526423015
     -0.4055525515
      0.8381503212
      0.4176600437
      0.0268769710
     -0.0645375868
     -0.6940508159
     -0.5873037711
     -0.8868390757
     -0.0309500008
     -0.4768767445
      0.2975415284
     -0.1647441510
      0.3084529803
      0.3957243218
     -0.9101363449
     -0.8702565221
      0.9045159851
      0.7945455270
     -0.5990611881
      0.5972692742
     -0.6250636703
     -0.2118344734
     -0.0872879398
      0.3585911901
      0.8088117241
      0.8791252685
     -0.5958959174
      0.8373412018
     -0.9052771696
     -0.1872839099
      0.8233732746
     -0.8771006593
     -0.9483978394
     -0.1003184306
      0.5060205042
      0.3298040521
     -0.5238143774
      0.1582490030
     -0.8398391804
     -0.8386162977
     -0.6913541696
     -0.9810420811
      0.1573209830
      0.7962726946
      0.7193811153
      0.6904729333
      0.2988823981
     -0.2136405251
      0.7406871304
     -0.5730617886
      0.3683109773
     -0.4775743343
     -0.4223926555
      0.6324704087
     -0.3751774887
      0.3274602256
      0.3359621893
     -0.2849377557
      0.2044844107
     -0.7818141130
      0.3205099146
      0.5883549950
     -0.9478947540
     -0.4589085034
      0.6338896891
      0.9065504012
     -0.7832380936
      0.0433958479
     -0.5367908968
      0.3566259084
     -0.6238995050
     -0.3086281219
      0.8757164083
      0.1587382261
     -0.6306198913
      0.7533372020
      0.4408008517
      0.9579827592
     -0.5572021516
     -0.0949825011
     -0.4081873746
     -0.6041742376
      0.4504011391
      0.2947995859
      0.8303568110
      0.5646848896
     -0.9915872927
     -0.6297973112
      0.2454877746
      0.7539956002
     -0.9540705427
     -0.9019053733
      0.6500221429
     -0.3918640141
     -0.8818925544
     -0.7828018329
     -0.0931263581
      0.8733897184
     -1.0448757225
      0.5949978283
     -0.5625054349
     -0.8040786010
      0.9438625873
      0.8484281686
      0.3081765784
      0.8942845297
     -0.8471961902
     -0.6779181634
      0.8780655125
     -0.3614005065
      0.6493855069
      0.1562397994
     -0.4435133991
      0.6182306950
     -0.1719818366
      0.4069389206
     -0.8352051996
     -0.4980640286
     -0.6737384117
     -0.1156392343
     -0.9718143857
     -0.8220139462
      0.7260049823
     -0.9177760717
      0.1488592042
     -0.4705414076
      0.7905202839
      0.9774931967
     -0.7949027630
     -0.6927374513
      0.5067863466
     -0.1514886587
      0.8402081869
      0.6415944655
      0.6617388946
     -0.2020332329
     -0.4694706800
     -0.1430158469
     -0.1760765271
     -0.7260142092
      0.7048443177
     -0.7997399261
     -0.9611394449
      0.6710301796
      0.0180034810
     -0.7578632345
      0.4399599376
     -0.4772765634
     -0.3130134829
     -0.7122111002
      0.8440624647
      0.9098006111
      0.7566333106
      0.5723433545
     -0.2429138884
      0.4165333704
     -0.0938345430
     -0.0077139479
     -0.9414133751
      0.0728441971
     -0.5411808394
      0.8263898685
     -0.2426407256
      0.8255546310
      0.8971590838
      0.8444627320
      0.6634305205
      0.0610221097
      0.3391017407
     -0.5303346961
      0.8510197797
     -0.9343525535
      0.2438633051
      0.4014674534
     -0.8304547280
     -0.4509047160
     -0.1552230093
     -0.0357698170
     -0.1689473538
     -0.3098960767
     -0.8623656249
      0.4106512676
     -0.3512405763
     -0.2915234700
      0.5776655441
      0.5899346102
     -0.4771283124
      0.3796724839
      0.3503953502
      0.8716229443
     -0.9327720585
     -1.0018905850
      0.8464927030
      0.7338848305
     -0.8991022639
     -0.6269998013
      0.8733593852
      0.0549140228
     -0.8997021572
      0.6493913664
      0.2951915036
     -0.4855180732
      0.3508478085
      0.3754387308
     -1.1373242968
      0.0908365120
      0.2482523565
      0.1856293157
     -0.1013568354
     -0.2181765848
      0.7260583620
     -0.3298061635
     -0.0731009507
      0.9939320730
     -0.9725375954
      0.3624174130
     -0.6450729680
      0.9141235054
     -0.5977396419
