     -0.9232912213
     -0.1524235425
      0.3619508687
      0.5794841975
      0.9256789900
     -0.7618096372
      0.8661533430
     -0.7346206146
      0.4382955102
     -0.3094737752
      0.4439979151
     -0.9150852628
      0.9002831188
      0.5156012272
      0.1871693038
     -0.5515170660
     -0.8161332840
     -0.5789904137
     -0.7613216908
     -0.8509436329
      0.6010862763
      0.5231289748
     -0.8497071151
      0.5916126797
     -0.2245314808
     -0.9292325615
      0.6930846362
      0.8062219944
      0.1589994366
     -0.3597904180
     -0.5346335817
     -0.8188660521
      0.7022389994
      0.7718032461
     -0.2693631898
     -0.1082813432
     -0.3698531514
      0.7936863187
     -0.9490003720
     -0.0800921175
      0.7762938923
      1.0286603653
      0.7060360111
      0.9607890347
     -0.0603953415
     -0.9093883513
     -0.2510023006
      0.1013620921
      0.5917725364
      0.0376274032
     -0.4386611866
      0.3050816674
     -0.3289522534
      0.2763850723
     -0.4347344675
     -0.9302104088
     -0.5384495040
      0.4375295107
     -0.6115336794
     -0.0610521545
      0.1165009134
      0.5023943161
      0.6022642652
      0.2672131728
      0.0446425178
     -0.4352196146
     -0.8696738999
      0.7636140836
      0.0051054444
     -0.2722023878
     -0.5872624412
     -0.3689048159
      0.1451857996
      0.7697890696
     -0.0985998865
      0.8807665245
     -0.8539578834
     -0.8920008035
     -0.5297101287
      0.2816901351
     -0.5660877032
     -0.5875743361
      0.2393390917
     -0.7604219849
      0.5747559561
     -0.2851774119
      0.5404074032
     -0.7305886457
      0.4488853462
      0.6370127838
     -0.7310193718
     -0.7991374919
      0.7929703602
     -0.5776207619
      0.2875253965
      0.3411120146
     -0.3832510952
     -0.5223945150
      0.0784360834
     -0.5237998714
     -0.6105555788
     -0.4449030160
      0.1971660172
     -0.9296873557
      0.7744183767
     -0.0324862258
      0.5393078019
      0.9318401082
     -0.7055629235
      0.5665664788
      0.9765505820
     -0.5816958776
     -0.1481961781
     -0.6190570563
     -0.5604221658
      0.2778066526
     -0.0873488127
     -0.4876252029
      0.7201681673
     -0.5307975387
      0.0140536048
      0.9596011227
      0.0243712004
      0.5917527128
      0.5595663329
     -0.3601141291
     -0.4297049996
      0.6878442260
      0.0377517598
      0.1201713765
     -0.0089915701
     -0.3841935427
      0.9448192051
      0.0012169126
      0.2771783746
     -0.7268868610
     -0.1009173323
      0.8497661681
      0.3909217660
      0.1486987140
     -0.7493355503
     -0.5458338304
      0.7541379154
      0.5822605718
     -0.0507649621
      0.2604981900
      0.3106836618
     -0.0003118946
     -0.2710011403
      0.1887037689
      0.3955408176
     -0.7817252601
     -0.6932611187
      0.0480320070
      0.8513542809
     -0.8587490964
      0.0168816371
     -0.4394364932
      0.2861892989
      0.8633567521
     -0.5917390201
     -0.5972416141
      0.1574768137
     -0.5984505234
     -0.5020673410
      0.1431021787
     -0.0186394089
      0.8111176394
      0.3483372486
     -0.7987004481
      0.3250863402
     -0.6677179905
     -0.9788502600
     -0.0980104766
     -0.0019130139
      0.8359158458
      0.1839502690
      0.4670034360
      0.3847063959
      0.4316293290
     -0.7782222007
      0.7321587743
      0.3258712376
      0.5101368802
      0.7394493526
      0.5063741471
      0.8115773147
     -0.5505391980
      0.0194731852
      0.6241297986
     -0.7091031598
     -0.6536676569
      0.8080834196
     -0.7584975335
      0.4634639926
      0.7426886751
      0.6802275983
     -0.9526469901
     -0.0391406002
      0.0545758064
     -0.1303976270
      0.8021551688
     -0.6673107677
      0.1420258657
      0.6746588998
     -0.1173616529
     -0.6674303165
     -0.5887981660
      0.1109876762
     -0.5756057905
      0.4843356671
     -0.9331557029
      0.7099158220
     -0.0042342654
      0.3129929666
     -0.5322607352
      0.2711788973
     -0.3798391990
     -0.8129463284
      0.8342377477
     -0.5843866000
     -0.0668725670
      0.4289366386
      0.1056057286
      0.0887647185
     -0.8915075991
     -0.0404478562
     -0.4173779257
      0.6110154371
     -0.2376804711
      0.3752233262
      0.9003046912
      0.6626968443
      0.1252890019
     -0.9903160365
     -0.1936813240
     -0.0544624666
     -0.8488676070
     -0.3324489730
      0.0045960177
     -0.5122527502
      0.7333231329
      0.8697145511
     -0.4204585836
     -0.3295653507
      0.9200471014
      0.8176518023
      0.4467861053
     -0.3631739338
     -0.1591042365
     -0.2321430449
     -0.6264635285
     -0.6257092668
     -0.4479396932
     -0.3148579788
      0.8119603676
     -0.6501955158
     -0.6979744859
      0.1818199939
     -0.0427626878
      0.8113921315
     -0.4921569571
      0.8189954492
      0.8092517547
      0.6753120645
     -0.5611260583
      0.4215456975
      0.3109633937
      0.4535426689
     -0.0212791481
     -0.1654616931
      0.4842379821
     -0.2116582075
     -0.6774600106
      0.8493074473
      0.7004352435
     -0.0376309738
     -0.8598238370
      0.3024952042
     -0.3119321257
     -0.9893075609
      0.1103303146
     -0.7084825049
      0.5570662784
      0.7054767146
     -0.2877983526
     -0.5538667405
      0.0737068530
      0.4136182137
     -0.3809430790
     -0.7052123273
      0.1987833965
     -0.3128599713
      0.7973397892
     -0.1131534583
      0.7984131215
      0.1471992437
     -0.9122738316
      0.9407550065
     -0.4352438346
      0.5557130743
     -0.3981878820
      0.1278447713
     -0.7676799564
      1.0119405889
      0.2928581258
      0.7930820118
      0.3208318031
      0.4766001839
     -0.2465987740
     -0.8883153252
     -0.3112314223
     -0.5044038105
      0.2936112939
      0.6693485894
      0.1564226296
     -0.1997835479
      0.9534819413
     -0.4476877147
      0.9639885065
      0.9776849482
     -0.3648931675
     -0.2369287882
     -0.2227513407
      0.5243565391
     -0.3406831083
     -0.4020528451
      0.2899527858
     -0.4299759012
     -0.2364939399
     -0.6270952977
      0.7660472914
     -0.0083265303
      0.6425797033
     -0.9359626192
      0.0458616797
      0.8209165022
      0.2138615418
     -0.1630952155
     -0.0019664997
     -0.0081926220
     -0.8314251360
      0.6826547219
      0.4374662652
     -0.9437735255
     -0.1241115304
      0.9649653560
      0.1035717269
     -0.7564521283
     -0.3820013228
      0.5389026357
     -0.2622485887
      0.4032194525
     -0.6165324261
      0.0110403150
     -0.1227657235
      0.1389860373
     -0.6458704039
     -0.2805082236
      0.3753596111
      0.0237603108
      0.2410306051
     -0.8099227819
     -0.5234720408
     -0.1436876821
     -0.5009625541
      0.5200792393
      0.1916512596
     -0.4221149432
     -0.7675642782
     -0.9165867717
      0.2775776490
      0.7555901747
     -0.2667784687
     -0.4347919257
      0.5991094553
     -0.6793216751
      0.1281301766
      0.0696834741
      1.0161659741
     -0.4720377335
      0.5216668581
      0.3584577009
     -0.3004237970
      0.6448007748
     -0.1617633982
      0.0334184330
      0.7934705844
      0.7569681612
     -0.0727777340
      0.3090516638
      0.9670996943
      0.9137033847
      0.3226590105
      0.3258470114
     -0.8709813502
     -0.6460137916
     -0.2758006118
      0.1643661683
     -0.4323808985
     -0.7450880091
     -0.0252383090
      0.2154899911
      0.3353422589
      0.0305420593
     -0.0384123266
     -0.6766541389
     -0.5529802176
     -0.5240585291
      0.4913197559
     -0.4540085067
      0.6368942109
     -0.4422062584
      0.0937094456
      0.4593250191
     -0.6605879118
     -0.5639265470
      0.7123013636
     -0.9668518450
      0.2637647322
      0.9092215743
     -0.7205231313
     -0.8556539755
     -0.6532243624
      0.4949566011
     -0.1747946247
     -0.4424079371
      0.6923452685
     -0.9090090919
      0.3364980959
     -0.8783369897
      0.4082337996
     -0.2445609175
     -0.8218144455
     -0.6159187230
     -0.1207007753
     -0.5932469392
     -0.0116690303
     -0.7234085782
     -0.6734307469
     -0.0905951370
     -0.5240781972
     -0.1152096034
     -0.7746818049
     -0.3420832881
     -0.4863558177
      0.8049054767
     -0.1163172368
      0.6736337186
      1.0150352993
      0.8679662736
     -0.0477697350
      0.3642325207
     -0.2098773239
      0.2508349295
     -1.0151769419
     -0.6094355254
      0.4288130344
      1.1510697256
     -0.9280528888
      0.7712042982
     -0.0478030786
      0.6029820727
     -0.7510744344
     -1.0243503844
     -0.2800230334
     -0.8539562283
     -0.9889720234
     -0.0511528511
      0.6042362594
      0.2231934108
      0.2570010559
      0.9890364036
     -0.2644755448
      0.5715609275
      0.9625394841
     -0.9397378922
     -0.2129896619
      0.1850727955
      0.3338137806
     -0.2310147133
     -0.4003957353
      0.6981123580
      0.4424079037
      0.7726432093
     -0.5804726458
     -0.5604635413
     -0.5253595680
     -0.0170919736
     -0.9954980767
     -0.3178680016
     -0.2245599490
      0.0311262585
     -0.4640935703
      0.4660674706
     -0.6508443626
     -0.3811191160
     -0.5761196391
     -0.6381558240
      0.3351076613
      0.2521301076
      0.5839980887
     -0.8259263286
      0.7979215406
      0.8906843549
      0.6955463136
     -0.0445577257
     -0.5455199716
     -0.2386542774
     -0.0506212784
     -0.8803429393
      0.2645932334
     -0.6938765372
      0.5247515049
      0.8143848828
     -0.2492916316
     -0.5597992806
     -0.7793672037
      0.6539881493
      0.9029812409
     -0.7915424486
      0.7765254586
     -0.8132796715
     -0.7465112553
     -0.1643109829
     -0.5435042399
      0.5614055359
     -0.7825482549
     -0.0047041449
      0.8132096909
     -0.0389721812
     -0.2093295867
      0.1907829340
     -0.3707443820
      0.7962835909
     -0.6265845166
     -0.6248659920
      0.4163668186
     -0.6058209406
     -0.0288867043
      0.6530858168
      0.0399914337
      0.4847487230
      0.3515701598
      0.7751635775
     -0.1691646547
     -0.1344012277
      0.2027332996
      0.5103609322
      0.5889402671
     -0.3161491805
      0.3714816081
     -0.8589914402
     -0.4993365811
      0.4854979864
      0.4043292035
     -0.8443936430
     -0.5214274105
     -1.0407335620
      0.7998322870
      0.2147230949
     -0.9097135692
      0.9512350993
     -0.4562164931
     -0.0591401175
      0.7954902888
     -0.2415728457
     -0.3807426172
      0.1722417152
      0.0368327758
     -0.0589819230
     -0.8407962135
     -0.0646519362
      0.5022112705
      0.1458144621
     -0.3960189609
      0.5741325618
      0.3190399753
      0.8478539072
      0.4616676831
     -0.5255768201
     -0.5023805510
     -0.2572186986
     -0.7658772817
      0.5893515352
      0.3575190407
      0.1106741955
      0.3017292086
      1.0363288498
      0.0028613528
      0.9953734956
     -0.2689141622
      0.3462841801
     -0.8344856452
     -0.9931325640
     -0.3058693829
     -0.3326672065
     -0.7631490648
     -0.5211711873
      0.1948069005
     -0.2496867747
     -0.1462792407
     -0.4519788350
      0.4786216105
      0.2271377396
      0.8625569945
      0.9424722692
      0.6156534794
     -0.4756954671
     -0.7765065084
      0.7462096045
      0.4409147682
     -0.7759501228
      0.7655334058
      0.0644138484
     -0.0180645373
     -0.9267626717
     -0.2319008392
     -0.9139786613
      0.3662826054
     -0.0001188985
      0.5450075001
      0.5276280079
     -0.1054143696
      0.2165715014
     -0.8301196076
      0.2068398335
      0.1559780010
      0.5615778159
     -0.6917837170
      0.0778709028
      0.5703805113
      0.4334863560
      0.5824297448
      0.9512181022
      0.5982040760
     -0.0176641641
     -0.7610002640
     -0.5323261112
     -0.4878415350
      0.7515828838
      0.5901699290
      0.8284442032
      0.1447151567
      0.6280142223
      0.8797902820
      0.2119305818
      0.6847855433
     -0.8698110763
     -0.4513444264
     -0.2478877971
     -0.7606232576
     -0.2266750059
      0.4511344754
     -0.4380451495
     -0.1483401151
      0.4809256820
      0.3655169326
      0.0402251871
      0.2179945011
     -0.7303987040
     -0.0443692941
     -0.1801659921
      0.6154378855
     -0.9295596322
      0.1367651752
      0.8372897544
      0.4536229037
     -0.3482122945
      0.7873030785
      0.5232935984
      0.5241628837
      0.6914399560
      0.5446908149
      0.1639504501
     -0.0672736682
     -0.1510213777
     -0.2911358122
     -0.6562922382
      0.1991370762
     -0.8636005142
      0.3029120339
      0.6393029138
      0.8988664398
     -0.3827154029
     -0.2539399906
     -0.3814612599
      0.0870521688
     -0.4927053484
     -0.3007630013
     -0.3316747153
     -0.9012650001
      0.7719769505
     -0.0844396680
      0.2951498452
      0.7186932611
      0.0635911278
      0.8142263305
     -0.1195108457
     -0.2821801933
      0.2928125764
     -0.7541809496
     -0.8734157207
      0.6026799591
     -0.6506378152
     -0.8716186665
     -0.6116727542
      0.6918031547
     -0.2685944132
      0.5423673117
      0.4179608241
     -0.3746144640
     -0.2320309386
     -0.5105238924
      0.2618643952
      0.7369965483
      0.2089085561
     -0.0046123473
      0.1383702519
      0.0525988565
     -0.6078012640
