     -0.0361711102
      0.4396049817
      0.0569997575
     -0.3763023426
     -0.2020666469
      0.2359822573
     -0.1185792121
      0.1891587755
     -0.3522406176
      0.0165152604
     -0.0602399403
      0.0536231261
     -0.3435020917
     -0.1064112582
      0.1883039330
      0.0270356107
      0.1301257508
     -0.3615432479
     -0.2889914289
     -0.0899535396
     -0.2485300760
      0.2319844850
      0.0968326530
     -0.2043651132
     -0.3459997084
     -0.4232476202
      0.1211037785
      0.3693459840
     -0.1114324083
     -0.2108943725
      0.2895501802
     -0.3191959323
      0.0817124212
      0.0347619034
      0.5269701673
     -0.2352070427
      0.2712482463
      0.1652247445
     -0.1533658022
      0.2989510975
     -0.0745653063
     -0.0078167500
      0.3822343382
      0.3761495048
     -0.0290755810
      0.1447100995
      0.4789229048
      0.4269258760
      0.1469727827
      0.1244232993
     -0.4035884422
     -0.3174188716
     -0.1252680727
      0.0821457549
     -0.2228201191
     -0.3579717997
     -0.0701628407
      0.1093924017
      0.1888190464
      0.0240695854
     -0.0143280180
     -0.2987521551
     -0.2686428114
     -0.2601166247
      0.2160288495
     -0.2159529094
      0.3151774848
     -0.2144818277
      0.0456290060
      0.2245063683
     -0.3100872990
     -0.2743614420
      0.3717760415
     -0.4703333558
      0.1377803605
      0.4492787216
     -0.3826460722
     -0.4032743416
     -0.3541154057
      0.2038826004
     -0.0964669168
     -0.1871586704
      0.3405522499
     -0.4277545174
      0.1637280063
     -0.4075922607
      0.1759834725
     -0.1086782351
     -0.4322312621
     -0.3016713137
     -0.0225528135
     -0.2615983265
      0.0041010522
     -0.3723093884
     -0.3751472309
     -0.0600003843
     -0.2517160250
     -0.0707369398
     -0.3881883334
     -0.1473913133
     -0.2391184277
      0.3657214483
     -0.0666161737
      0.3478511028
      0.4511013494
      0.3714755947
     -0.0414585884
      0.1522751839
     -0.1984413714
      0.1226147350
     -0.4490525270
     -0.3709297566
      0.1874557671
      0.4994218749
     -0.5280938730
      0.3970828032
     -0.1416299787
      0.3727300457
     -0.2895494744
     -0.4431605726
     -0.1378085792
     -0.3934090566
     -0.4551608596
     -0.0682823101
      0.2658727599
      0.1009908099
      0.1202463879
      0.4681381766
     -0.1860207260
      0.3184077666
      0.4543876839
     -0.4371398211
     -0.0900907943
      0.1127627403
      0.1850672126
     -0.1541890437
     -0.2714090157
      0.3811268763
      0.2118824895
      0.3683080580
     -0.2882410776
     -0.2547876012
     -0.2672139349
     -0.0158276289
     -0.4477981805
     -0.1105423497
     -0.1116140952
      0.0116673070
     -0.2479839860
      0.2190224069
     -0.3927023401
     -0.1828053600
     -0.3142481984
     -0.3637040612
      0.2008252971
      0.1344529663
      0.2887934641
     -0.3789333473
      0.3842642086
      0.4313884095
      0.3896349873
     -0.0174252671
     -0.2639592805
     -0.1047337713
     -0.0177918377
     -0.3724368076
      0.1701829290
     -0.3571081341
      0.3080310458
      0.4285524837
     -0.1239141387
     -0.2631820407
     -0.4139489404
      0.3504152009
      0.4687616870
     -0.4237423658
      0.4123558330
     -0.3674469414
     -0.3777440350
     -0.0817910277
     -0.2083983203
      0.2840550606
     -0.4625484915
      0.0013184976
      0.3212673865
     -0.0105394515
     -0.0830259395
      0.1136391143
     -0.1722341552
      0.3612336568
     -0.3320232344
     -0.2951879882
      0.2333729265
     -0.3194561979
     -0.0100246197
      0.2772792822
      0.0066680477
      0.2300705774
      0.2131319429
      0.3832636101
     -0.0868820119
     -0.0611552304
      0.1050431782
      0.2692763444
      0.2313949000
     -0.1307528466
      0.1884476926
     -0.4462574480
     -0.2924514737
      0.2216526403
      0.1969291480
     -0.3644143952
     -0.3040322931
     -0.4852467305
      0.4514209749
      0.1071205964
     -0.4732832072
      0.4333640158
     -0.2104142341
     -0.0616151410
      0.3728666055
     -0.1113948443
     -0.2066249653
      0.0660605771
      0.0110631347
     -0.0366501758
     -0.4805368200
      0.0082878806
      0.2588635501
      0.0301167926
     -0.1861091135
      0.2732222532
      0.1698642362
      0.4241849797
      0.2667039013
     -0.2476408202
     -0.2633418058
     -0.1043949564
     -0.3703727420
      0.2713248157
      0.2857760661
      0.0811253543
      0.0973293561
      0.4655330642
     -0.0475649578
      0.4465701370
     -0.1039797540
      0.1843058817
     -0.4498938234
     -0.4429279581
     -0.2130539971
     -0.1555557534
     -0.3704302197
     -0.2617300461
      0.1084785844
     -0.1711772992
     -0.0744346232
     -0.1946067046
      0.2663332377
      0.1597269094
      0.4192467788
      0.4061534711
      0.2955129100
     -0.2217945506
     -0.3884561838
      0.3767557981
      0.2240082692
     -0.4054653281
      0.4135980731
      0.0249313922
      0.0235478391
     -0.4114081021
     -0.1066995966
     -0.5003725890
      0.2489663016
     -0.0153893546
      0.2922877701
      0.2163044429
     -0.0530083440
      0.1382704889
     -0.4327170495
      0.0982478592
      0.0993757578
      0.2776485395
     -0.3205804309
      0.0383776205
      0.2919642480
      0.2200158627
      0.3280952845
      0.4739735262
      0.2677000306
     -0.0173680158
     -0.4099225730
     -0.2777737037
     -0.2573648042
      0.3554853300
      0.3137483635
      0.3570482894
      0.0653029860
      0.2776987432
      0.3796618369
      0.0975798074
      0.3225648081
     -0.4540414836
     -0.2167511214
     -0.0973011342
     -0.4088804797
     -0.1313660004
      0.2120087491
     -0.1727813314
     -0.0464471844
      0.2284736001
      0.2177168841
      0.0397501091
      0.1310466357
     -0.4047594071
     -0.0703717738
     -0.0851708500
      0.3310660186
     -0.4258856620
      0.0696294256
      0.3710481239
      0.2257754998
     -0.1410082618
      0.3345424568
      0.2721913843
      0.2649539854
      0.3151080309
      0.2907263640
      0.0748958480
     -0.0872970005
     -0.0828840683
     -0.1418648635
     -0.2965622635
      0.1509300770
     -0.4177873542
      0.1500231459
      0.2830900191
      0.4672656494
     -0.2107499409
     -0.0881425300
     -0.1709745037
      0.0098023993
     -0.2444781060
     -0.1473003515
     -0.0782268819
     -0.4393802410
      0.3491378483
     -0.0999218713
      0.0904564233
      0.3320541064
      0.0471904631
      0.4403085854
     -0.0773977312
     -0.0942052547
      0.1000752748
     -0.3964644556
     -0.3499513873
      0.3147663796
     -0.2861302299
     -0.3065449325
     -0.3727638732
      0.3879651816
     -0.3387808805
      0.2627600905
      0.1485386586
     -0.0759454955
     -0.1895776589
     -0.1781734287
      0.1459919762
      0.4520041770
      0.1385426289
      0.1200060867
      0.1603672810
      0.0981098598
     -0.3344200722
      0.0684971191
     -0.3838061827
      0.0166954977
      0.0866147844
     -0.3656408726
     -0.0785275280
      0.4813789983
     -0.3056392438
      0.2948446437
     -0.3793295823
      0.1946653485
     -0.3989871211
      0.0636544309
     -0.4315952451
      0.4426348343
     -0.3426528008
     -0.3309504162
     -0.4047027919
     -0.0808522044
      0.4265613229
      0.2255291155
      0.3187655216
     -0.3477641806
     -0.4274776961
      0.3056241526
      0.0462566472
      0.3355797289
     -0.3414277388
      0.3411301196
     -0.0874194727
     -0.3944313643
      0.0369273129
     -0.2073837559
     -0.3191834113
     -0.1353618510
      0.2100920509
     -0.0346060020
      0.0887781399
     -0.2537545712
     -0.3577363550
      0.4445490342
     -0.0528191878
     -0.0110618793
      0.0264627523
      0.4400109420
     -0.4398810577
      0.3639209949
     -0.0125843085
     -0.1247880859
      0.1226916304
      0.4454218287
     -0.0513214178
      0.1896186856
     -0.0153735000
     -0.1750991038
      0.4409651441
     -0.4612744401
     -0.0579616061
     -0.2711403345
      0.1627130916
      0.4197706688
     -0.2599048159
     -0.2947157076
     -0.0979660423
      0.0189020384
     -0.3766081717
      0.0062862355
     -0.2997815186
      0.4450690549
      0.4539210051
      0.0596243085
      0.4660014668
     -0.2066802639
      0.4167519385
     -0.0957630198
     -0.1584314724
      0.3642645721
      0.2291937925
     -0.2143203693
      0.2255040057
      0.2675996480
      0.1047316721
     -0.2426485135
      0.2158411125
      0.2352701037
      0.1010853531
     -0.0568102347
      0.4536839974
      0.2978965896
     -0.3964513898
      0.2348478092
      0.1593125928
     -0.0421464354
     -0.0796505781
      0.2770409634
      0.1980968454
      0.1704673905
     -0.0993983266
     -0.4849854447
     -0.3837332827
      0.1474159275
     -0.1088841077
     -0.3943713179
      0.3797347871
      0.4033456142
      0.4391153887
     -0.2727215363
     -0.3803900303
      0.3791410395
     -0.3804721222
      0.2119567398
     -0.1610862561
     -0.2135307996
      0.3354530521
      0.2655526910
      0.1566103127
     -0.1336457809
      0.1374151809
      0.0718624933
      0.2208293862
      0.0693919259
     -0.2248368460
      0.0510401679
      0.3172040720
      0.0383599611
     -0.1647525861
      0.2014502762
      0.2571902940
     -0.0567752849
      0.2925237716
      0.3331582824
     -0.2948936118
      0.4248405187
      0.1440186599
     -0.1102526124
      0.3190216554
     -0.1687681527
     -0.1197898918
      0.2096573846
     -0.0340559834
      0.3934779051
      0.1474557913
     -0.3317632207
      0.3994669507
     -0.1215804514
      0.1986395522
      0.3444371085
      0.0353387819
      0.2241727741
      0.2878001920
      0.3934976755
     -0.1780007651
      0.5495653831
     -0.2258708761
      0.1924183300
     -0.3046345074
     -0.0668613017
     -0.0291423232
     -0.2341387208
     -0.4691161063
     -0.2359885003
      0.3177499085
      0.2761813168
     -0.0367583894
      0.1726406505
      0.3979571825
     -0.1770112652
      0.1264012832
     -0.2427910885
      0.3803692069
     -0.4063689297
      0.2834182404
     -0.0540541130
      0.4077426805
      0.2793303848
     -0.2361545901
     -0.1924369306
      0.1669457177
      0.4206396647
     -0.0501968493
      0.5112500762
     -0.0905476377
     -0.3897960956
     -0.4206648098
      0.4409573914
      0.2438711526
     -0.2948100306
     -0.0763625459
     -0.1810746344
     -0.1806659401
     -0.2480973785
      0.0654141907
     -0.4703650808
      0.4163527326
     -0.2782171040
      0.4679668440
      0.1852685660
      0.0068693969
      0.0070183123
      0.0722048855
     -0.1971021437
      0.1930351511
     -0.1450441508
     -0.2538323304
     -0.2773645250
      0.3598015196
      0.1512636923
      0.3247398048
      0.4524433143
      0.3400420443
     -0.2930372649
     -0.4357334678
     -0.1008709842
     -0.3294901917
     -0.3917808591
     -0.2377478130
     -0.4726443907
     -0.2331642349
     -0.3175564401
      0.1283646219
     -0.1016334871
      0.2347828004
      0.0422228788
     -0.3702401368
     -0.3830619695
      0.3144483190
     -0.3788035835
     -0.0036024707
     -0.0786605310
     -0.0346167461
      0.0477737026
      0.1935750331
      0.2760609360
     -0.2459396332
     -0.2610703787
     -0.2402465145
      0.4323462890
     -0.3050326229
     -0.0372229295
     -0.1210407976
      0.0972876285
      0.4334625688
      0.1475835733
     -0.0819502813
      1.2862030060
      0.7083415272
     -1.0456584261
      0.0729444042
     -0.0682064952
      1.4584722454
      0.2309298228
     -0.6637431805
     -0.3701318433
      1.0780149235
      1.1666400330
      1.1518839823
      1.5000206018
      0.6025947949
     -0.8048781727
     -0.6529322152
      1.1567097439
     -0.2099358849
      0.3604934337
      1.0007303021
      0.1056600212
      0.0549105490
     -0.1196907407
     -0.5083712805
     -0.4379670431
      0.1293832353
     -0.0069573698
      0.2712007883
      0.2064111743
      0.5377482367
     -0.6293352049
     -0.2817894422
      0.3103932207
      0.1504223297
     -0.1259929026
     -0.3001115634
      0.1277807657
      0.5428545221
     -0.1788734433
      0.2314066863
      0.2320794541
      0.5477572605
     -0.3788132184
     -0.5722971465
     -0.1178999758
      0.0154406912
     -0.2953025127
     -0.5195352567
      0.1418200497
      0.0205123973
      0.4034325893
     -0.0728501226
     -0.2157602981
     -0.4733331478
      0.3905043778
      0.4707748163
      0.5369442353
      0.1552162824
      0.4571425802
     -0.2568400200
     -0.2174231865
      0.2029310504
      0.4121509112
     -0.1583051258
      0.0333083104
     -0.4922382996
      0.0412158213
     -0.2640088829
     -0.3298171705
      0.4642573839
     -0.3752694005
      0.4331435596
     -0.4903531066
      0.5690021992
      0.4268222458
     -0.5722184628
      0.4340662652
     -0.0470760715
      0.5230246759
      0.5366017943
      0.4525087380
     -0.4519445059
     -0.0405605130
      0.4071592559
      0.1910857263
     -0.0869001302
      0.4515248333
      0.3129244541
      0.5382461700
     -0.5426922618
     -0.0476136655
     -0.1491131110
      0.5255692441
     -0.4655021245
      0.1648624880
      0.1034462379
     -0.2584063403
     -0.1554477972
     -0.2766993949
     -0.4260642746
      0.3501633077
      0.1011940696
     -0.3016636856
     -0.1332028730
     -0.1103601363
      0.5767321544
     -0.4984373455
     -0.4108329420
      0.4173611803
      0.0808848534
     -0.2732332226
     -0.4357550530
     -0.2486906978
      0.1776622676
     -0.2583925079
     -0.6755381432
      0.0297275601
      0.3798131922
     -0.2495735922
     -0.2971158192
      0.3071400347
      0.4001300473
      0.5783742646
     -0.4574415733
     -0.5095471491
     -0.5751902900
     -0.4501079290
     -0.1647073513
      0.4565933061
      0.4333954059
     -0.5834870448
     -0.1566326932
      0.0289861511
     -0.4701997688
      0.5563588127
      0.3835054502
      0.3386094538
     -0.4906432196
     -0.1494151390
      0.1947385899
      0.1204221060
      0.2732072695
     -0.4983884665
     -0.4673890893
      0.4955059768
     -0.1263500788
     -0.2764481012
     -0.0190258366
      0.4126099422
     -0.0191854434
      0.3630122358
     -0.5917147519
     -0.1763530847
      0.4007728757
      0.4358151086
      0.0300422057
      0.1615877172
      0.1295734144
      0.1502643483
      0.1671534813
      0.5333273422
      0.5107639835
      0.5883267040
      0.2940925430
      0.1405079046
     -0.3846981206
     -0.3518633325
      0.3849776990
      0.3601750603
     -0.2966351363
      0.5852986972
     -0.1932815533
      0.5650445079
      0.3489826007
     -0.5803550799
      0.3075105023
      0.4799780842
     -0.4378226464
      0.5405751068
      0.2182641460
      0.4474457084
      0.1932245056
     -0.1283139145
     -0.4685538422
      0.4384306033
      0.4219091134
     -0.3730607804
     -0.3887254950
      0.3628687607
      0.4338405228
      0.1163745691
      0.0494531915
      0.4892370216
      0.3459680737
     -0.2901110685
     -0.2366294381
     -0.2980720160
      0.0935081794
     -0.1892712912
     -0.4002053711
      0.1990990131
      0.2447480643
      0.1339777167
     -0.1133779585
      0.5440966027
     -0.5311932625
     -0.4885683520
      0.5633142508
      0.0221559190
     -0.5812199899
      0.3220251205
      0.1350345783
     -0.1154189663
     -0.1462851650
      0.4832474666
      0.3260115903
      0.3038611276
      0.2980836753
      0.4740008678
     -0.5783015011
     -0.5153046370
      0.1302617515
      0.1011525775
      0.4214007349
     -0.2636417471
     -0.6125886479
      0.3254864964
      0.4320526475
      0.5223199559
      0.2983433159
      0.2362884481
     -0.3498143003
     -0.5140822786
      0.3649672595
      0.0816426471
     -0.1437132893
     -0.4029448859
     -0.5244797287
     -0.4068817535
      0.3149566324
      0.3839576620
      0.3932713909
      0.2016696675
      0.2702217419
     -0.2613491957
      0.0262218124
      0.3500541245
     -0.1520015061
      0.4240950365
     -0.3520816984
     -0.0852383880
      0.6354393470
      0.4578420490
     -0.3606305755
     -0.1207447498
      0.1825126971
      0.3730419037
     -0.6591951965
      0.2438147176
     -0.4486418871
      0.2567529782
     -0.4930928598
     -0.3816757069
      0.4286957358
     -0.3668780976
     -0.2535005844
     -0.4520014280
      0.4311554959
     -0.5071888781
      0.0039633211
     -0.1176091216
      0.2461010615
     -0.1940976547
      0.1472339827
      0.6223292362
      0.2847154192
      0.0855458032
      0.1487334017
      0.1319502416
      0.3147708496
     -0.5346169809
     -0.0245094015
      0.0080509063
      0.3846522977
     -0.5131483912
     -0.1599850347
     -0.3689207180
     -0.2308128834
      0.2202080238
     -0.1381984455
      0.2248602191
     -0.5267031746
      0.5123906492
     -0.2779451015
     -0.5294564839
      0.1594072492
      0.5666628020
      0.6836452618
     -0.3111381804
      0.3335247612
      0.2924673483
     -0.4681853647
      0.5955756006
     -0.1582176049
      0.1668931019
      0.0671911185
     -0.3533385799
     -0.1381145332
      0.2190284388
     -0.2017122454
      0.2590388152
     -0.2706286004
      0.2956082958
     -0.4170362279
     -0.1318843225
     -0.0895943724
     -0.4608270387
     -0.3229119776
      0.4758077674
      0.3153045250
      0.4400247256
     -0.4065809962
      0.4006599001
     -0.3596533917
      0.2335487700
      0.2028369618
      0.3209626821
      0.2812730886
      0.2048314235
     -0.5021897188
     -0.1660337209
     -0.1845798415
     -0.2816883083
      0.3429196022
      0.2210579984
      0.1653373819
      0.5221361293
     -0.1510942047
      0.4703147981
      0.3728442373
      0.3129782311
     -0.1324248937
     -0.6098964940
      0.2841760506
     -0.0123618945
      0.4594809715
      0.0980975544
     -0.5722405855
      0.1693602425
     -0.4408076786
      0.6204850214
     -0.5826911338
      0.1988442600
      0.5306646390
     -0.2508823959
      0.0537781665
      0.0957793890
     -0.0068396931
      0.3543431144
      0.3961722320
     -0.0809627374
      0.5469748449
     -0.2580529159
      0.2502638547
      0.4308281548
      0.0581015795
      0.1712870309
      0.5179060702
      0.2671022442
      0.2391389837
      0.5278962649
      0.2354467800
     -0.2356743039
     -0.1727511966
      0.1585195970
     -0.6375143144
      0.3066089968
      0.3495293643
      0.4119532134
     -0.4012772892
      0.4145212118
      0.5526047758
     -0.3321604739
      0.4521354245
      0.5719805703
     -0.5451237357
     -0.4202688374
     -0.3658839235
      0.4795218405
      0.3303990704
      0.2235270494
      0.0157465278
      0.0279636046
     -0.0112131513
      0.4504930205
      0.1404482102
      0.5522514680
     -0.2289547678
     -0.1201578836
     -0.5328324680
      0.5016776054
      0.2653741005
     -0.0054865112
     -0.1386866104
     -0.4948706503
      0.2590994748
      0.5572388831
      0.2096234442
     -0.4362123934
     -0.3878970137
      0.0138082493
      0.6006499177
      0.5314377675
      0.4649355423
     -0.0030197519
      0.7132695582
     -0.0919802132
      0.3278619066
     -0.5453600122
     -0.0902552799
     -0.7280272381
     -0.6225306986
     -1.3080479108
     -1.0820750328
      0.4744684140
     -0.3305748865
     -0.5932485468
      0.6836740785
      1.3925604610
     -0.0851692766
      1.4989244175
     -0.4012969709
      0.7606868273
      0.6488198816
      1.0320685923
      0.5283563293
      0.9076395582
      0.7224248673
      0.6140344652
     -0.5782496409
      0.0059420447
     -0.0042880736
     -0.0049332187
      0.0034965521
     -0.0078227062
      0.0076310223
      0.0143733258
     -0.0029880617
     -0.0069868762
      0.0073849897
     -0.0017414724
     -0.0033857935
     -0.0022107985
      0.0024267651
      0.0066341090
      0.0024405622
     -0.0051458693
      0.0029103512
     -0.0059697418
     -0.0080243710
     19.6536244159
